layers 7
layer 0 Conv2D
layer 1 LeakyReLU
layer 2 MaxPooling2D
2 2
layer 3 Flatten
layer 4 Dense
18432 16
[ 0.00583026  0.00337592 -0.02084921  0.0036448   0.02010675 -0.02109744
 -0.00103845 -0.00936322 -0.00139553 -0.01504835  0.00672632  0.00877407
  0.01045363 -0.00148583 -0.01431057 -0.02406917]
[-0.00373008 -0.00378867 -0.01995619  0.01308755  0.00437467  0.00223031
  0.00254443  0.00476206  0.02086622  0.00070348 -0.02413487 -0.0011973
  0.01321651  0.00650826  0.01292615 -0.02309351]
[-0.0114485   0.00107605 -0.01530263  0.0096791   0.0120128   0.00620352
 -0.01450086 -0.00954107 -0.00610644 -0.00803364 -0.01381003  0.01428297
  0.00702088 -0.00671145  0.01420817 -0.0010837 ]
[-0.01862693  0.03100566 -0.01041783 -0.01486408  0.01879149  0.01063313
 -0.00674586  0.00640668  0.00316621  0.00825851 -0.00531113  0.00536544
 -0.00397826  0.00624949 -0.00643925 -0.02405319]
[ 0.00879075 -0.00293772  0.00926109  0.00735539  0.00181113  0.00464041
 -0.00470798 -0.00350178  0.02200249 -0.01471953 -0.0200066   0.00198862
  0.00350758  0.00779361 -0.00196907 -0.01824986]
[-0.00548189 -0.00285097 -0.01791272 -0.00094672  0.01012429  0.00137559
  0.00208677 -0.00859546 -0.00933222 -0.00432493  0.00073671  0.01471383
 -0.00853069  0.00966005 -0.0054892  -0.01548891]
[-1.9780039e-03 -1.5125232e-03  9.4872213e-04  7.8725591e-03
  1.6088672e-02 -9.1633748e-04  2.4966944e-03 -1.7807733e-02
 -5.8824914e-03 -1.8826749e-03  3.4573295e-03 -2.4236434e-03
 -1.1718960e-02 -6.5237116e-05 -1.4643930e-02  4.2357454e-03]
[-0.00603269  0.00602906  0.01731754 -0.00780044  0.01572952  0.00177744
 -0.00953311  0.00836563  0.00721982  0.0220272  -0.00047549 -0.00621219
 -0.02208196  0.01748593 -0.00847947  0.01529619]
[-0.01561346  0.0006865  -0.00548926  0.00278893 -0.01088117 -0.00302992
 -0.01205735 -0.00055544  0.00936041  0.01229967 -0.01664416  0.01324284
  0.01650996  0.01351204 -0.00875254 -0.0140956 ]
[-2.9093339e-04  1.0309174e-02 -2.3008777e-02 -2.4278085e-03
  2.5591228e-02 -8.2592638e-03 -2.8916143e-02  2.1112895e-02
  1.4851244e-02 -1.0750400e-04  6.3297135e-05 -7.5458949e-03
  1.8510373e-02 -1.6244203e-02 -2.1027843e-02 -9.9168587e-03]
[ 0.00611556  0.00178067 -0.02292867  0.0134473   0.02060153 -0.00357576
  0.00618784 -0.01433484  0.01636322  0.01061843 -0.01585509 -0.01462892
  0.01609924  0.01384804 -0.00646899  0.00094898]
[-0.00970192 -0.00611631 -0.01818902 -0.00223924  0.01972981  0.01176556
  0.01298146 -0.01831677 -0.00137597 -0.01730835  0.00495949 -0.0223245
  0.01245047  0.00550037  0.00405742 -0.01282203]
[ 0.00828154  0.01427338 -0.02323508 -0.0031219  -0.00054103  0.00787305
 -0.01040261 -0.02262871  0.01383365 -0.0231015   0.00143296  0.0132358
  0.00315593  0.00522812  0.01559215 -0.01908872]
[ 0.01244837  0.00530879  0.00012063 -0.00314439  0.01318494 -0.01523009
 -0.01263864  0.00451982 -0.00464642  0.00452978 -0.01051171  0.00499163
  0.00151551 -0.01551155  0.00149077 -0.02306687]
[-0.01268155  0.00502443 -0.01059375 -0.02146982  0.01297282 -0.02024415
  0.00339092  0.01036848  0.01519039 -0.01220943 -0.01838855 -0.01966446
  0.02318887  0.00387921  0.00949809 -0.01809969]
[-0.01682654  0.00796649  0.00304234 -0.01384668  0.00600338  0.01042811
 -0.01845111 -0.00827736  0.01600895  0.00194459  0.01365105  0.00175474
  0.00640862  0.00321448 -0.00341401  0.0044043 ]
[-9.5844679e-03  1.0285520e-03  6.6922535e-03  6.4238452e-04
  1.6180128e-02 -7.2419681e-03 -1.5461732e-03 -5.9834711e-05
  2.0208318e-02 -1.8482465e-02 -1.0180617e-02  7.8817047e-03
  1.4126456e-02  1.1135386e-02 -1.5519029e-02  2.0222908e-03]
[-0.0051807   0.02130978  0.0034888  -0.00918573  0.03422936 -0.02525908
 -0.00492209  0.01980762  0.022855    0.0009185   0.00494489 -0.02231002
  0.0342551   0.0002967  -0.03130431 -0.01894185]
[-0.01180772  0.00283212 -0.00211367 -0.01386277  0.01333534 -0.0102256
 -0.00102358  0.02702507  0.01881713  0.01629134 -0.02332438 -0.0110985
  0.03096498 -0.00596154 -0.01254859 -0.00210923]
[ 0.01491752 -0.01777422 -0.02208608  0.0109358  -0.00597023  0.01608725
 -0.01256114 -0.01270398 -0.01731165  0.00660888  0.0071646  -0.00850916
  0.00179978  0.01660876 -0.01102303 -0.01891492]
[-0.0137857   0.0042988  -0.02413416 -0.01796558  0.02077208  0.00252078
 -0.02202828 -0.01222662  0.02418863  0.00714071 -0.00253013 -0.01231913
  0.00811313  0.00022011  0.00146613 -0.01752   ]
[-0.02049648  0.03582134 -0.01444534 -0.01775793  0.02386155 -0.03332774
 -0.0243404   0.00726892  0.01703928  0.02117818  0.00497332 -0.00541298
  0.00979357 -0.02903287 -0.01033611 -0.01284622]
[-0.00472232  0.00185232 -0.00245278 -0.01178685  0.00627448 -0.01892808
 -0.01931325  0.00982777  0.02039244 -0.00468341 -0.02225932 -0.008873
 -0.01159543  0.00412105 -0.01860699  0.00141462]
[-0.00229878  0.00976876  0.02051467  0.00701303 -0.01050651 -0.00877915
  0.00030492  0.00424107 -0.02163262  0.01141758  0.02223458  0.00424505
 -0.01750488 -0.00958461 -0.01188812 -0.00733561]
[-0.02166242  0.01967472 -0.01649665  0.00925886  0.00368654 -0.01553729
 -0.01337927  0.01219642  0.00616244  0.00552715  0.00454498  0.00709249
  0.00862058  0.0148539   0.01041059 -0.00357374]
[ 0.00345693  0.00314599 -0.00968502 -0.0109811   0.03257076 -0.00712819
 -0.0184221   0.02016492  0.03463769 -0.00664743 -0.01100062 -0.01984459
  0.01597171 -0.02530867 -0.03258564 -0.02069023]
[ 0.00376229  0.01961116 -0.01390855  0.00161697  0.02093889 -0.02426715
 -0.01542881  0.01258893  0.03721404 -0.01479121 -0.01813962 -0.02494746
  0.01499209 -0.01479121 -0.01749494 -0.00257002]
[-0.02041377 -0.01801228 -0.02116552 -0.01788074 -0.01340026  0.00630406
  0.00956775 -0.01211586 -0.0049381   0.00284131  0.00619156 -0.01756205
  0.01173649  0.00773126  0.00389473 -0.00221048]
[-0.00240066 -0.00272235 -0.01441233  0.0067574   0.01482065 -0.01067847
 -0.01150433 -0.01993456  0.01906497 -0.00216584 -0.02101433  0.00171797
 -0.01048415  0.00016172 -0.01296214  0.0040231 ]
[ 0.01261766 -0.01618924 -0.01614152 -0.00354283  0.00362159  0.02152612
 -0.00982804 -0.00993133 -0.02373922  0.00258419  0.00089207  0.00414398
 -0.01462439  0.02031816  0.01548185 -0.01474009]
[ 0.00247996 -0.01038977  0.00616687  0.00568684  0.00964413 -0.00210071
  0.0134665  -0.02133922  0.01522594 -0.01076513  0.00706436  0.00827952
  0.00976916  0.00662997 -0.0003567  -0.01527957]
[-0.01317651  0.03349096 -0.02162728  0.00232953  0.00643068 -0.00180677
 -0.0163842   0.00641476  0.04370904  0.02161187 -0.03350807 -0.02097392
  0.02090259 -0.01127266 -0.03241658 -0.02263679]
[-0.01759249  0.00737687 -0.00280432 -0.00029762  0.01956334 -0.00492423
  0.0129674  -0.01243882 -0.00143353 -0.00387882  0.00436333  0.01386808
  0.01874913  0.00862389  0.00168091 -0.02243259]
[-0.00176601  0.0169019  -0.01212295 -0.00563365  0.02040083 -0.02025703
 -0.01388353  0.00355274  0.02355117 -0.01124368  0.00748816 -0.00226004
  0.01936295 -0.00521211 -0.02250283 -0.0071944 ]
[-0.02571165  0.04533951 -0.01413951 -0.01171846  0.03436621 -0.03531569
 -0.00685852 -0.00425449  0.03726028  0.03344047 -0.00275185 -0.03690568
  0.00405078 -0.02624822 -0.03251085  0.00389147]
[-1.3091745e-02  5.4795040e-05 -1.2167313e-03 -1.5033435e-02
 -1.1836847e-02  1.5704731e-02  5.3477236e-03  7.6676565e-03
 -9.6885171e-03 -2.1874323e-03 -1.3350260e-02  6.1562406e-03
  4.9296618e-03  5.1049418e-03 -2.6290638e-03 -1.0649137e-02]
[ 0.00286092  0.02202593 -0.0206011  -0.01258046  0.0108816  -0.00980461
 -0.0241673  -0.01228887  0.02338957  0.0072546  -0.00350317 -0.0241712
  0.02795489  0.00210034 -0.00319424 -0.00684181]
[ 3.9307978e-03  3.5133460e-03  7.0558507e-03  3.4670138e-05
  9.6564153e-03  3.1199304e-03 -1.0529788e-02 -5.1367301e-03
  1.0377863e-02 -1.0871032e-02  1.0655414e-02 -1.1736967e-03
  6.4095301e-03 -1.7043738e-02  1.6164396e-02 -1.9638656e-02]
[ 0.01063641  0.00570103  0.00212748  0.003072    0.00965721 -0.01336388
  0.00872684 -0.00035996 -0.00362688 -0.01939116 -0.00430056  0.01197155
  0.00655269 -0.01446328 -0.00296952 -0.01773708]
[ 0.00279433 -0.01384809  0.01537434 -0.01349333  0.0033508   0.00687651
 -0.00515135  0.01170052  0.01426332  0.00113815  0.00561403  0.00167663
 -0.01647346  0.00761384 -0.00467088  0.0173892 ]
[ 0.00343127 -0.00863139 -0.01837989 -0.00555935  0.0188751  -0.01765954
  0.00198414  0.00730314 -0.00854226  0.00444629 -0.00889373  0.00739197
  0.00807491  0.01079305 -0.01382297  0.00951019]
[-0.01445943  0.02262685 -0.00162918 -0.03004503  0.00828755  0.00101596
  0.00016577  0.01215186  0.04884316 -0.00987487 -0.00242783  0.00534999
  0.01207545 -0.00291807 -0.01101299 -0.00529275]
[-0.00354728  0.02633798 -0.02333786 -0.03669098  0.02438595 -0.02583179
 -0.00239055  0.004102    0.03590304  0.00649921  0.00560478 -0.00809263
  0.00678873 -0.00271903 -0.02721158 -0.0088533 ]
[-0.01681112  0.0149137  -0.00022177  0.00430759  0.00406066  0.00997179
 -0.00022939  0.00426388  0.01977607 -0.01993112 -0.0102773  -0.01402774
 -0.00169991 -0.01384315  0.00110446 -0.00632619]
[-0.02976382  0.04049578 -0.01634178 -0.00323564  0.04013065 -0.02121652
 -0.01471192  0.01666286  0.01297757  0.00666659 -0.01299316 -0.0325248
  0.02769831 -0.00984339 -0.02723803 -0.01361033]
[-0.00841186  0.01496851 -0.01186658 -0.0230774   0.04542301 -0.00871503
 -0.01618626  0.00608195  0.00962945  0.00755517  0.00608182 -0.02338121
  0.03107104 -0.02316023 -0.02944995 -0.0074032 ]
[ 0.00810647  0.00628382 -0.00446195 -0.00446284 -0.0041886  -0.02192874
  0.00689922 -0.01946679  0.00768787  0.01108032 -0.00290254  0.00521441
  0.01319828  0.00669935 -0.0068664  -0.02593605]
[-8.7353941e-03  1.6966611e-02  1.1374472e-02  9.4727064e-03
  1.8838895e-02 -1.4912726e-02 -7.3433639e-03  2.2779649e-02
 -1.2193918e-02  1.7576154e-02  1.6275627e-03  1.1175881e-02
 -2.3030061e-03 -7.2106159e-05 -1.1289068e-02 -1.7002674e-03]
[-2.2408344e-02 -2.6302810e-03 -2.2828411e-02  8.0920681e-03
 -3.2869217e-03  6.7066071e-03 -1.5429784e-02 -1.3693174e-02
  9.5661840e-04 -1.2727221e-02 -1.7682735e-02 -9.8701473e-04
  3.0424379e-04  2.3617635e-05 -1.5199471e-03  1.3502610e-04]
[-0.02023719  0.03772195 -0.00141749 -0.02435702  0.01654748 -0.0084804
 -0.01113015 -0.0019297   0.02753584 -0.01862058 -0.02456703  0.00192569
  0.01969263 -0.02608513 -0.01486965  0.00470854]
[-0.00396896  0.0583282  -0.02299852 -0.02548148  0.02646469 -0.00664951
 -0.0265948  -0.00395426  0.03249997  0.03499194 -0.00398136 -0.02701918
  0.01744417 -0.03664102 -0.00981945 -0.00437097]
[-0.00470541  0.01619661 -0.00017594 -0.00491985  0.01329341 -0.01960829
 -0.00382548  0.00497121  0.01044296 -0.01514537 -0.0190687  -0.01618385
  0.00682785 -0.00280567  0.00897783 -0.00014863]
[-0.01914304  0.03785797 -0.01852921 -0.0215537   0.03613875 -0.00278306
 -0.02431513  0.01853131  0.03597753  0.00810627  0.00673584 -0.0019821
  0.02308538 -0.00097691 -0.00607888 -0.00317297]
[-0.00367935  0.02685326  0.00718598 -0.02494304  0.03289412 -0.01550045
 -0.01204673  0.00472793  0.01103418  0.01067463  0.00764111 -0.02688948
  0.02259519 -0.02869868 -0.00348987  0.01018176]
[-5.8037904e-03 -6.9163223e-03  5.5133905e-03 -5.7339976e-03
 -5.0617508e-03 -1.4113860e-02  1.5115494e-02  2.7713983e-03
  9.2958729e-04 -1.9930985e-02 -2.6811024e-03  3.9878762e-03
  1.7903853e-02  9.8824557e-03 -9.1494089e-03 -3.4693192e-05]
[-0.00082831  0.01299624 -0.01010534 -0.00434882  0.02374415  0.00171241
 -0.00964663  0.01279359  0.01695931 -0.00415803  0.00985217 -0.00923531
  0.01106491  0.00197204 -0.00401337 -0.00036847]
[-0.00863613  0.00092055 -0.02243369  0.01623059 -0.00825401 -0.00197779
 -0.01062142  0.00363533  0.01837649 -0.00574933  0.00247069  0.01305231
  0.01205808 -0.01714191 -0.01830214 -0.01915245]
[-0.02268315  0.0320791   0.00136269 -0.01723608  0.01608951 -0.02057673
 -0.01916755 -0.00569108  0.03502743  0.00382207 -0.00737074 -0.01990219
  0.02169135 -0.00296133 -0.0049053  -0.01075957]
[-0.01998449  0.12254847 -0.00841935 -0.05324016  0.0559309  -0.02767764
 -0.04158942  0.01981429  0.11386225  0.01095285 -0.02485419 -0.0495033
  0.03670239 -0.03617931 -0.02895172 -0.00758169]
[ 1.0602990e-02  1.7345484e-02 -1.6442971e-02 -1.3445042e-02
  2.3838814e-02  8.3113676e-03 -6.1115418e-03 -9.3474091e-06
  5.9261722e-03 -9.9042675e-04 -2.1615572e-02 -6.9042803e-03
 -5.4127169e-03  3.8126594e-04  1.4379761e-02  1.0195205e-02]
[-0.04152451  0.03668576 -0.01120995 -0.00338481  0.02733751 -0.00541252
 -0.00715399  0.01987773  0.0531235  -0.01161651 -0.01973278 -0.01165873
  0.00069769 -0.00258532 -0.0160676  -0.00326621]
[-0.0015509  -0.00809752 -0.02053723  0.00714974  0.00956672 -0.00266972
 -0.00919315  0.01457463  0.01227692  0.01267507 -0.02290419 -0.007939
  0.00519901 -0.02072111 -0.00146666  0.00326315]
[-0.01496271 -0.00427591  0.005908    0.01290544  0.02222969 -0.01117531
 -0.01634175 -0.01030946  0.01934575  0.00881127  0.00194867  0.00679609
 -0.00786962 -0.01333308  0.01095678  0.00934016]
[ 0.00800885  0.000287    0.01192377  0.00873312  0.00179546 -0.0041602
 -0.00967732 -0.00364526 -0.00834461 -0.00287325  0.01710267 -0.00299777
 -0.01226052 -0.01591566  0.01010977 -0.00455935]
[-0.01935414  0.0050444  -0.02074035  0.00942584 -0.00312557 -0.00030813
 -0.00481749  0.00872834  0.00238623 -0.01085081 -0.01377778 -0.00034074
 -0.01254951  0.0006872   0.0164254   0.00654163]
[-0.03512345  0.0538211  -0.02734266 -0.02255324  0.0060331  -0.02515205
 -0.00423426 -0.00058928  0.03664749  0.01358042 -0.01181544 -0.00045169
  0.00962054 -0.02134497 -0.01252657  0.00149499]
[-0.01983926  0.05926258 -0.00367531 -0.01842459  0.044032   -0.01796317
 -0.01324376  0.00220394  0.07219121  0.03734352 -0.0150612  -0.02393847
  0.01606539 -0.03692441 -0.02885707 -0.00443038]
[-0.00419331  0.01186206 -0.00355793 -0.01418061  0.00369653 -0.00662274
 -0.01756401 -0.00743789  0.01775518 -0.01571264 -0.0153481  -0.01052555
 -0.00960568 -0.0008655  -0.00069083 -0.01001243]
[-0.03087488  0.05204065 -0.01522766 -0.02522251  0.04006239 -0.02528919
 -0.03017652  0.01165506  0.05907159  0.00147096 -0.00788666 -0.0044845
  0.02779529 -0.02174946 -0.00568213 -0.01358984]
[-0.00057747  0.00243149 -0.02176071 -0.0139861   0.0123608   0.01742709
  0.00885024  0.0013437  -0.01014531 -0.00264285 -0.00827613 -0.00343656
  0.01796793  0.01694433  0.01694853 -0.00766283]
[-0.00529707  0.01486071  0.00042203  0.01541038  0.00627232 -0.00549874
  0.01608919 -0.0131101   0.01319616  0.00612722  0.00292011 -0.00599821
 -0.0062809   0.01510743 -0.01081056 -0.01330496]
[-0.01383287  0.01303894  0.00297418 -0.01851321  0.01428055 -0.00742972
 -0.02142801  0.01189366  0.02309579  0.00585135 -0.00327043 -0.00784049
  0.02226058 -0.00987389  0.00732607  0.0083857 ]
[-0.00630597 -0.00277107 -0.01159752  0.00794525 -0.01297748  0.01299525
  0.00596853  0.00770134 -0.00682494 -0.01161761 -0.02255458 -0.0121888
 -0.00069613 -0.00949292  0.01546649  0.00380753]
[-0.01869838  0.03742589 -0.0192136  -0.01521925  0.00738122 -0.00861129
 -0.01556605  0.012104    0.02273947 -0.00340995 -0.01617974 -0.01590133
  0.00775735 -0.02453859 -0.02159919 -0.01893667]
[-0.03656592  0.09672848 -0.00687373 -0.0536231   0.0450214  -0.0201896
 -0.02501355  0.01623427  0.10203387  0.04825432 -0.00242905 -0.04264334
  0.03443722 -0.05125995 -0.01886962 -0.01953639]
[ 0.00778111 -0.00494849 -0.02140429  0.01495491  0.00370965 -0.00588559
  0.0023895  -0.01512602 -0.01183968  0.0003387  -0.01816975 -0.01128272
 -0.00970961 -0.0149254   0.01262252  0.00344244]
[-0.04244729  0.06117764 -0.00754916 -0.00340326  0.0328497  -0.02163272
 -0.0126586  -0.01098037  0.05807082  0.00963259 -0.00398164 -0.01320557
  0.00422484 -0.03060768 -0.00732976 -0.00928257]
[-0.00830167  0.02734772 -0.02693044 -0.01729666  0.02773183 -0.00528739
 -0.01835205  0.02288185  0.00022377  0.01897744 -0.02214052 -0.01170272
  0.03021519 -0.01235256 -0.02108428 -0.00329671]
[ 0.00693961  0.02068302 -0.01691444 -0.01708199  0.00627429 -0.00414559
 -0.00104261  0.00626174 -0.00375612 -0.00909103 -0.02117602 -0.00794732
 -0.01236025 -0.01921215  0.00350633 -0.00828788]
[-0.00817668 -0.00971851 -0.0086773  -0.01953467  0.00266372  0.00923059
  0.01283081  0.00429054  0.00177096 -0.00704268 -0.00386126  0.00878103
 -0.01255307 -0.0037942  -0.01702203  0.01832036]
[-0.00755981 -0.01407998 -0.00982008  0.00536182  0.01695041  0.00228172
  0.00109009 -0.00489551 -0.00706355 -0.02194076 -0.0023705   0.00642719
 -0.01102782  0.00122277 -0.01396559 -0.01185149]
[-0.00988941  0.02336294 -0.0163269  -0.0155807   0.03748107 -0.00685594
 -0.03186002 -0.00225403  0.0340079  -0.01587457  0.00445261 -0.00935609
  0.01133432 -0.00917278 -0.01822517 -0.02385969]
[-0.03875994  0.05054546 -0.03027524 -0.02101309  0.02452231 -0.00953747
 -0.02198278  0.01256654  0.0652775   0.01229794  0.0024539  -0.03416378
  0.01371326 -0.03337278 -0.02323929 -0.00355108]
[ 0.00532848  0.01174877 -0.01189676  0.01438826  0.0148476  -0.00888932
 -0.01502546 -0.02229041  0.01584681 -0.00339592  0.00287796 -0.00968786
 -0.00746641  0.01130363 -0.00633141  0.00197424]
[-0.0164032   0.03023859  0.00210162 -0.00173085  0.01545417 -0.02807172
 -0.02034555  0.01693331  0.09517398 -0.01552761 -0.02734007 -0.01790068
  0.0307155  -0.00164252 -0.01494361 -0.0004046 ]
[-0.00507664  0.01531921 -0.00999221 -0.00707826  0.02892543 -0.01959397
 -0.023352    0.02097104  0.00997136  0.02201315 -0.02445196 -0.02379401
  0.00438831  0.00286645  0.0077368   0.00102324]
[-0.00373242 -0.00829308 -0.0137656   0.01261547  0.0193032  -0.01863651
  0.00545196  0.00027537 -0.00421812  0.01267023 -0.01447745  0.00661273
  0.01044163 -0.01995222  0.0081734  -0.01824908]
[ 0.00557851  0.02187233 -0.01878301  0.00183264  0.00857998 -0.01338604
 -0.0259679  -0.00227452  0.00618309  0.0056812   0.00246487  0.00197331
 -0.00402177 -0.02091136 -0.02195164 -0.00195936]
[-0.02140583  0.00669824 -0.01222747  0.00864526  0.00801737  0.00394092
  0.0065386  -0.00204806 -0.0022669   0.01226733  0.00048884 -0.01543988
  0.0129201  -0.00288006 -0.01221657  0.00547763]
[-0.0318502   0.0440947  -0.02722225 -0.01469494  0.00725679 -0.02703591
 -0.01616702 -0.01524606  0.05189174 -0.01101876 -0.02115064 -0.01099483
 -0.00249069 -0.00013986 -0.02462422 -0.01435351]
[-0.02668823  0.05383123 -0.00367578 -0.01699101  0.04898552 -0.01274272
 -0.03022635  0.01621343  0.053292    0.00992963 -0.01753802 -0.03549808
  0.01965623 -0.03950361 -0.0152638  -0.01347678]
[ 0.00243436 -0.00511175 -0.00341174 -0.01812083 -0.01141236 -0.01543781
 -0.00582971 -0.00729542  0.01083889 -0.01059528 -0.0068863  -0.01459014
  0.00808318  0.00650355 -0.01581863 -0.02605765]
[-0.01718751  0.06414002 -0.01368822 -0.01098996  0.01102169 -0.03007763
 -0.03959672  0.02323448  0.07584811  0.01019616  0.00630501 -0.0343456
  0.03121513 -0.03185353 -0.00573909 -0.008929  ]
[ 0.0076894   0.01931528  0.00479973  0.004956    0.02454701 -0.0174433
 -0.01894899 -0.00751825 -0.00137618  0.01361491 -0.02005997  0.00470148
  0.01570645 -0.01668096  0.00782503 -0.01330824]
[-0.01942984  0.01536536 -0.00862052 -0.00106578 -0.00794934 -0.01546327
 -0.00171185 -0.01533386  0.01904315 -0.00514491  0.00757946  0.01122906
  0.0034598   0.01311843  0.00302927 -0.01020557]
[-0.01675586  0.02464304  0.0106172  -0.01677329  0.02225005  0.00479299
 -0.02038684 -0.00704235  0.03591383  0.00820791 -0.00052053 -0.00786273
  0.01317858 -0.01638818 -0.00072119 -0.01803831]
[-0.00288543  0.01371369  0.00596786  0.00088006  0.00594222 -0.00725518
  0.00512416 -0.00855803  0.01104799 -0.00345905 -0.01780661 -0.00495323
 -0.00741735 -0.00414966 -0.00836912 -0.01252846]
[-0.03039004  0.05997685  0.00593236 -0.0066212   0.0247588  -0.01781447
 -0.02397227 -0.00195257  0.05888373 -0.01837789 -0.01783648 -0.00212697
  0.02875144 -0.02933303 -0.003017   -0.02365961]
[-0.02950443  0.07561231 -0.02330284 -0.04311616  0.03917643 -0.01815496
 -0.03501822  0.04181167  0.07738178  0.03186358 -0.01058749 -0.03473542
  0.02544536 -0.03805778 -0.05135099 -0.02169898]
[ 0.00345453 -0.01583878 -0.0084365  -0.0085711   0.01156612  0.00999419
 -0.0122781  -0.0005522   0.00087612 -0.01375992  0.00709843  0.0040719
 -0.01298273 -0.00820187 -0.00361587  0.00863504]
[-0.03686641  0.04022278 -0.02401938 -0.03786616  0.03774226 -0.01371421
 -0.03208227  0.00564562  0.08419177 -0.01275795  0.00535309 -0.0084422
  0.02083209 -0.00906005 -0.03350494 -0.00893554]
[ 0.01532891 -0.00902546 -0.01293076 -0.00638104  0.03436242 -0.00228937
  0.00247335 -0.00737161 -0.00881127 -0.0092162  -0.0096586   0.01309242
  0.01758956  0.01350707 -0.00602712  0.00141437]
[-0.02085902  0.0149389   0.00201418 -0.01036457  0.00729387 -0.01411826
 -0.0171933  -0.01087216  0.0086392  -0.0163628  -0.01169744  0.01108774
  0.0061464   0.00241353  0.00153905 -0.00529091]
[-0.00303115  0.01439845  0.00021836 -0.00276947 -0.00143568 -0.01011524
 -0.00577172  0.00500653  0.01853705  0.00276797 -0.0060668  -0.01623636
  0.01780559  0.00639184  0.00675636  0.01601017]
[ 0.00787751 -0.00255496  0.0114324   0.01062826 -0.00110174  0.01305839
  0.0082916  -0.01601657 -0.00919701 -0.01355363 -0.01810775 -0.00147468
 -0.01379291 -0.00664123 -0.00968342 -0.01786673]
[-0.04352606  0.03246662 -0.00868173 -0.00726586  0.02530658 -0.0175769
 -0.01390168 -0.00471747  0.04734551 -0.01780215  0.00781549 -0.00565115
  0.01343483 -0.03343769 -0.03349967 -0.01148084]
[-0.07411332  0.12484314 -0.01465715 -0.03202023  0.07655931 -0.03101426
 -0.02316588  0.04552678  0.09975409  0.01182273 -0.00140706 -0.05254167
  0.00741702 -0.0408136  -0.02188681 -0.01711287]
[-0.00856564  0.00782162 -0.01458647 -0.00701878  0.01279488  0.00052385
 -0.00443686  0.00663568  0.0091049  -0.01274786 -0.00471517  0.01615754
  0.00647951  0.0014638  -0.01769841  0.00279417]
[-0.01715917  0.07680227 -0.00932628 -0.03980425  0.01493062 -0.00472149
 -0.02248741  0.00781579  0.08086481 -0.00956411 -0.02609105 -0.02490978
  0.0047465  -0.03995639 -0.02456161 -0.02912356]
[ 0.01888328  0.002011    0.00267969 -0.00486857  0.03382257 -0.01017623
  0.00501882  0.01389693 -0.00926293  0.00628816  0.00683916 -0.01829329
  0.0123716  -0.00372565  0.00448929 -0.01877794]
[-0.00622818  0.00953741  0.00869456  0.01484721 -0.00319661 -0.00845429
  0.00285477 -0.02147723  0.01305251 -0.01808206 -0.00678911  0.00233134
  0.00974715 -0.00541913 -0.00237634 -0.01920055]
[-0.00903377  0.0084171   0.01703227 -0.02077218  0.01003133  0.00441075
 -0.01077455 -0.00109803  0.02668156  0.00600125  0.01601585 -0.00277181
 -0.0034577  -0.00405756 -0.01451069  0.02024964]
[-0.00148392  0.01612572 -0.00390648  0.00247151 -0.00596873 -0.01599378
 -0.01325292 -0.01707886  0.01775671  0.01144129 -0.00205537  0.01252903
 -0.00416565 -0.00855072 -0.00541748  0.00120625]
[-0.02876765  0.03563758 -0.01165342  0.00127129  0.01792377 -0.00688593
 -0.02609346 -0.01148052  0.0586273  -0.00753617 -0.01560785 -0.00018848
  0.02609964 -0.0155384   0.00146192 -0.01287771]
[-0.05873412  0.09757449 -0.0076659  -0.05462342  0.06600459 -0.03365253
 -0.03993464  0.0104774   0.08703551  0.02211631 -0.02964237 -0.04732991
  0.02569778 -0.02165479 -0.03713594 -0.00902603]
[ 0.00949029  0.00841166 -0.0148629   0.01235764  0.00330001 -0.0207462
 -0.00263779  0.0137076  -0.01289286 -0.01936543 -0.00276964 -0.00320121
  0.02282585  0.0124957  -0.01189639 -0.01590975]
[-0.06425394  0.09167611 -0.01860983 -0.02341456  0.04888734 -0.0203723
 -0.01738174 -0.00372659  0.11063465 -0.00151438 -0.01724    -0.04502307
  0.00699333 -0.03333612 -0.01416097 -0.0021072 ]
[ 0.00476847  0.01781418 -0.00862314 -0.00363021  0.0513172  -0.02574301
 -0.0024756   0.00906107  0.00119542  0.01495779 -0.00127484 -0.0054626
  0.02207059 -0.0140172  -0.01291742 -0.02635853]
[ 0.00246544  0.01070363 -0.00294867  0.0047118   0.00993685 -0.00182293
 -0.00819009 -0.02209254  0.01473999 -0.01510549 -0.01604865 -0.01132049
 -0.00809602 -0.01298566  0.00294702 -0.02102198]
[-0.01585647  0.02750668 -0.01372542 -0.01352797  0.02751856 -0.00359137
 -0.01676856 -0.01002083  0.03827923 -0.00760701  0.00552541 -0.02263457
  0.02164096  0.00517322 -0.02384681  0.01006509]
[-0.00582116 -0.00205494 -0.01666267 -0.01031216  0.00369928 -0.01302213
  0.003508    0.00549493  0.0012827  -0.01335674 -0.02072724 -0.0163613
  0.01320393  0.01592667 -0.01273891  0.00068779]
[-0.00448947  0.02169522 -0.01891966 -0.02888655  0.01319433 -0.01203744
 -0.01932712  0.00207059  0.0260748  -0.01379989 -0.00463696 -0.00144656
 -0.00466227 -0.01932968 -0.02831864 -0.00375416]
[-0.02803503  0.1007253  -0.01842257 -0.03694896  0.06168222 -0.01924754
 -0.02095788  0.00741694  0.09778944  0.04632831 -0.0197948  -0.04694996
  0.00802763 -0.03337206 -0.04940237 -0.00783996]
[-0.01756731  0.01359629 -0.01063115  0.00086747  0.01254376  0.00029898
 -0.01387412 -0.01409104  0.01537062 -0.00589026 -0.00846721  0.01014796
 -0.00541943  0.00321632  0.01632574 -0.02156282]
[-0.05197915  0.13243847 -0.00198934 -0.04639412  0.06128835 -0.01603013
 -0.03885565  0.02275216  0.11344727  0.00680502 -0.02168204 -0.02509718
  0.02820718 -0.01919885 -0.03955851 -0.01507008]
[-0.01676951  0.03803962 -0.00367515 -0.00166847  0.01768186 -0.00741263
 -0.0260956   0.00011267  0.01773615 -0.00318151 -0.02606254 -0.0006217
  0.02714329 -0.0187697  -0.02319734 -0.01950392]
[-0.02116506  0.03176362 -0.00450635 -0.0118503   0.03073117  0.00690421
  0.01191575  0.00675895  0.00092869 -0.01240759 -0.01784111  0.00286559
  0.00620466 -0.00690628  0.0142118  -0.00765243]
[ 0.00266013  0.01304223 -0.00617263 -0.0166657   0.02020239 -0.01647523
 -0.02357657 -0.00565096  0.00927235 -0.00094051 -0.02095261 -0.01027196
  0.01822441 -0.00311676 -0.01785369 -0.00989847]
[-0.01932562  0.0110429  -0.01075349 -0.00868662  0.00354375  0.00381363
  0.00545662 -0.01536504  0.00100641 -0.00805532 -0.00118711 -0.0104482
  0.006618   -0.00058219 -0.00065528  0.01077698]
[-0.01025092  0.0468161  -0.01469433 -0.02330521  0.02873631  0.00591082
  0.0043566   0.00733981  0.05073886 -0.01362404 -0.01993802  0.01077872
  0.01998653 -0.01735031 -0.02149388 -0.0186784 ]
[-0.02217994  0.08692831 -0.01686283 -0.03941049  0.04579359 -0.01705426
 -0.01041472 -0.00408171  0.05684347  0.01070602  0.00554413 -0.03264767
  0.0194756  -0.04212865 -0.02089574 -0.01820211]
[-0.01072508  0.00383017 -0.01744346 -0.00160872 -0.00922418  0.00383148
 -0.01329913  0.00371472  0.01310333 -0.00653415  0.0015708  -0.00650536
  0.00449901 -0.0146688  -0.01684091 -0.02129009]
[-0.02475292  0.05930768 -0.01871186 -0.03106194  0.03309847 -0.01395348
 -0.02268459 -0.00194894  0.09188065  0.00355648 -0.00831412 -0.04064239
  0.01526756 -0.02507885 -0.02368093 -0.02444139]
[ 0.00177896 -0.01604736  0.02101178  0.01017694  0.00328551 -0.00794785
  0.01489142  0.0039184  -0.01905769  0.00434275 -0.00092704  0.02653787
  0.00031624  0.02357562  0.01645317  0.02214341]
[ 0.00829012  0.00356783  0.00339692 -0.01546214 -0.0108887  -0.00303013
  0.01509887 -0.00935701 -0.00924122  0.0006101  -0.00524189  0.00018956
  0.02036787 -0.01708783 -0.00947499 -0.00524352]
[-0.00820835  0.03124502 -0.01871833 -0.03161432  0.03742229 -0.01990347
 -0.02341909  0.01896851  0.03499275  0.01795355 -0.00522371 -0.01594261
  0.00796997 -0.01406933 -0.02954721 -0.01202646]
[-0.00979455  0.00709535 -0.00707171 -0.01601451 -0.01318773  0.00136246
  0.00769356  0.00537348 -0.02632501 -0.01613108 -0.01814725  0.00311
 -0.00439859 -0.00726028  0.00713503 -0.0055704 ]
[-0.01421037  0.02273642 -0.00048466 -0.01259815  0.01050297  0.0011703
 -0.02267826 -0.00971332  0.04089278 -0.00853652 -0.0145307  -0.01152513
  0.00052601 -0.00455183 -0.02355752 -0.01986124]
[-0.0599006   0.22922173 -0.05507875 -0.11297743  0.16837843 -0.10157346
 -0.1285773   0.04419087  0.17842948  0.02861276 -0.03632535 -0.12484989
  0.03751631 -0.13007103 -0.12214488 -0.04818006]
[ 0.01450997  0.00326486  0.01123326  0.01429119 -0.01768045 -0.00407001
 -0.01315946  0.01197686 -0.0124926  -0.00021988  0.00047946 -0.0042907
 -0.0027007  -0.00276837 -0.00643253  0.00012515]
[-0.03839853  0.10494807 -0.02736179 -0.01940258  0.04251214 -0.03623741
 -0.026821    0.02254981  0.10554545  0.03964434 -0.02259019 -0.03619751
  0.0096387  -0.02728121 -0.04876087  0.00154018]
[ 0.02079125 -0.00503957  0.00691463  0.02238908  0.00330261  0.017482
  0.03402613  0.00251618 -0.01944845  0.00534633  0.03364096  0.00257839
  0.01130334  0.00338903  0.00422326  0.00489306]
[-0.00512976  0.00581884 -0.01692269 -0.00660528 -0.01341144  0.01260604
 -0.00595417 -0.00565997  0.00992999 -0.00197137  0.00146369  0.01231929
  0.00957625 -0.01492376  0.01221432 -0.00624667]
[-0.01113884  0.00256719  0.02099024 -0.01895311  0.00519321  0.00634289
 -0.0136791   0.01048058  0.00997712 -0.00899329 -0.00391825 -0.00569805
 -0.00582304 -0.01232478 -0.00592642  0.00812371]
[ 0.01714173 -0.01456282 -0.01406571  0.0117046  -0.00147248  0.00130729
  0.01437062  0.01230652 -0.01773436 -0.00954791  0.00727721  0.01704797
  0.01938129  0.01107572 -0.00744412 -0.0027911 ]
[-0.0305131   0.02459455 -0.01088552  0.00662178  0.01976363 -0.01201419
 -0.01875994  0.00471272  0.05074212 -0.01790893  0.00253499 -0.01408753
  0.01588624  0.00561228  0.00503657  0.00081108]
[-0.00875956  0.03822603  0.00089848 -0.0079768   0.01748268 -0.00369683
 -0.00046475  0.00776404  0.06247809  0.00124231 -0.00099894 -0.01311979
 -0.01661642 -0.02342797 -0.01989486 -0.02995458]
[-8.0062235e-03  7.5835059e-03 -2.1992218e-02  1.3816003e-02
 -8.2096206e-03  2.0422791e-03  1.9045673e-02 -1.7123058e-02
  1.8019470e-03 -1.1311956e-02 -6.5004085e-03  3.8774593e-03
  1.3265213e-02  8.8972552e-03  1.9416946e-05 -1.1903152e-02]
[-0.04272163  0.0814871  -0.01775178 -0.02988872  0.02529025 -0.02341308
 -0.02352864  0.00549253  0.10576502 -0.01800854 -0.02268724 -0.00661554
  0.02734911 -0.03764407 -0.00777562 -0.02026821]
[ 0.00635536  0.02622386 -0.01279865 -0.00745198  0.01414534 -0.00096636
  0.00842514  0.01625389  0.02231067  0.00324931  0.01397324 -0.0031087
 -0.00056967 -0.01194185  0.0112149   0.01824154]
[-0.01528708 -0.00660532  0.0052155  -0.01008278  0.00572338 -0.0021614
  0.01690169 -0.02265212 -0.01386225  0.01183192 -0.01113285  0.00991218
  0.01897397  0.00271332  0.00102496 -0.00124596]
[-1.51977111e-02  4.58154548e-03  1.35516254e-02  7.19806319e-03
 -7.84828328e-03  2.69836653e-03  1.14698783e-02  6.49205176e-03
  1.94745641e-02 -1.09195495e-02  2.38334369e-02  1.18113030e-02
 -2.13042591e-02  1.44252935e-02 -1.29047828e-02 -2.59140288e-05]
[ 0.01161721 -0.01317852 -0.01355762  0.01466844  0.00641336  0.00823622
  0.01340469 -0.00975811  0.01221407 -0.02090271 -0.00342397 -0.01207771
 -0.00261141 -0.0063154   0.01862657  0.00196191]
[ 0.0004101   0.02175732  0.00434484  0.0035718   0.01901293 -0.00133037
  0.01174671 -0.01641924  0.04894435 -0.01447514 -0.00364731 -0.00256002
 -0.0117088   0.00166628 -0.00719379 -0.0038315 ]
[-1.1721904e-02  3.8847819e-02 -1.6191490e-02  4.5831512e-05
 -6.2704212e-03  1.7386702e-03  5.3707147e-03 -1.3356109e-02
  4.9973838e-02 -5.2026273e-03 -2.0891568e-02 -8.9699794e-03
  5.4281857e-03  2.0220457e-03  1.3924319e-02 -2.4070721e-02]
[ 0.01176822  0.00903503  0.00679673  0.00618967 -0.02011546  0.01755007
  0.01333218  0.00049984 -0.00885822 -0.01878271 -0.01954797 -0.01135125
 -0.01431907  0.01614711  0.00660585  0.00836456]
[-0.01627356  0.02740456 -0.00294723 -0.0240791   0.01591722 -0.00963237
 -0.00522963  0.0001816   0.09238853 -0.01121038 -0.01041976 -0.00267721
 -0.00446536 -0.00757434 -0.0188258  -0.01460914]
[ 0.00892458  0.02423058  0.02511904 -0.00498219  0.00877334  0.01362155
 -0.00844723 -0.00821161  0.01370399 -0.00955884  0.01004691 -0.01576874
 -0.01630302 -0.01184827  0.01155839  0.01078456]
[ 0.00520381  0.01545739 -0.0204904   0.00521798 -0.01161353  0.00365484
 -0.01752783  0.0097741   0.01186756 -0.00234394 -0.02169228  0.01220973
 -0.00817336  0.01427939  0.00587262 -0.01026814]
[-0.01355043 -0.0012496   0.01586912  0.01368498 -0.00240018 -0.00509031
 -0.01287546 -0.00699017  0.02464291  0.01455495  0.00971625 -0.01068476
 -0.014365   -0.01694104 -0.0148061  -0.00547627]
[ 0.01289022  0.00063223 -0.01382148 -0.00958027 -0.00708381 -0.00769849
 -0.01187643  0.01210657 -0.00515147 -0.00646082 -0.00164776 -0.00222247
  0.01081068 -0.01607901 -0.00714639  0.0023947 ]
[-0.00629344 -0.00169493  0.01000921  0.0210676  -0.02054024  0.01103038
 -0.01257438  0.00428739 -0.0188673  -0.00990128 -0.011038   -0.00985486
 -0.02153136  0.0161805   0.02202451  0.0031712 ]
[ 0.0062139  -0.01081583  0.01115696 -0.01225445 -0.00945136 -0.00362178
  0.00652657 -0.00234886  0.019859   -0.02338229 -0.00863243 -0.00680125
 -0.02288464  0.01695774 -0.005811   -0.00406517]
[ 0.00316671 -0.02624378  0.00506023 -0.00058324  0.0098075  -0.00340161
 -0.00380539 -0.01017848 -0.02633286  0.0116083   0.00890213  0.01261218
  0.01813824 -0.00412583  0.01955312  0.00922952]
[-0.00461148  0.02918594  0.00397868 -0.01080684 -0.01442727  0.01357852
  0.01646254  0.00628601  0.03911344  0.01047231 -0.02449917 -0.0193317
  0.00224009 -0.01446715  0.01210271 -0.01030122]
[ 0.00446009  0.04675329  0.0055425  -0.00786853  0.06145691 -0.00412071
 -0.02658438  0.00212656  0.07375799  0.00238329 -0.01294747 -0.02882688
  0.01547087 -0.01107529 -0.01871325 -0.01146075]
[-0.01163343  0.01234655 -0.02242064  0.00869071 -0.00678052  0.01630949
 -0.0025383  -0.01233894 -0.00381872 -0.01324468 -0.00714725  0.01163994
  0.01456998  0.00755353  0.0165576  -0.010517  ]
[-1.0181257e-02  6.6046161e-03  1.5766250e-02  2.5246583e-05
 -5.8748534e-05  1.7978735e-02  1.0488749e-03  1.1871781e-02
 -8.5639218e-03  2.1168005e-02  4.2163567e-03 -1.1205644e-03
  2.2867683e-03 -7.6371245e-03 -1.1120597e-02  4.6289037e-03]
[-0.01675098 -0.01236696 -0.02117285  0.01678455  0.0168282   0.008696
 -0.00657983 -0.02096442  0.01765416 -0.00417238 -0.00227322 -0.00428709
  0.00132798 -0.00715788  0.00275796 -0.02307151]
[-0.00414334 -0.02003867 -0.00803988 -0.00440208 -0.01310098  0.02159241
  0.01891226  0.00351141  0.00406329  0.00565823  0.01083124  0.01689024
 -0.00975714 -0.00342459  0.02003841  0.01292837]
[-0.00499676 -0.01483432  0.01042747  0.01488005  0.00977809  0.01774168
 -0.00690629 -0.00436331 -0.00764269  0.00834744  0.00945425  0.02465174
 -0.02154637  0.02372089 -0.01055299  0.003484  ]
[-0.0176761   0.01656241 -0.015952    0.00313718  0.00153007 -0.01423843
  0.00787773 -0.01204186 -0.01051829  0.00739675 -0.0010478  -0.01770293
  0.00688291 -0.01455299 -0.00892236 -0.02357978]
[ 0.00111211 -0.01456686  0.00318104 -0.00508261 -0.00325467  0.00039123
 -0.00370004 -0.02175696 -0.01896478  0.00112116  0.0009959  -0.0117236
 -0.02337079 -0.00382801  0.00808662 -0.01809413]
[-0.00488154  0.02412155  0.01062013 -0.0223088   0.03054871 -0.00154887
 -0.02174835  0.01758711  0.00625089  0.01162062 -0.00906095 -0.02645258
  0.01434294 -0.00867149 -0.01765876  0.01171684]
[-0.01258173 -0.01791964 -0.00492415 -0.01374628  0.00823525 -0.00394487
  0.0022282  -0.01317715  0.00393459  0.00180098 -0.00299564  0.01040609
 -0.0126007   0.00180713 -0.0141652   0.00685256]
[ 0.01543674  0.00351727  0.02169023 -0.00673356  0.00544434 -0.01030956
  0.00147132  0.01763489  0.01126975  0.01111735  0.00079414 -0.01530783
  0.00656448 -0.00852947  0.00041701 -0.00875095]
[ 0.00097772 -0.00467783  0.00185004 -0.00346497  0.00215511  0.01511185
 -0.00665338  0.01251397  0.00413278  0.00159711 -0.00731953 -0.00218565
 -0.00201419 -0.00827664  0.00742443 -0.01574418]
[-0.00329619  0.0272635  -0.02213604  0.01805961  0.01786078  0.01381933
 -0.00283482  0.00237967 -0.01070819 -0.01187794  0.00891541  0.0021352
  0.01174947  0.01736946 -0.00201753  0.01312646]
[ 0.01263935 -0.01025523 -0.01291291  0.02151904  0.00889136  0.01990946
  0.01834101 -0.01394989 -0.01168233  0.00097276  0.01668826  0.00601451
 -0.01758123  0.00789725 -0.00210988 -0.01450915]
[-0.01163953  0.00278859 -0.02046144 -0.0046242  -0.00735062  0.01477072
 -0.01434113  0.01087933 -0.00816834  0.00940256 -0.02136    -0.0065786
  0.01183309 -0.00870491 -0.00619652  0.00769448]
[-0.01687435 -0.01605654 -0.01534292  0.00336744 -0.00223768  0.00029044
  0.01504514  0.01108722  0.00924209  0.01063813  0.00042691  0.01283454
 -0.00559073  0.02175501  0.00489281  0.0126042 ]
[ 0.0057537   0.0175188  -0.01033199 -0.00060131 -0.01159929  0.00808176
  0.00241427  0.00109214 -0.01181557 -0.00842985  0.00518763  0.00570241
  0.00548692  0.01490335  0.0223376  -0.00860233]
[-0.01628882  0.02068827 -0.02388826  0.01301747  0.0031561  -0.0156955
 -0.00386781  0.00683618 -0.01540974 -0.0226425  -0.01669213  0.01366398
  0.01373508  0.00204248  0.00179959 -0.02007521]
[ 0.01037613 -0.01033106 -0.00998756 -0.00213833  0.01116206 -0.00548854
  0.01757796  0.00596427 -0.01662934  0.01782252 -0.00657723 -0.00980396
  0.00770555 -0.00292455  0.01356034  0.01319635]
[ 0.00935206 -0.00137381  0.00597026  0.0021897  -0.00119213  0.01489243
 -0.00284861  0.00105149  0.00606228 -0.00053898 -0.00592431 -0.01250387
  0.01085885 -0.00396166  0.00991394 -0.0099111 ]
[ 0.00084911  0.00154767  0.00712511  0.00256225  0.0171906   0.01374298
 -0.00836248  0.00490088  0.00383051 -0.0054124  -0.00641788 -0.00978571
  0.0006847   0.00524917 -0.01534465 -0.02113321]
[-0.00389429  0.01219787 -0.01032736  0.01554947 -0.0109653   0.02065405
  0.01243183 -0.00654095  0.01511048 -0.00248923  0.01569304 -0.01088304
 -0.01452716  0.00692478 -0.00171269  0.01137374]
[-0.00408067  0.00812429 -0.00756663 -0.00136827  0.00998753  0.00047668
 -0.01439174 -0.01991124 -0.00072429  0.0102906   0.00518219  0.00639438
  0.00815361  0.01895576  0.00126012 -0.00177169]
[-0.00989585  0.02411002  0.01274516  0.01144109 -0.00937856  0.00087906
  0.00589545  0.0065433  -0.00619876 -0.00638639 -0.02029587 -0.01175547
 -0.02124381  0.02068374 -0.00767297 -0.02142407]
[ 0.01234511  0.05835835  0.00752313 -0.01279991  0.03353083 -0.01264168
 -0.02535762  0.01096904  0.04922379  0.01492238 -0.01235868 -0.02946133
  0.02600661  0.00354571 -0.03100188  0.00044499]
[-0.01402787 -0.00729792 -0.00299635 -0.00831687 -0.0084427  -0.01085198
  0.00664905 -0.00878656  0.00192063  0.00019457 -0.00266531 -0.00602029
  0.01168125 -0.01628482 -0.00792135  0.00346133]
[-0.00040057  0.06745546 -0.00374534 -0.01313146  0.00267085 -0.01629566
 -0.00302433  0.01996704  0.08794303  0.02349481  0.00734306 -0.02012977
 -0.02119074  0.00312687  0.00657056 -0.00590734]
[ 0.00100477  0.02078007 -0.00828732  0.01094663  0.01671446 -0.01571944
 -0.00091743  0.0028557   0.01098516 -0.01027255 -0.01033824 -0.00894268
  0.021296   -0.00038524 -0.00638751  0.0059609 ]
[ 0.00044277 -0.00419623 -0.02592376 -0.00630975  0.02237532 -0.01774915
 -0.01700209  0.00502133  0.02747475  0.00279894 -0.01966228 -0.01180692
  0.02362011  0.00113338 -0.02657884  0.00103322]
[ 0.00105336 -0.00349302 -0.01701     0.00456982  0.00946545  0.01776291
 -0.00543977 -0.00649922  0.01433138 -0.01811336  0.00695264  0.00978189
 -0.00783641 -0.00141684  0.00426491  0.01261871]
[-0.02000533  0.02084473  0.00064353 -0.01120143 -0.00743413  0.01104255
 -0.00232253 -0.00672029  0.00754601 -0.02066816  0.01107052  0.00989939
  0.01631306  0.00199948 -0.00287578  0.00734168]
[-0.01165911 -0.01099626 -0.00538324  0.01433722  0.01342894  0.00343141
  0.00039632 -0.02143029 -0.00600627  0.00863352 -0.01990908 -0.01453259
 -0.00530359  0.017161   -0.00222272 -0.00859868]
[ 0.00159251  0.02427226 -0.01062069  0.00349339  0.03606049  0.00415687
  0.00756687  0.01744707 -0.00114731  0.00635349 -0.01074094  0.00466703
 -0.01489269 -0.01174756 -0.00183483  0.01909124]
[ 0.00213078 -0.01131205 -0.01081853 -0.00971352  0.00016716 -0.01104147
 -0.01615367  0.00014947 -0.00414423 -0.01220147 -0.0032999  -0.00861016
  0.01140058  0.01343649 -0.00444598 -0.00472201]
[ 0.01142881  0.109377    0.00955942 -0.00938383  0.04022268  0.00160011
  0.00232313  0.00861371  0.02639275  0.00736429  0.00940493  0.00023831
 -0.000554    0.01906194 -0.00149546  0.0240634 ]
[-0.00897541 -0.0115429   0.01140122 -0.00580728 -0.01376397 -0.01263355
  0.00385865 -0.00097941  0.00749019  0.01234988 -0.0047461   0.01720701
 -0.00145703  0.00456665  0.00655783  0.00018703]
[-0.01415804 -0.00466467 -0.00672727 -0.02411242  0.00907653 -0.01949303
 -0.01402091 -0.00073072  0.02645313 -0.01194803 -0.00374456 -0.02178483
 -0.00097311  0.00958404  0.00629428  0.01030819]
[ 0.00423042 -0.00276393 -0.01934119  0.02227706  0.01063587  0.00176656
  0.0188711   0.0012862  -0.0039929  -0.00579525 -0.01276399  0.00684983
 -0.00928106  0.02167612 -0.01262427 -0.00826875]
[ 1.3413293e-02 -1.4967954e-02 -1.1335446e-02 -2.0738197e-03
  4.6833782e-05 -7.0702280e-03 -5.8769394e-04 -1.8440675e-02
 -3.7158942e-03 -1.6575892e-02 -5.8064265e-03  1.0052882e-02
  5.4479339e-03  6.3485908e-03 -7.9139853e-03 -8.1524579e-03]
[ 0.00779926  0.01416197  0.00498852 -0.01105606  0.01064346  0.01460326
  0.00995804 -0.0135023  -0.01860505 -0.01341106 -0.01539073  0.02082724
  0.00410062  0.01430122 -0.01033911 -0.00026773]
[-0.0064063  -0.00521054  0.00470327  0.01634948  0.01559415  0.0236666
  0.00833836 -0.02202267  0.00047266 -0.01585286  0.02245632 -0.00483214
  0.00099623  0.02166495  0.00028088  0.00996051]
[-0.02016463 -0.0070137   0.0098627   0.00394706  0.00577513 -0.00027206
 -0.01255709 -0.01767111 -0.01422895 -0.00718968 -0.0095511  -0.01337681
 -0.00563164  0.00166867 -0.01324796 -0.0118995 ]
[ 0.01345156 -0.0751051   0.0123621   0.01162347 -0.04725594  0.02513211
 -0.00628605  0.00620124 -0.05005574  0.0108886   0.01540115  0.02158411
  0.00746286  0.00894309 -0.0035474   0.0050238 ]
[ 0.00604231 -0.01157872 -0.01909697 -0.00373783  0.00838234 -0.01707801
  0.01205539 -0.00464531  0.00773286  0.00891942 -0.01305897 -0.00650638
  0.00884518  0.00326662 -0.00287095 -0.0204442 ]
[ 0.0029034   0.00399153 -0.00913999  0.00843198  0.00597519 -0.00583773
 -0.0022569  -0.00596405  0.00504835 -0.0099731   0.00811988  0.00767853
 -0.01277707  0.00400081  0.0195337  -0.00224064]
[-0.01036155  0.04530684 -0.02227533 -0.03489525  0.0264182  -0.00154358
 -0.01777509  0.00341362  0.02496928  0.01155185 -0.02034823 -0.02688293
  0.01346065 -0.01766586 -0.0019082   0.00062006]
[-0.00345747 -0.00336664 -0.01321822 -0.00782366 -0.01096566 -0.01337314
 -0.0043724   0.00209929 -0.00198808 -0.01548553  0.00184862  0.00071317
  0.00932443 -0.00923475 -0.00369076 -0.02279185]
[ 0.00103354 -0.01094521 -0.00511967 -0.00030184 -0.01525085 -0.00026224
  0.01351559  0.01236934 -0.01675828 -0.00108849  0.00812964 -0.0041259
 -0.01724812  0.0029218   0.01902587  0.01218323]
[ 0.00504046  0.00285817  0.00672009  0.00631355 -0.00347711  0.01834793
  0.02538641 -0.01295916 -0.00746463 -0.00896938 -0.0016449   0.0086406
 -0.0167892   0.01855192 -0.00906067  0.00220297]
[ 0.01043694  0.02044467 -0.00729417 -0.01817572 -0.01281611  0.01202913
 -0.01893391  0.00240237 -0.00075924  0.01240548 -0.00121171  0.00389975
  0.02326539 -0.0106115   0.01076699  0.00295894]
[ 0.01061364  0.00030867 -0.0085129   0.01337546  0.00104043 -0.00192942
  0.01421671 -0.00252258 -0.00965929 -0.0111911  -0.00153506 -0.01604079
 -0.01276669 -0.00123569 -0.01176335 -0.00434334]
[-0.00468698  0.00698647  0.00136573 -0.01144658  0.01484937  0.00531118
 -0.02076385  0.01150926  0.02424473 -0.00884501 -0.00038727 -0.00380036
 -0.00775279 -0.02138027 -0.0218142   0.00901723]
[-0.00153726  0.01985294 -0.01591726 -0.01488363  0.0158902  -0.00523619
 -0.01386856  0.00296942 -0.01253273  0.00289765  0.0061989   0.00021716
  0.00062573 -0.0065899   0.01172994 -0.01090318]
[-0.01560216  0.02008582  0.002511   -0.0068156   0.0138686  -0.00853009
  0.00767469 -0.014819    0.00226371 -0.00419218 -0.01004771 -0.00216055
  0.00754186  0.007666    0.01438921  0.00703661]
[ 9.4151469e-03  2.2811713e-02  4.9384289e-05 -1.7398652e-02
  1.5364614e-02 -2.1946367e-02 -1.8189780e-02  1.2897150e-02
  5.3938963e-03  6.7771408e-03 -2.0631026e-02 -7.0855120e-04
  6.7514735e-03  7.0116953e-03 -4.9158433e-03 -2.5863260e-02]
[-0.00205603  0.0179869  -0.00946309  0.00152917  0.00949405 -0.00956488
  0.011648    0.00043791  0.02131959 -0.0192318   0.00275399  0.00029324
  0.00046316  0.01290129 -0.0145034  -0.02155773]
[ 0.00064597  0.02024311 -0.00488382 -0.00513492  0.02035338 -0.00084978
 -0.02157746  0.00453896  0.01550147  0.03233704 -0.0093251  -0.01764382
  0.00271218 -0.01770285 -0.01566925 -0.01273183]
[-0.01273688  0.02237246 -0.01213808 -0.00903666 -0.00510452 -0.01136491
 -0.00045583 -0.00657337  0.02949183  0.00314865 -0.01794651 -0.00832981
  0.02751438 -0.00531537  0.00343885  0.00302644]
[ 0.01078803 -0.03124063  0.02144383 -0.00244688 -0.0474864   0.03318378
  0.0075567  -0.0134608  -0.01705352  0.01291075  0.00778758  0.01729033
 -0.00334951 -0.00071816  0.01643598  0.02349459]
[-3.87559598e-03  4.36861720e-03  8.80602095e-03 -7.02517200e-03
  1.17157595e-02 -8.41201763e-05  2.22344906e-03  6.87103858e-03
  1.34610170e-02 -1.39542604e-02  6.97844522e-03 -9.61869117e-03
  1.16959643e-02 -4.42447979e-03 -5.25292242e-04 -2.28032824e-02]
[-0.01646842  0.00933563 -0.02040892 -0.01810335 -0.00866822 -0.00184067
  0.00523589 -0.01487245  0.00663595 -0.01474456 -0.02232118 -0.00622827
 -0.01005452  0.00717843 -0.01434452 -0.00779805]
[ 0.00681211  0.0188259  -0.00408988  0.00471469  0.02162766 -0.01278354
  0.00190379  0.00416318 -0.00855609 -0.00226412  0.00849433  0.00583219
 -0.00074425  0.01359311 -0.00693599 -0.02089244]
[-0.006434    0.02494141 -0.02012732 -0.01108744  0.00288884 -0.00046516
  0.00300189 -0.01099426  0.01113881 -0.00052389 -0.00401166  0.00492543
  0.0139438  -0.01168548 -0.00790047 -0.001172  ]
[-0.01732175  0.00608638 -0.00335629 -0.00640885  0.00523252 -0.0003836
 -0.00942117  0.00074559  0.00392882  0.00307445 -0.01764836  0.0191725
  0.00875914  0.00430814 -0.00846399  0.00542829]
[ 0.02099717 -0.01393966  0.00341889  0.00752013  0.01656095 -0.0029858
  0.00765755 -0.00300366  0.00711191 -0.01212023  0.01305281 -0.00158725
  0.00263501 -0.00492311  0.02284149  0.00573026]
[-1.1628129e-03  9.3024299e-03 -9.9013509e-05 -7.8149242e-03
  7.3561626e-03  1.5116773e-02 -1.6911792e-02 -1.7067822e-02
  3.0378767e-03  6.5520094e-03 -1.9433882e-02  8.1807114e-03
  9.4667608e-03  7.2648642e-03 -1.5315601e-02 -1.5741287e-02]
[-7.69118546e-03 -1.72909927e-02  2.33002640e-02  1.00037055e-02
 -8.56646150e-03  1.84365420e-03  9.52415285e-05  2.19476763e-02
 -8.94292817e-03  9.30761671e-05 -5.49422484e-03 -9.61201079e-03
 -2.05781385e-02 -5.70368860e-03  1.57523602e-02 -1.38429808e-03]
[-0.00801057 -0.01231161 -0.01681022 -0.01824834  0.00465581 -0.01029034
 -0.01802353  0.00866468 -0.01246392 -0.00898034 -0.01206531  0.01257698
  0.01152337  0.0015206  -0.00894336  0.0036812 ]
[-0.01255304 -0.0125008  -0.0188069   0.0166545   0.00047797 -0.00041205
  0.00991385 -0.00042142 -0.00750976  0.00857779 -0.01223433  0.00073162
 -0.00175365  0.01773509 -0.00756321  0.00968348]
[ 0.00708527  0.01681893 -0.00220085 -0.01478522  0.01137124  0.0171804
 -0.00667376 -0.0089823  -0.00025779 -0.00893876 -0.02144093 -0.01440752
 -0.00913437 -0.00796411  0.00950041 -0.00880941]
[-0.01766759  0.00769878 -0.01947882 -0.00142619 -0.00744079 -0.0080076
  0.01166918 -0.02123664  0.01725336 -0.01491648  0.00295916  0.00787347
 -0.00418109 -0.00448857 -0.00788073 -0.02531426]
[-0.02395034  0.00082853 -0.01620179  0.00737435  0.01043265  0.00631824
 -0.01452059 -0.01200063  0.01932994  0.0055609   0.00917307  0.01061441
  0.00662134 -0.02069964 -0.00538924 -0.01793394]
[-0.01401327  0.04159581 -0.00398736 -0.00251552  0.0230951   0.00330887
 -0.00492193  0.02501218  0.01290671  0.01217321 -0.01507927 -0.01448629
  0.02343051 -0.0036518   0.00316438  0.00513192]
[-0.01861585  0.00225824 -0.01138633 -0.00969863  0.00354502  0.00379167
  0.00100433 -0.01309041 -0.00547767  0.00659417 -0.00235124 -0.0012796
  0.0075348  -0.00732286  0.01097733 -0.01123334]
[ 0.00821554 -0.00270314 -0.00733807 -0.00062742 -0.00767724 -0.00889487
 -0.01339463 -0.00511935  0.00629162  0.01192546  0.01157859 -0.00366392
 -0.00264036  0.00103676  0.00445113 -0.00696132]
[-0.00193178  0.02065564 -0.00485216  0.00380598 -0.00805475 -0.01114715
 -0.01692097  0.01340696 -0.00068248 -0.01100006  0.00738576 -0.01858403
  0.01046698 -0.0110544  -0.01716972 -0.00708529]
[ 0.00615988  0.00752634 -0.01229387  0.0164327  -0.01210611  0.01302311
  0.01170926 -0.00850413  0.01168766 -0.00641471 -0.00161348 -0.00652911
 -0.00786388  0.02062682  0.01020968 -0.00864981]
[ 0.01105515  0.0034861  -0.02604001 -0.00633385  0.00679242 -0.00399459
 -0.00385733 -0.00151878  0.02218794 -0.00183441 -0.02218316  0.00591005
 -0.00968039  0.00143486  0.00710454 -0.00803127]
[ 0.00110961  0.00246581 -0.0158881   0.00626478 -0.0068949  -0.01508421
 -0.00025177 -0.01961907 -0.00442066 -0.00704782 -0.02337234  0.00725258
  0.01589546  0.01089456 -0.00901741 -0.01785827]
[-0.00681218 -0.0071088  -0.00190868  0.0042525  -0.005691   -0.00165789
  0.00876981 -0.02074053 -0.00723016 -0.01727957  0.01123755  0.00867258
  0.01254997 -0.00472632 -0.00223728  0.00885814]
[ 0.00504434  0.03656689  0.00686461 -0.01821652  0.04465577 -0.00462041
 -0.01625188  0.00810133  0.02022104  0.00318575 -0.00345225 -0.02669472
  0.02099516 -0.02135632 -0.01272775  0.00809915]
[-0.0057629  -0.00853685 -0.01543099  0.00415024  0.00490585 -0.00860199
  0.01288531 -0.00468643 -0.00395489 -0.02209774 -0.01543715 -0.01269645
  0.01227539  0.00660382 -0.0047435  -0.02054902]
[-0.01275512 -0.02250379  0.02242648 -0.00470166  0.01226333  0.00487195
 -0.00065785 -0.00724579 -0.01690274 -0.01251051  0.01494545 -0.01381325
  0.00607282 -0.01095378 -0.00668237  0.01397021]
[ 0.0141247   0.00766233  0.00921365 -0.01743391 -0.01438976  0.00945986
  0.00480825  0.00781574  0.00950518  0.00168876  0.00159634 -0.00782026
  0.00981671 -0.00642593 -0.01149111  0.0066338 ]
[-0.00080024  0.01281377 -0.02427236 -0.01520783  0.01735207 -0.00295878
  0.0030478   0.00247878  0.01593973  0.0088606  -0.00094505  0.01152164
  0.02488006 -0.00732307 -0.01809906  0.00746286]
[-0.00903137  0.01758588  0.00890573  0.01236053 -0.0099443   0.02040402
 -0.0022322   0.01036434 -0.00177223 -0.01200263  0.00792903 -0.00166309
  0.01433447  0.01041084  0.01478652 -0.01194306]
[-0.00262329 -0.01122367  0.00407243  0.01466918  0.0086814  -0.01093946
  0.01523939 -0.00426884  0.00326703  0.0083491  -0.01287648 -0.01050666
  0.00276733 -0.0112109   0.01588791 -0.00133169]
[ 0.00160363  0.01528258 -0.00959145  0.01264249  0.00286056  0.00686295
  0.00048548  0.00750241 -0.01605122 -0.00517532 -0.00204693 -0.0039336
  0.0099416  -0.0028597  -0.01457904  0.00927896]
[-0.00696068 -0.01348774 -0.0155525   0.01605493 -0.01417098 -0.00916962
  0.00375342 -0.00524921 -0.00118442 -0.0146582   0.00972893  0.00173466
 -0.01166989  0.01923304  0.01977614  0.00140592]
[ 0.00391752  0.01777967  0.00724432  0.01170238 -0.00532141 -0.02148475
  0.00205193  0.00669836  0.01907382  0.003415   -0.02308848 -0.01304008
  0.00298866 -0.00716117  0.00514581 -0.02295103]
[ 0.00264829 -0.00956414  0.01963744  0.01830938  0.00546786  0.00564992
  0.00240997  0.00860912 -0.01629493  0.0062972   0.02006358  0.01020433
 -0.00507675  0.01104439  0.00198797  0.0076893 ]
[ 0.01013326  0.00693154 -0.02218845 -0.0153775   0.01983892 -0.0001704
  0.01304879 -0.01009346 -0.01313354 -0.02011874  0.00453307 -0.00828863
  0.00064977  0.01018735 -0.00603516 -0.01663307]
[-3.5539987e-03  2.7296048e-02 -1.2804422e-02  5.9491931e-03
  1.1051321e-02 -9.6427239e-03 -2.4750875e-02 -6.4614969e-03
  2.1128381e-02  8.8607270e-04  8.3422838e-03 -1.9091612e-02
  9.0383692e-03  5.7105835e-06 -5.0964667e-03 -2.6243154e-02]
[-0.01183274  0.00128489 -0.00877486 -0.01424146  0.00854102 -0.02151997
 -0.02705205  0.03014565  0.03082667  0.01480853  0.00320217 -0.00276767
  0.01808199  0.0007525  -0.0154885  -0.00124186]
[-0.00899319  0.0098504   0.00750143 -0.01771123  0.01124804 -0.01400016
 -0.01527919 -0.00218131  0.01101305  0.00149562 -0.0206489  -0.01639394
 -0.00125762 -0.00454095  0.01354628 -0.01134438]
[-0.03329047  0.03547611 -0.00967684 -0.02958024  0.02372502 -0.02115109
 -0.01406661  0.0153773   0.03278175  0.01743124 -0.01664652 -0.0204394
  0.0148969  -0.01489698 -0.01415322 -0.00751223]
[-0.0056311   0.06127438 -0.00761606 -0.00285987  0.03864734 -0.03552521
 -0.03313412  0.01470367  0.03131349  0.02658491  0.0024028  -0.02924181
  0.02075682 -0.02983394 -0.00407808 -0.02563776]
[-0.02004405 -0.00909932 -0.01611195  0.00044518  0.00512838 -0.01016905
  0.01278536 -0.02269213  0.02220329 -0.01422731 -0.00970424 -0.00967203
  0.014002    0.00023528 -0.00087335 -0.01141277]
[ 0.01496488 -0.01647777  0.01095103  0.01034092  0.00852424 -0.00845326
 -0.00820374  0.02040335  0.00560391  0.01790343  0.01916729  0.01405891
 -0.00895177 -0.01637315  0.00759735  0.02153761]
[ 0.0102732   0.01732768 -0.01638059  0.01584065  0.01929725 -0.00011832
 -0.01542851  0.01113553  0.00697621 -0.02226804 -0.01087944  0.01707597
 -0.00814197  0.01127053  0.00945402 -0.01780822]
[-0.00080802 -0.00399615 -0.00908701  0.00531831  0.01676514 -0.01492921
  0.01359084  0.01083584  0.01097789 -0.01922861 -0.00473535 -0.00988026
 -0.00063578 -0.00518683 -0.01567484  0.01086298]
[-0.02888546  0.03803291  0.00223044 -0.02332729  0.04223749 -0.02511915
 -0.01936722  0.03390611  0.05031285  0.01010505 -0.00027972 -0.01106241
  0.01460306 -0.00565164 -0.02321529 -0.02108896]
[ 0.01178707 -0.01422261 -0.01899699  0.01107026 -0.00914177  0.00079609
 -0.01524855 -0.00134813  0.00970377  0.01060567  0.00383305  0.00811018
  0.00092818  0.01133071  0.00369369 -0.01119576]
[-0.01857597  0.01522489  0.00995252 -0.00951998  0.00076815 -0.00872005
 -0.01981543 -0.016843    0.00854613 -0.01814722  0.00569914 -0.01725773
 -0.00080765  0.00325166 -0.01650388 -0.01150137]
[-0.01380549  0.01311524 -0.01247367 -0.00279835  0.00464093  0.00921062
 -0.01962693 -0.01170532  0.01745242  0.00685695  0.00107316  0.00627067
  0.01381255 -0.0144624   0.002531   -0.01144498]
[ 0.00750458 -0.01150181  0.00185378  0.01624788 -0.01151631 -0.00626417
 -0.0192067  -0.01035259  0.01090486 -0.01257336 -0.01103528  0.00965678
  0.01867464 -0.01032879  0.01533425  0.00305937]
[-0.00069116 -0.01391643 -0.00681387  0.00442184 -0.00381115  0.00489224
 -0.00384672 -0.01326953 -0.01942647  0.00573308  0.01479611  0.00576644
  0.00481535  0.01879995 -0.00647048  0.02509765]
[-0.02124275  0.00592593 -0.0242726   0.01640337  0.01535399  0.00826437
 -0.01194169  0.00661217  0.00437718 -0.01903701 -0.01714102  0.00521251
 -0.00439301 -0.01347185 -0.01813193  0.00225403]
[-0.01855893  0.00823966 -0.01252925 -0.00947726  0.01350412  0.01072024
  0.0051595  -0.00330897 -0.00150528  0.01284764 -0.02145586 -0.00532405
  0.01341523  0.00691383 -0.00657589 -0.01093184]
[-0.0019293  -0.0129426  -0.00127545  0.02601258 -0.02350005 -0.00033803
  0.01077365  0.00040841 -0.01905382 -0.01824807 -0.00707729  0.0160797
 -0.02156978  0.0065637   0.00602485 -0.00921724]
[-0.00903088  0.01861125 -0.02602243 -0.00412866  0.00415613 -0.00036968
 -0.00815193 -0.0102095   0.01782792 -0.01643046 -0.01255693  0.00922428
  0.00300646 -0.01759093  0.00353604 -0.02097912]
[-0.01312932 -0.0019982  -0.00727872  0.01564167 -0.0113578   0.00484324
  0.01970707  0.00244068 -0.03033108  0.00513238 -0.01410076  0.00500108
 -0.01003622  0.00384258  0.00665056  0.00124232]
[-0.01114305  0.01702905  0.01771936  0.00562785  0.01241577  0.02763205
  0.0153862  -0.02220736 -0.00546578  0.00811605  0.02436186  0.02830688
 -0.02624627  0.02914251  0.01559734  0.02881703]
[ 0.01480985 -0.01478296 -0.00922087  0.01758485 -0.01494076 -0.00651481
  0.01040211  0.01146875  0.00876882  0.01027066 -0.00494802 -0.00783768
 -0.00433821 -0.00476889  0.01960675 -0.00908254]
[ 0.0124953   0.00859295 -0.01146436  0.00145676 -0.01437053 -0.00328135
 -0.00358551  0.01481353  0.00681478  0.01744895  0.01173077  0.01573296
  0.00657662  0.01367835  0.00748933 -0.00105909]
[-0.01589923 -0.00999828 -0.01560462  0.00679183 -0.01050562 -0.00614408
  0.00861698 -0.01099395 -0.0142138   0.01079603  0.00237842 -0.0084479
  0.01636048 -0.00297295 -0.00264584  0.00419559]
[ 0.00656375  0.01844632  0.00180317 -0.02941578  0.02844524 -0.00228763
 -0.01740305  0.02268976  0.02162607  0.00559155 -0.00973388 -0.02609346
  0.00632041  0.00052341 -0.00445775 -0.0087287 ]
[-0.00715203  0.00147704  0.00921256 -0.02065472 -0.00915689 -0.01187499
  0.01291473 -0.00616775  0.01932546  0.0077778  -0.00581214 -0.01797315
  0.02094664 -0.02146065  0.01298143 -0.00398684]
[-0.01148564  0.00784605  0.00215247  0.00149411  0.00094149  0.00319161
  0.01305747 -0.01011457 -0.01254173 -0.00446367 -0.00996339 -0.00562397
  0.01171991  0.00544114  0.00131971  0.00566201]
[ 0.00633668 -0.08067702 -0.02450526 -0.00164611 -0.03557815  0.00769806
 -0.01348678  0.02077755 -0.0419041  -0.00074745 -0.0097238  -0.00680959
  0.02991961 -0.02225802 -0.02110376 -0.02359891]
[ 0.00563486  0.01853843 -0.00472787  0.0006708   0.03491681 -0.00271057
 -0.03218845 -0.00558927  0.02751865  0.02067893 -0.01725865 -0.01793004
  0.02734639 -0.0287028  -0.02518973 -0.01904887]
[-0.02073227 -0.00950575  0.00581901 -0.00035115  0.02090048 -0.00041898
  0.0039274  -0.00510193 -0.01459928 -0.01759823 -0.01071383 -0.00115195
 -0.00567514 -0.01792091  0.01562209  0.00657464]
[-0.01712707  0.01917938 -0.00303762 -0.01098019  0.01366309 -0.02245682
 -0.00500275 -0.00291899  0.0463146  -0.01107364 -0.00702454 -0.01613599
  0.02153724  0.00371009  0.00098737  0.0090024 ]
[ 0.0081484  -0.01880384 -0.01861601  0.01886424 -0.01394227  0.01622296
 -0.01179244  0.00300859 -0.01018576 -0.01643989 -0.00137087 -0.01523386
  0.0077536  -0.01274584 -0.01203185 -0.0136276 ]
[-0.03811663  0.03442796 -0.00902005 -0.00092549  0.02271063 -0.00689413
 -0.013257    0.00273387  0.04769471 -0.01374427  0.00725505 -0.00648424
 -0.00143071 -0.02353633 -0.00291863 -0.01994598]
[-0.00395652  0.00663535  0.00588669 -0.00179042  0.01324962  0.00461664
 -0.02292741  0.00321703  0.01694815 -0.00796721  0.00828191 -0.02569028
  0.00856007 -0.02352427 -0.02190902  0.00130537]
[-2.0088123e-02  1.2739221e-02 -8.5631022e-03  5.6043090e-03
  1.4195821e-02 -1.4744511e-02 -1.4980375e-02 -6.6477475e-03
 -6.0808407e-03 -1.9042505e-02  5.9447712e-03 -6.6832551e-03
 -1.7072469e-05  2.9938587e-03  1.4942593e-02 -1.4705034e-02]
[ 0.00610512  0.00330274 -0.01670127 -0.00767113  0.01740148  0.00613319
  0.00662871 -0.02172102  0.017892   -0.02016857  0.01073148  0.01307513
  0.00696805  0.01219767  0.00066138  0.01156412]
[ 0.00370454 -0.02281648  0.01754546  0.02054072  0.0100414   0.01665505
  0.01495753 -0.00810166 -0.02456987 -0.01656208  0.00836739  0.02285711
 -0.01029052 -0.00405134  0.01083318  0.01696112]
[-0.00417104  0.02089139  0.00477538 -0.00305001 -0.01206559  0.00516261
 -0.01447211  0.00915741  0.00490807  0.00821819 -0.01253156 -0.00925902
 -0.010237   -0.01424944  0.011425   -0.0166079 ]
[-0.01102179  0.0152847   0.00564883 -0.0209868   0.00087608  0.00533953
  0.00969994 -0.00230665  0.01696754  0.00180644 -0.01086033  0.00468239
  0.00474768  0.00444505 -0.00343273  0.01508194]
[-0.01139917 -0.01654849  0.0030839   0.00263795  0.01749274  0.00794876
 -0.00598481  0.00819732 -0.00468951  0.0115628   0.00915357  0.00830307
  0.01521183  0.01159468 -0.00232708 -0.00175122]
[-0.03411153  0.05878465 -0.00543197 -0.02210718  0.02924649 -0.03176893
 -0.00977558 -0.0123257   0.0769631   0.01298177  0.0031934  -0.03267492
  0.02755581 -0.02700223 -0.01467766 -0.02670138]
[-0.05288219  0.06108263 -0.01076682 -0.04034051  0.02872642 -0.01582388
 -0.03081546  0.00529576  0.14494972  0.03883946 -0.01111091 -0.02825611
  0.04128494 -0.04460301 -0.04377119 -0.02868365]
[ 0.00808265 -0.02587553  0.00975139 -0.01448106  0.00087242 -0.00571292
 -0.00448679  0.00720417 -0.01345109  0.00669831 -0.01623884  0.0025237
  0.01340335  0.00709676 -0.00940283 -0.01631701]
[ 0.01649157  0.00218115 -0.0141622   0.01316747  0.0025976   0.00563641
  0.01722389  0.00610288 -0.02139819 -0.01941359 -0.01210688 -0.011433
  0.01782673  0.00121216 -0.01006883  0.00191664]
[ 0.00542516 -0.00187933 -0.02355517 -0.02811274  0.02485928 -0.01848618
 -0.0289046   0.02424308  0.01667185  0.01295825 -0.00722655 -0.00917363
  0.01148912 -0.02643416 -0.00057231 -0.00847707]
[ 0.00739987 -0.00920473 -0.01490677  0.0148213  -0.00858236 -0.00858178
  0.00362175 -0.00731839 -0.00312111 -0.01152903 -0.01687291  0.00018551
  0.01363805 -0.013128    0.00602553 -0.00621896]
[-0.01032331  0.02020402 -0.00020771 -0.00354245  0.01431702  0.01484852
 -0.01288214 -0.00113756  0.001685   -0.00270566 -0.01041383  0.01035182
 -0.00792792  0.00482386  0.00665265 -0.00294538]
[ 0.01475538 -0.0164181  -0.01830651 -0.00519739  0.01122925  0.01038971
 -0.00305892  0.00027211 -0.00585607  0.0080198  -0.00821466 -0.01308606
  0.0023718   0.00868695  0.01765701 -0.01231199]
[-0.01296676  0.03259424 -0.00680309 -0.02118248  0.02252839 -0.00678414
 -0.01220877  0.0146272   0.03576302  0.01426653 -0.02527075 -0.02237814
 -0.00077966  0.0042584  -0.02336393 -0.02550475]
[-0.03982878  0.01914899 -0.01486107 -0.00717118  0.0335831  -0.01958345
 -0.02585281 -0.00874417  0.06101566 -0.01073669 -0.00777287 -0.00291362
  0.00794766 -0.00414005 -0.0317663  -0.00639408]
[-0.01132889 -0.00430641  0.0066152   0.00072989  0.01301729  0.00287797
 -0.0177421  -0.0048691   0.00596952 -0.02220097 -0.01703371 -0.01355772
  0.02085359 -0.0075539  -0.01092419  0.00263231]
[-0.00125448  0.01121787 -0.01514937 -0.02581277 -0.00328102 -0.00097719
 -0.02311685 -0.00951206  0.05046298  0.00196407  0.006599   -0.00662762
  0.00415682 -0.02608738 -0.00236124 -0.00391033]
[ 0.01378434  0.02668886 -0.01968976 -0.00173021  0.03685958 -0.02599775
 -0.00558589  0.00289658  0.02277041 -0.00827163 -0.01715235 -0.0248625
  0.02202888 -0.01519508  0.00274337 -0.01057868]
[-0.02026385  0.01698384 -0.01086614  0.00423095  0.01685632  0.01264919
 -0.00632694 -0.01758632  0.0073356   0.00274067 -0.01725978  0.00654957
  0.0119701   0.01714822  0.00222002 -0.01976262]
[-0.01731049  0.02067361 -0.00712323 -0.0036673  -0.00575226  0.00570318
  0.00267943  0.01324114  0.00753634  0.00718406  0.01847172 -0.0170104
 -0.01374329 -0.011738   -0.01695739 -0.01128103]
[ 0.01605065 -0.0055028  -0.00941354  0.0134235  -0.00977744  0.00627509
  0.00446678  0.00307293  0.00457605  0.00604111  0.00261651  0.01618425
  0.00056461 -0.00703759  0.00627183  0.00901867]
[-0.01618022 -0.00588414  0.00659797 -0.00981702  0.00483782 -0.01937099
  0.00915993  0.00687189  0.025686   -0.02050564  0.00507457  0.00537284
  0.00332237 -0.02264581 -0.00440953 -0.00437661]
[-0.03879328  0.0698731  -0.01064367 -0.01258645  0.05936103 -0.03819625
 -0.04074892  0.04039351  0.08625994  0.02483331  0.00587105 -0.01744711
  0.01407856 -0.02307148 -0.03046545 -0.00094599]
[-0.01980745  0.00057446 -0.00671729  0.01031453  0.0222066   0.00671078
  0.0083272  -0.00787794  0.02338754  0.00260355  0.00113602 -0.01321113
  0.00798164 -0.0059883  -0.02001765 -0.01228641]
[-0.04556318  0.04937439 -0.01412825 -0.02934157  0.04792941 -0.02926063
 -0.01938349  0.00112315  0.08569163 -0.00435547  0.00196228 -0.03010001
  0.01331489 -0.00422005 -0.02651455 -0.01483925]
[ 0.00644037 -0.01183359 -0.00610398  0.01211707  0.02232538  0.00601694
  0.01280221  0.01192018  0.01378532 -0.00147369  0.01347968  0.01305029
 -0.0076604  -0.00362298  0.01147513 -0.01307859]
[-0.00443382  0.00351907 -0.00796166 -0.00604293  0.01934095 -0.00481473
  0.01689318 -0.02201432 -0.00409711 -0.00763574 -0.01564804  0.01726126
  0.00144382 -0.01698597  0.01298966  0.00766238]
[-0.00032213  0.00469893  0.0037338  -0.01678549 -0.01475644 -0.01526598
  0.01193163  0.02326413  0.01893477  0.01991211  0.01723679  0.00881925
 -0.00287177  0.00816448 -0.00525004  0.00159683]
[-0.00549221 -0.01182158  0.01085348  0.01605147 -0.00352593  0.01646974
 -0.01218655  0.00206222  0.0067493  -0.00376325 -0.02219364  0.01228498
 -0.00311721  0.00700374  0.00503378 -0.00860065]
[-0.02587614  0.02212348 -0.0271193   0.00465252  0.01387113 -0.01874158
  0.00045738  0.00431398  0.02164392 -0.01587484 -0.0022085  -0.01320943
  0.01759399 -0.01180291  0.00656925 -0.01946916]
[-0.02454669  0.05148854 -0.01837483 -0.03055464  0.04654822 -0.01649544
 -0.02676242  0.0328176   0.06298003  0.01907182 -0.0236705  -0.01637727
  0.03261097 -0.02681753 -0.01882772 -0.00550254]
[ 0.00901934 -0.00645014  0.0032293   0.00791006 -0.00141156 -0.00066247
  0.01415536 -0.00432157 -0.01284013 -0.01218869 -0.00616312  0.01304585
 -0.00378747  0.00567175 -0.01014282 -0.00612453]
[-0.02912512  0.04386709 -0.01712525 -0.01825743  0.02813166 -0.01743341
 -0.02608014  0.00586003  0.05962002 -0.01827426  0.00198658 -0.01682413
  0.006226   -0.01690076 -0.01421771 -0.01802108]
[ 0.00236194  0.0151482   0.01488828 -0.01149475 -0.00608226 -0.0066458
 -0.01529911  0.00864376  0.0220798  -0.01051647  0.00762935 -0.0208564
  0.02560046 -0.02204753 -0.0051139  -0.00919774]
[ 0.01034518 -0.00964784 -0.01371318  0.00503074  0.01474272  0.01022157
 -0.01653047  0.00606068  0.01552396 -0.00419754 -0.01741344  0.00158079
 -0.0020774   0.01366789  0.01048283 -0.01213636]
[ 0.01190746  0.00743656 -0.00935466 -0.00992627  0.0193765  -0.0142471
 -0.02376779  0.0045012   0.03451981 -0.00311318 -0.01252676  0.00120306
  0.002488    0.00631756 -0.00429855 -0.00365196]
[ 0.00601993 -0.01796389  0.00040736  0.01476849 -0.01456672 -0.00582051
  0.01295302  0.00253954 -0.00514373 -0.01652247  0.00380714  0.01792764
  0.01435996  0.01711874 -0.01556219 -0.02231616]
[-0.00256749  0.01890695 -0.02834092 -0.01325733  0.01056092 -0.01933871
 -0.02568953 -0.00843355  0.02768089 -0.00210783 -0.00550751 -0.00133888
  0.00922058  0.00578252 -0.01135    -0.00145552]
[-0.03695026  0.0495933  -0.02557963 -0.00948244  0.02289093 -0.03512712
 -0.01696231  0.01285083  0.07855013  0.01466763  0.00175543 -0.02594915
  0.02828648 -0.00809121 -0.02125007 -0.00032277]
[-0.01612858  0.01768941  0.00871209 -0.01298629 -0.00110994  0.01233634
  0.01217273  0.00218579 -0.00026695 -0.00779578 -0.01061468  0.00836556
  0.00577769 -0.01886016  0.00266572  0.00176661]
[-0.01725505  0.04138524 -0.02256212 -0.00480821  0.03431698 -0.01003452
 -0.02645409  0.00712711  0.08613183  0.00395542 -0.00749288 -0.01393861
  0.03129916 -0.02668613  0.00039049 -0.018762  ]
[-0.01746192  0.0299816  -0.01740903 -0.02417671  0.01719281 -0.00767818
 -0.01945493 -0.00403938  0.02424656  0.00189176 -0.00433235 -0.02593317
  0.02659215  0.00409697 -0.02287933 -0.01800855]
[-0.01506558 -0.00015766 -0.01479184 -0.00981509 -0.00176903  0.00791167
  0.00096284  0.00930494  0.02761453 -0.01603681  0.00083384  0.00233318
  0.00383782 -0.00136133  0.00975681 -0.01900369]
[-0.00265803 -0.00466017  0.0137096  -0.01351743 -0.01484329  0.00817759
  0.00765765  0.02085085  0.00342869  0.0187915   0.00625095  0.00291645
 -0.0088889   0.00922974  0.01348579 -0.00801462]
[-0.00830545  0.01185616 -0.00357096 -0.01693986  0.01317684  0.00560895
 -0.00426895 -0.01876781  0.01209785 -0.01453654  0.00700539  0.00952009
 -0.01013836 -0.01495551  0.0076604  -0.02166282]
[-0.00955052  0.04038047  0.00525021 -0.00964581  0.02399509 -0.02266175
 -0.02948714  0.01529444  0.05440097 -0.01364663 -0.02261148 -0.00828609
 -0.00346481 -0.02498664 -0.01924129 -0.00377876]
[-0.05190549  0.08720431 -0.0300216  -0.03397711  0.05454693 -0.02285593
 -0.02576083  0.02626633  0.08547149  0.00101273 -0.01943159 -0.04256259
  0.01810357 -0.04706386 -0.0382656  -0.02387403]
[-0.02432332 -0.00223611 -0.00893939  0.00850797 -0.00812134 -0.00513523
 -0.01763827 -0.00520454 -0.00342312 -0.01640148 -0.01242601 -0.00576484
  0.01514097 -0.01133333  0.00393405 -0.0214178 ]
[-0.0412342   0.06060699 -0.00634907 -0.01509962  0.02662211 -0.01932558
 -0.01788694 -0.00818144  0.08125308 -0.00751562 -0.00438437 -0.0192766
  0.0261529  -0.00661852 -0.00952754 -0.0137027 ]
[-0.00901669  0.00938821  0.00658158 -0.01591047  0.03516369  0.00327816
 -0.00273308  0.00918408  0.01378293 -0.00489974 -0.01050904 -0.01460761
  0.02370018  0.00232875 -0.01959952  0.0027658 ]
[-0.01464968  0.02108827  0.01043778  0.00756886 -0.00930371 -0.00522275
  0.00066149 -0.00392473  0.01969761 -0.00424887  0.0053535  -0.00392395
  0.00428415 -0.01016058 -0.01221566  0.00378304]
[ 0.01125889  0.02101676  0.01296256  0.00865204  0.02267155 -0.01978517
 -0.00329494  0.01072422  0.02890247  0.0218188   0.00834915 -0.0180186
  0.00646208 -0.01405235  0.01011825  0.00673948]
[-0.00481874 -0.01403611 -0.0131047   0.00552294  0.01468769  0.0120864
 -0.00250029 -0.00069732 -0.01828737 -0.02192815 -0.01854588 -0.01315492
 -0.0014787   0.00762855 -0.01003765  0.00037066]
[-0.010316    0.04124001 -0.01373804 -0.01048784  0.01258627 -0.00946116
 -0.01852679 -0.01834936  0.06841793  0.00052081  0.00672064 -0.01830064
  0.02385473 -0.02027416 -0.01375062 -0.01799984]
[-0.03306876  0.02553523 -0.01260072 -0.01185732  0.01340393 -0.00525652
 -0.0277086   0.03713766  0.04053086 -0.00228995 -0.00813847 -0.03344706
  0.02858357 -0.00794753 -0.03986278 -0.01687253]
[ 0.0102785   0.0043637   0.00087692 -0.00243411  0.01380904 -0.01958196
  0.01197996 -0.00880278 -0.00122184  0.00288864  0.00163307 -0.00166401
  0.02300196 -0.00412827  0.00391977 -0.02581708]
[-0.01454592  0.05038121 -0.02139772 -0.03348703  0.02366553  0.00040095
 -0.02246268 -0.00904878  0.09322871 -0.00900819  0.00635827 -0.02319458
  0.00431165 -0.03351862 -0.02079276 -0.00596498]
[ 0.00570549  0.04019164  0.01211434 -0.00224717 -0.00388653  0.00381019
  0.00366552  0.00554895  0.03126878  0.0041286  -0.00689878  0.00533351
  0.0198883  -0.01247909  0.00642929  0.00144278]
[-0.00549492  0.00275573  0.00692224  0.0017783   0.01026228 -0.00351171
 -0.00381765 -0.00100277 -0.01587652 -0.00858032 -0.0109985  -0.00629907
  0.01204275 -0.00705056  0.00943177  0.00156345]
[-2.1352223e-05  5.3336561e-02 -2.7417270e-02 -6.0357135e-03
  4.3740731e-02 -2.6921632e-02 -1.3027960e-02 -7.5278459e-03
  5.1563598e-02  1.8948782e-02 -1.8671522e-02 -5.9562079e-03
  2.7562877e-02 -3.2950681e-02 -1.8979101e-03 -1.2001162e-02]
[ 0.01884333 -0.02722985 -0.01825994  0.02096153  0.00472479  0.00727375
  0.01824525  0.01183619 -0.02688872 -0.00061974 -0.02180778 -0.00785704
 -0.00113134  0.00291377  0.01907914 -0.00800197]
[ 0.00404354  0.01534258 -0.00412603 -0.01398751  0.00626288  0.00659868
  0.00503932  0.00064302  0.03890748 -0.00298108  0.00546362 -0.00584639
  0.00351076  0.00896266 -0.01856701 -0.0036626 ]
[-0.03614166  0.08160534 -0.02610931 -0.02486064  0.02014813 -0.01099906
 -0.03174572  0.03035088  0.08440281  0.00882019  0.00111512 -0.04687155
  0.01241176 -0.03835619 -0.02163186 -0.01026375]
[ 4.5365696e-03  1.8972879e-02 -5.1634246e-03  3.4917284e-06
  1.7267289e-02 -1.5438459e-03  1.4199050e-03 -1.2843254e-02
  8.7021384e-03 -1.2262366e-02  7.8144884e-03 -4.6950588e-03
  1.8712386e-02  1.6563261e-02 -1.7976865e-02 -1.1767496e-02]
[-0.00545343  0.02695076 -0.00354882  0.00064026 -0.00552504 -0.01826766
 -0.02314723 -0.01146784  0.06791398  0.00701242 -0.00450918  0.00525516
 -0.00110353  0.0029787  -0.02249541  0.00321906]
[-0.01219695  0.02901081  0.02175098 -0.0070311   0.02067566  0.00047183
  0.00019893 -0.01014533  0.02490237  0.000321   -0.00802471  0.00812711
  0.01009728 -0.00975956 -0.0077755  -0.01019186]
[ 0.00317281 -0.02513642 -0.02085848 -0.01106526 -0.00412019  0.01767376
 -0.00148702 -0.01567491 -0.00054149 -0.02142733 -0.01006429  0.00751164
 -0.00474258  0.00861829  0.01322855 -0.00948354]
[-3.3008484e-03  1.5582369e-02 -9.5657993e-04 -1.9893417e-02
  5.0858650e-03  8.1068492e-03 -2.7773896e-02 -1.4651358e-03
  3.1421293e-02  1.4945930e-02  7.5275004e-03 -1.2188900e-02
  5.3233900e-03  9.4341689e-05 -2.1505428e-02  1.2840938e-02]
[ 0.01975963 -0.02294063 -0.00045258 -0.00013348 -0.01652497  0.00075897
  0.02034118  0.00719615 -0.02517877 -0.01547309 -0.00841325 -0.01295627
  0.01659305  0.00150417 -0.0126406   0.00301262]
[-0.03177862  0.03655731 -0.02566816 -0.02540575  0.0122094   0.0005168
  0.00591356  0.00216407  0.05796104  0.00756046 -0.0186676  -0.0226467
  0.00263828 -0.02403022  0.00859382 -0.00530861]
[-0.04749408  0.12995051 -0.03427063 -0.07873043  0.08424107 -0.04955903
 -0.08443145  0.01587895  0.1353989   0.01525456 -0.03256688 -0.06711659
  0.04055078 -0.07581808 -0.08472466 -0.02115043]
[ 0.01133197 -0.00690841 -0.01995297  0.00924917  0.00022072 -0.00781506
  0.01568032 -0.00804563 -0.01408447  0.0113262  -0.00385374  0.00591912
  0.0114875   0.00020283  0.00109871  0.01179296]
[-0.04642555  0.06318239 -0.00437226 -0.03356145  0.03120479 -0.02873334
 -0.00208371 -0.01781522  0.11848649 -0.00178922 -0.01581844 -0.01163803
  0.02452803 -0.02732913 -0.00171783 -0.02286629]
[-0.01347251  0.01831663  0.00020167 -0.01850853  0.01001943  0.00054724
  0.00728128  0.01974296  0.02769565  0.02216675  0.02117825 -0.01358427
 -0.007728    0.0094977   0.00540879  0.02193742]
[ 0.00860535 -0.00441098 -0.02308527  0.01959479 -0.00184239  0.01777798
  0.02039897 -0.01247089 -0.00372741 -0.01021982  0.01155719 -0.00686994
  0.01711384  0.0006368   0.00591994 -0.00054809]
[-0.00465655  0.00222141  0.0051267   0.00165478  0.00275457 -0.01000981
 -0.01346492 -0.01216806  0.00644743 -0.01090257  0.00411291 -0.01152958
 -0.01403975  0.00656069 -0.01455988  0.00927522]
[-0.01311231 -0.01727276  0.01099783  0.00894032 -0.01605266 -0.00562461
  0.01311679 -0.00699285 -0.0109973  -0.01684589 -0.01467664  0.00310777
  0.01423711 -0.01296815 -0.00103234  0.00208596]
[-0.02149503  0.050486   -0.0211133   0.00652591 -0.00026865 -0.00483089
 -0.0169988   0.01000026  0.08029959 -0.00969231 -0.01546949 -0.01402203
  0.0191058  -0.01550942 -0.00617544  0.00645712]
[-0.03420091  0.091717   -0.01869084 -0.020199    0.04011732 -0.01430074
 -0.03455772 -0.00667145  0.10188475  0.01373028 -0.03346253 -0.01902145
 -0.01291884 -0.030531   -0.01042891 -0.03443336]
[ 0.00882764  0.01411349 -0.0133671   0.01015159 -0.0033315   0.01245519
 -0.00512558 -0.01555794 -0.00961849 -0.01244293 -0.02048048  0.01156035
  0.0058662  -0.01369805 -0.0138681  -0.01778507]
[-0.05560321  0.13435431 -0.01964189 -0.02198567  0.06990205 -0.03195417
 -0.04966494  0.01419219  0.13866943  0.00658992 -0.01565344 -0.04216918
  0.01033914 -0.02023676 -0.03974559 -0.0044254 ]
[ 0.01446067  0.02940398  0.01146343  0.00504469 -0.0087296   0.012082
  0.01315621 -0.00775308  0.00033907 -0.00665637  0.00942523 -0.01164898
 -0.02221993 -0.00203699 -0.01013479 -0.0004856 ]
[ 0.0134279  -0.00485118 -0.02409266  0.00257644  0.00319827 -0.00396658
  0.01604041  0.00618427 -0.00081209 -0.00496561 -0.00835152 -0.01017777
 -0.00840462 -0.01144499  0.01508324 -0.02093384]
[-0.01178749  0.0375476  -0.00215825  0.01258974  0.01550876  0.00653595
 -0.02087244  0.00166118  0.02529048 -0.0107835   0.00530596 -0.01754827
  0.00535171  0.01277416  0.00460188  0.01162632]
[-0.01957252 -0.00109587  0.00508033  0.01308628 -0.01612942  0.01280791
 -0.00111188  0.00508061 -0.001743   -0.0187112   0.01072385  0.01839092
 -0.00326507 -0.0046156  -0.01715537  0.00750353]
[-0.01856059 -0.00258495  0.01248735 -0.00744115 -0.00817987  0.0054186
  0.02021914 -0.00173513 -0.00666648 -0.00470994  0.00579378  0.00249036
 -0.00489443  0.01206468  0.01821607  0.00675415]
[-0.02058887  0.01361037  0.00501774 -0.00902287  0.00486764  0.00967914
  0.00160206 -0.00438004  0.0164131   0.00498547 -0.01721732  0.00287173
 -0.02111548  0.0019312   0.01770723  0.00440056]
[-0.01417237 -0.00016443 -0.01919195  0.01831339 -0.00667919  0.0001884
  0.01139106 -0.00672091 -0.02737286 -0.01600454 -0.01289892  0.00081914
  0.00666967 -0.01175551  0.00030207  0.00877384]
[ 0.000777    0.02275632 -0.00553877  0.00713094 -0.01268513 -0.01137762
 -0.00246308 -0.01458836  0.03567917 -0.00057084 -0.0145075   0.00389141
  0.00914428  0.0030767  -0.00295673 -0.0079374 ]
[ 0.00500722  0.03077029  0.00610871 -0.00609377 -0.00439956 -0.01932703
 -0.02124829  0.00288194  0.00901758  0.00822394  0.0137388  -0.00208362
 -0.0024266  -0.0222178  -0.00688654  0.01124112]
[-0.0086664  -0.01579261  0.00391313 -0.00314039 -0.01145724  0.01336809
  0.01882197  0.00243389  0.01281429 -0.01000883 -0.01042786  0.00296621
 -0.01667142  0.00208897 -0.01333973 -0.01202946]
[ 0.01347861 -0.06080886  0.0085334  -0.00479391 -0.01422964  0.00239199
  0.01436704  0.01901496 -0.03068263  0.00123368  0.00456072 -0.01140128
 -0.00758294  0.01099635  0.0157534   0.00751409]
[-0.00171342 -0.00066861  0.00789386 -0.01130646  0.00202894 -0.00928696
 -0.00780542 -0.01222876  0.00017084  0.01036768 -0.01639055  0.01553193
  0.02092097 -0.00499636 -0.0146739  -0.01025576]
[ 0.01115461 -0.00561077 -0.02072025 -0.00204815  0.0062214   0.00636227
 -0.00773015 -0.02119527  0.01045604 -0.01817627 -0.00655481  0.01236943
  0.01081115 -0.0082378   0.00198651 -0.01882273]
[-0.01215099  0.00096445 -0.00428761  0.02480139 -0.01938163  0.0134201
 -0.00529278  0.00673578 -0.01396606  0.0088077   0.01492013  0.01155446
 -0.01108808 -0.00655997 -0.01047887 -0.00776394]
[-0.01210983 -0.02111384 -0.00962878 -0.01304179  0.00945062 -0.00191529
 -0.01370993  0.0105674  -0.02087245 -0.00578375 -0.01932232 -0.00073977
  0.01432649 -0.01647288  0.01113298 -0.01059149]
[ 0.01478538 -0.01117374  0.01447547 -0.00955855  0.0049725  -0.01156746
 -0.00240686  0.00395203  0.01233766  0.00440953 -0.01500209  0.02153253
 -0.015484    0.0075239   0.00310399 -0.01525712]
[-0.01366026  0.02587449  0.00828363  0.00173631  0.01174317 -0.00596471
 -0.00726335 -0.00452194  0.02501767 -0.0064838   0.00991071 -0.00220459
  0.00328002  0.00743569 -0.00925821  0.01949869]
[ 0.00699616  0.00837238 -0.00739692  0.00190202 -0.01654547 -0.00368314
  0.01871778  0.01278427  0.00298638 -0.00326655 -0.00499044 -0.01170336
 -0.00106402  0.01743505  0.01950097 -0.01168821]
[-0.00890938  0.02742977 -0.0013552   0.00207883  0.00255179 -0.00645306
 -0.01553548 -0.01238592  0.00488234  0.00306336  0.01199006 -0.01359173
  0.00175936 -0.01069637  0.00691079 -0.0005792 ]
[ 0.00619309  0.014127    0.00489108 -0.0063161  -0.00217178  0.0115496
  0.00152504 -0.02208356  0.00255076  0.01089449 -0.00823659 -0.00056943
  0.01775893  0.00286896  0.01315856 -0.01322961]
[-0.0123974  -0.01493539  0.00736569 -0.01221964  0.00854773  0.010948
 -0.01126143  0.00931052  0.00310837 -0.0059162   0.0071166  -0.00434097
 -0.01982804  0.00754005 -0.01121803 -0.00930049]
[ 0.00179705 -0.01743607  0.01705207  0.01793814 -0.00456     0.00805542
  0.02252278 -0.01449077  0.00993743 -0.02128984  0.01568762  0.01530356
 -0.01046138  0.01050342  0.01610721 -0.00382317]
[-0.00343755  0.00128785 -0.00511454  0.00124124  0.0300362  -0.00185384
 -0.00202073  0.00810275  0.01968612  0.01219503 -0.02339227 -0.01076476
 -0.00428882 -0.00724148 -0.00030642 -0.02347689]
[ 0.00818963 -0.01105751 -0.0080609  -0.01097394 -0.00744541 -0.00972135
  0.02172442 -0.01252532 -0.01509534 -0.01586231 -0.01905135 -0.00066596
  0.00078026  0.01376644  0.00874086  0.0002785 ]
[-0.00683227  0.04371569 -0.0092079  -0.00227464  0.02296952  0.00530719
 -0.01042785 -0.00197161  0.06914587  0.01566255 -0.01111928 -0.00276724
 -0.01112032 -0.02822489 -0.01169318  0.00354197]
[-0.00205219  0.01485116 -0.00963374  0.01699842 -0.0043796  -0.01087432
 -0.0091635  -0.00107551 -0.01322947 -0.01042045 -0.02263137  0.00576348
  0.00584936 -0.00902922  0.01501853  0.01080743]
[ 0.00120065 -0.0507018   0.00719412  0.01067278 -0.02183311  0.01176693
  0.00305345  0.00753995 -0.00043901 -0.01144187  0.01801586 -0.00769348
  0.00404602  0.00682364 -0.0053439   0.01943688]
[ 0.00749529 -0.00500748 -0.01199175  0.01414542  0.00935963 -0.01628931
  0.00061638  0.01089738 -0.0158249   0.00877481 -0.01475571  0.00210259
 -0.00694068  0.00595904  0.00052384 -0.00398993]
[ 0.0140467   0.01873365 -0.00512602  0.01461911  0.01484744 -0.01031093
 -0.00656216  0.0114773  -0.00741305 -0.00538133  0.01339451 -0.00942163
  0.01270241 -0.00914107 -0.00859797  0.00260328]
[ 0.00241321 -0.01359588 -0.0160368   0.02358505  0.00245177  0.00804703
  0.00932008 -0.00583987 -0.0035522  -0.02308778  0.01499111  0.00556379
 -0.0249802   0.02086126  0.00050835 -0.0110449 ]
[ 0.00036813  0.01603979 -0.02516643 -0.02206365  0.00844205  0.01070287
  0.00806319 -0.01950272  0.03374133 -0.01738415 -0.02236616 -0.01244225
  0.02400048 -0.00900308 -0.00229989 -0.0061124 ]
[-0.00302726 -0.0051784  -0.01108786 -0.00972841  0.00219123 -0.00033231
  0.02193354  0.01054007  0.00887416 -0.00840059 -0.00366886  0.00441953
 -0.02314599  0.01632074 -0.01092013 -0.00090484]
[-0.01435608  0.02250708  0.00571197  0.00888262 -0.00162983  0.01070113
  0.00304112 -0.00608848  0.03907268 -0.01175484 -0.00251028  0.00817444
  0.01579463 -0.01263194 -0.00618899 -0.00011526]
[-0.01327441  0.00578899 -0.02189253 -0.00862217 -0.0091341   0.00351527
  0.01830954  0.00973281  0.00423779 -0.00668401 -0.00097615  0.01574491
  0.01320678 -0.01567378  0.00480943 -0.00147212]
[ 0.0114718  -0.09543502  0.01117728  0.01080057 -0.08364208  0.02595147
  0.02609615  0.0156105  -0.03492767  0.01445141 -0.00339594  0.01236917
 -0.00981187  0.00661029  0.00953228  0.00388161]
[-0.00997011  0.01198757 -0.01116496  0.005322   -0.00483406 -0.0076589
 -0.00444551  0.00584707  0.01746653 -0.02254538  0.01145229 -0.00497622
 -0.00252624 -0.00434217 -0.01497253 -0.01718389]
[ 0.00758894 -0.00259826 -0.00531348 -0.00187109  0.00537905  0.01367073
  0.01840528 -0.01536476  0.00349254 -0.00758535 -0.0211407  -0.00985617
  0.01372044 -0.00772099  0.01659184  0.00321642]
[ 0.00465794  0.00831421 -0.00973322  0.00530099  0.00445956  0.02188315
  0.01555198 -0.0053258   0.00255342 -0.01201565 -0.01603616  0.01408397
 -0.01474536 -0.00799551  0.00779013  0.00051186]
[-0.01661745  0.01206203 -0.00348167  0.00407998  0.02182373 -0.01708878
  0.00219411 -0.0066805   0.00392536 -0.00907098 -0.00779456  0.01020846
 -0.00894218  0.00696773 -0.01282605 -0.01299346]
[ 0.00882633  0.00217358  0.00322931 -0.01170749  0.01257196  0.02014579
 -0.00486325 -0.02310195  0.00496718  0.0084239  -0.01758743  0.00084799
 -0.02307496  0.00111963 -0.00061542  0.00234536]
[ 0.02962578 -0.13891873  0.00309979  0.05199519 -0.09436291  0.06435916
  0.04912113  0.00245358 -0.11516676  0.00203577  0.03014701  0.05159107
 -0.01462285  0.04545405  0.04707817  0.00339985]
[-0.00411777 -0.00060245 -0.02076214  0.0171038  -0.00278044 -0.01134171
 -0.00052815  0.01124512  0.01913396 -0.00725318 -0.01538736  0.01239252
 -0.01419407 -0.00078028  0.00215409 -0.00909306]
[ 0.00639099 -0.02399123  0.0239683   0.02651941 -0.00777763 -0.00490743
  0.02685337 -0.00569032 -0.02421601 -0.0138752  -0.00535079  0.01652576
 -0.00077525  0.02628838 -0.00396495  0.00412942]
[-0.01018831  0.0049331  -0.02440787 -0.01693869 -0.00329375 -0.00055686
  0.00276784  0.01250766  0.01074863 -0.01814953  0.00321373  0.01078003
  0.00125095 -0.01372009 -0.00502128 -0.01910336]
[-0.00580085 -0.01616004  0.01126634 -0.00677271 -0.01093092  0.00379609
  0.01473021  0.01061227 -0.0307128  -0.0209878  -0.01196949 -0.00395273
  0.00534227  0.00909196  0.00144056  0.01458149]
[-0.00888944  0.00358187 -0.0068902  -0.00471419  0.01818885 -0.00667266
  0.01807849  0.00342359 -0.00494515 -0.00778434  0.00895299 -0.00037462
 -0.0206546   0.00747169 -0.00540358  0.00743065]
[ 2.3273882e-03 -4.2561656e-03 -1.2276422e-02  9.8720342e-03
 -1.3408211e-02  1.8366924e-03  6.9233538e-05 -1.5585853e-02
 -8.4053716e-03 -3.8231683e-03 -1.3654067e-02 -1.5384056e-02
 -5.1655686e-03  1.7210325e-02 -1.0758152e-02 -1.6666790e-02]
[ 0.01010344  0.01543163 -0.00187693 -0.01213198  0.01001315 -0.00934899
  0.02143427 -0.01858231  0.00658498 -0.00161273  0.00499933 -0.01200841
 -0.01569038 -0.01418378  0.00596645  0.00936498]
[-8.32628357e-05  2.73085218e-02  1.78222246e-02  1.07685495e-02
 -8.97598639e-03  5.13202650e-03  8.77237506e-03 -2.18648755e-04
 -2.03914754e-02 -7.03000836e-03  1.88707747e-02  8.17548577e-03
 -1.17799528e-02  8.84396769e-03  2.10535824e-02  7.42715690e-03]
[-0.01920843  0.01206892  0.00052045 -0.01721835  0.01690504  0.00648714
  0.0069682  -0.00403576 -0.00508912  0.00766849 -0.01185659  0.00992659
 -0.01199047 -0.00143509  0.00427343 -0.01484054]
[ 0.01653835  0.00486273 -0.00906256 -0.00745094  0.01921084  0.00243215
 -0.00945563  0.02098234  0.02216903  0.00565602  0.01636465 -0.00942704
 -0.02417589  0.00172616  0.00931729  0.01234492]
[-0.00433702 -0.01638534  0.0089948   0.00084922  0.00985395 -0.000543
 -0.00729867 -0.0011673  -0.01770105 -0.0108326  -0.00168145 -0.01249603
 -0.00060102  0.003637   -0.01699493  0.00632318]
[ 0.00993129 -0.01688125 -0.00443466  0.01848237 -0.00782963  0.01011257
  0.00350289  0.00939154 -0.02814453  0.00655295 -0.01829567 -0.00446374
 -0.0041929   0.02335883  0.02233809  0.01111783]
[-0.0055536  -0.0035644  -0.0053847   0.02456175 -0.02222674  0.01109338
  0.01341111 -0.00400832 -0.03167516 -0.00445081  0.01818801  0.02455536
 -0.02049928  0.00049575 -0.00050762  0.00752892]
[-0.00656831  0.01623304  0.01003867 -0.01589599  0.00701229  0.00476767
  0.00135131 -0.01666239 -0.00310653 -0.0128755   0.00153243  0.01632951
 -0.00281737 -0.00099706  0.00577859 -0.00658499]
[ 0.01075654  0.00061968 -0.01708644 -0.00385227 -0.01319323  0.01568739
 -0.00632076 -0.01306626  0.00234547 -0.01583582 -0.01465654 -0.00046933
 -0.01413284  0.02027027  0.01528246  0.01413713]
[ 0.03219261 -0.04021907  0.01343712  0.03476148 -0.00798643  0.01325058
  0.01212517  0.01344386 -0.10028932 -0.00682101  0.00485808  0.025475
 -0.02400659  0.01948006  0.03328651  0.02442168]
[-0.00157159  0.00254668 -0.01987705  0.00135092 -0.00042453 -0.00219944
  0.01060967 -0.01524416  0.0031491  -0.0039956  -0.00913896 -0.01021577
  0.0014825  -0.01087467 -0.01600091 -0.02128187]
[ 0.01514361 -0.00609252  0.0178006   0.01833351 -0.0104897  -0.00918093
  0.01265934  0.0059722  -0.01052316  0.00950446  0.01561223 -0.01301704
 -0.0038447   0.01692754  0.00483004 -0.01014036]
[-0.00285116 -0.00889162 -0.00689436 -0.01712671 -0.00925342  0.01009617
 -0.00772424 -0.01934504 -0.01657669 -0.01633732  0.00960663 -0.00649434
  0.00481021  0.00097606  0.0063317   0.00880838]
[-0.00464086  0.00644124 -0.01462944  0.00139447 -0.00341924  0.01199046
  0.01031468  0.00768548 -0.00025901 -0.01447929  0.01047718  0.01374921
 -0.0089078  -0.00994252 -0.01097273 -0.00929418]
[ 0.01833138 -0.01363694 -0.01105339 -0.00663234 -0.00449818 -0.00914348
  0.00405224 -0.01793613 -0.02651217 -0.0197336  -0.00522451  0.01929185
 -0.003511    0.02422591  0.01446146  0.00033877]
[ 0.00038046 -0.00531866 -0.00756559  0.01096088 -0.00499417  0.01218891
 -0.00513181 -0.01366963 -0.01378789 -0.02214424 -0.01722603  0.00596215
 -0.0124365  -0.00865287  0.01574825  0.0020534 ]
[-0.01129656  0.00402418 -0.01989224 -0.00679725  0.01009135  0.01751132
  0.00872674  0.01004929 -0.01057099 -0.00086621 -0.02107805 -0.00394849
 -0.00820943 -0.01068581 -0.01029041  0.01496512]
[-0.0128374   0.04972175 -0.0115284  -0.02714635  0.0416848   0.00589404
 -0.01957947  0.02320456  0.09435605  0.01001684  0.01687151 -0.0186073
  0.01053532  0.00637051 -0.00644384 -0.00681567]
[-0.01509078  0.00865456  0.01160494  0.00634001 -0.00344325 -0.01692557
  0.00196895  0.00357211 -0.00897196 -0.01857186 -0.01298348  0.00799837
 -0.01656726  0.0133035  -0.01049796  0.01156237]
[ 0.00118505  0.03639103  0.02168796  0.01540945  0.007524    0.00615586
 -0.01326008 -0.00969323  0.02303166 -0.01130064 -0.00131703  0.01607429
 -0.0108364  -0.00213775 -0.01266851 -0.0076753 ]
[ 0.00533882  0.00722968 -0.00911723  0.00631518  0.01230409  0.00654661
  0.00849278 -0.0077666  -0.00099729 -0.01220596 -0.01623782  0.01601196
  0.01268068  0.00571152 -0.00773293 -0.00847816]
[-0.01918048 -0.00238525  0.00533719 -0.00563576 -0.02153185 -0.00123367
  0.00388185 -0.00467783  0.01490692  0.00463892  0.00850921 -0.00185862
  0.0140206   0.01112305 -0.01265325  0.01205818]
[ 0.00552895  0.00026088 -0.0028772  -0.00250779  0.01054384  0.02233256
  0.00620436 -0.02082505 -0.01530927  0.00502423  0.0014915   0.02388539
  0.00409542  0.02440625  0.01029535  0.00346369]
[-0.01179332 -0.0221464  -0.00665975  0.01286897 -0.01362728  0.00996543
 -0.01335626 -0.00016813 -0.00439343 -0.02209178 -0.00055212  0.00070935
  0.00860507 -0.00464749 -0.0175193   0.00913427]
[-0.01018106 -0.0195554  -0.00349646  0.00515026 -0.01110723  0.01527259
 -0.01020993 -0.01441991 -0.01629294 -0.01576109 -0.01414907 -0.0050661
  0.0017191  -0.01184654  0.01990868  0.00941262]
[-0.01306947  0.06411258 -0.00557661 -0.027922    0.03329252 -0.008862
 -0.02573958  0.02354881  0.06981251  0.0055746   0.00897414 -0.01626714
  0.00966186 -0.01865646 -0.002692   -0.00115251]
[-0.01814671 -0.01205579 -0.01299969 -0.00226136 -0.01074801 -0.00849397
 -0.011209   -0.01309033  0.00421049 -0.02244673 -0.01508655  0.01331972
 -0.00940788 -0.00133061  0.00382235 -0.01005887]
[ 0.00750804  0.0147519   0.01581371  0.00761444 -0.00420627 -0.01034126
  0.00603504  0.01615798 -0.00381179 -0.00180784  0.01033675 -0.01245013
 -0.01361911 -0.00682401 -0.01382839  0.00138701]
[-0.00391604  0.01673824  0.00250592  0.00897966 -0.01268897  0.00907505
  0.00902421 -0.01721336 -0.00975477 -0.00147691 -0.00942598  0.00449937
 -0.01364483  0.01623122  0.00645311 -0.00803746]
[-0.01850669  0.01159191  0.00987317 -0.00880981  0.00798689 -0.00198086
  0.01254278 -0.00085875 -0.01179053 -0.02047196 -0.0227307  -0.01247158
 -0.01029842 -0.01031099 -0.00242107  0.00177104]
[-0.01119335 -0.01832023 -0.00156497  0.00975845  0.01558159  0.02138025
  0.01175492 -0.02169523  0.00694362  0.01232638  0.01076433  0.02327105
 -0.00614456  0.01333149  0.00648385  0.00922129]
[ 0.00711447  0.00468386  0.00561961 -0.00880984 -0.00590104  0.01252671
  0.00972316 -0.00185067 -0.01108178 -0.00218298  0.00253337  0.01198172
  0.00887186 -0.01047849  0.01322386 -0.01760836]
[-0.01601134 -0.02186386  0.01036846 -0.00871793 -0.01316387  0.00890765
  0.01963632  0.00046087 -0.01654016  0.0015302  -0.00671214 -0.00860071
 -0.00893626  0.02284995  0.00753209  0.00906215]
[ 0.00396796  0.04852022  0.02193154  0.00645612  0.02634769  0.00123847
  0.00604163  0.01572608  0.08074482  0.01722218  0.01948169 -0.00109902
  0.00262313  0.00913279 -0.01575743 -0.00611266]
[-1.5344909e-02 -1.5703238e-03  2.7453986e-03  8.4324582e-03
  1.7840368e-05 -1.5047084e-02  2.7972332e-03 -1.6137853e-02
 -1.2916602e-02 -1.7636615e-03 -1.4820125e-02  1.0925753e-03
  1.3579687e-02  1.5591588e-02 -6.2825186e-03 -1.5947437e-02]
[-0.01241008  0.00336393  0.02442657  0.00102533  0.01996698  0.01907077
  0.0035108  -0.01190124 -0.00591724 -0.01091628  0.01147578  0.00102729
  0.00729911 -0.01268608  0.01535283  0.0006002 ]
[-0.01846642 -0.01438478 -0.01228768  0.01625549 -0.00759867 -0.01682493
  0.01344694  0.00376545 -0.01128815 -0.01915559 -0.00669097 -0.00217174
 -0.00775079  0.00515659  0.01714826 -0.01112654]
[ 0.00806805  0.01187147  0.00368841  0.00299694  0.00246321  0.0187042
 -0.01331371 -0.00950258  0.01194914 -0.00218644 -0.01096539  0.01804489
 -0.01015614  0.01354429  0.01458212  0.00546992]
[-0.00894245 -0.02018235 -0.00827442  0.00535155 -0.00206124  0.00116779
  0.02361201  0.00832635 -0.01948706 -0.01165398  0.01059469  0.00927824
  0.0056754  -0.005186    0.00974135  0.00325552]
[-0.00142412 -0.00772862  0.00883505  0.01479589  0.00961726 -0.00656842
 -0.00447552  0.01184424  0.01267943 -0.01910734  0.01123253  0.01044433
  0.01081839 -0.00596075 -0.01077861 -0.01655451]
[-0.00888277 -0.00121479  0.00819637  0.02026413 -0.00785297  0.00415744
  0.00411598 -0.00614996 -0.01596168 -0.00472012 -0.00462393  0.01758358
 -0.02022249  0.00586649  0.02325885 -0.01905496]
[ 0.00411123 -0.02010074  0.0252746   0.02402039 -0.00429791  0.02853468
  0.01805269 -0.01417028 -0.01830509  0.0141153   0.01713656  0.00412583
 -0.01772585  0.00093292  0.03098237  0.02638554]
[-0.00765002 -0.00975978 -0.00740218 -0.01123844 -0.00857364 -0.00804482
 -0.00544697  0.00141009 -0.0075891   0.00674224 -0.02063159 -0.01129997
  0.00329017  0.01479748  0.00105725 -0.00693569]
[ 0.01548816 -0.00279912  0.00748639 -0.00680608  0.0100935  -0.00514429
  0.01946055  0.00239976  0.00060901  0.0023464   0.02156408  0.01561348
 -0.01297097 -0.00991746  0.00766095 -0.0015501 ]
[-1.31289605e-02  1.53659917e-02 -2.06734072e-02  5.82242757e-03
 -2.06650421e-03 -9.12433490e-03  1.68247952e-03 -1.95063520e-04
 -9.76888277e-03 -2.10075844e-02 -2.06619389e-02  1.63735356e-02
 -1.10917371e-02  9.12038330e-03  1.32545317e-03  7.46779333e-05]
[-0.00052149  0.0030167  -0.01037952 -0.0113936   0.01300727  0.00035411
  0.00082171 -0.00280844  0.00553183  0.00833013  0.0095445  -0.0028062
 -0.0078366   0.00054679  0.00337408 -0.01473427]
[-0.00210613  0.00359381  0.0013059   0.01370507 -0.00574518 -0.00891253
 -0.00909833 -0.00702811  0.00491799 -0.01098138  0.00814648 -0.00542303
 -0.00872423  0.00938881  0.00319798  0.01701557]
[-0.01200947  0.01589278 -0.01462822  0.00763337  0.00695674  0.01472704
  0.00728494 -0.02267496  0.01656     0.00694077 -0.01514349 -0.00201617
 -0.01582178 -0.0160161   0.01403944 -0.02210019]
[ 0.01745228 -0.01165429 -0.01621074  0.01457213 -0.00312888  0.00752056
  0.01719221 -0.01700805  0.00377605 -0.01991289  0.0113814   0.00078997
 -0.02249042 -0.00013622  0.01603341  0.0020396 ]
[-0.00926611  0.03851541  0.02201612  0.00320006  0.01719354  0.01105566
 -0.00273461 -0.00556475  0.00710432 -0.00495931  0.00271956  0.00101522
  0.00409506  0.0206203   0.00768194  0.01017569]
[-0.01169307 -0.00161791 -0.01974892 -0.00529235 -0.00256848  0.01510852
 -0.00123164 -0.02152826 -0.01496057 -0.00685964 -0.00172805  0.01896204
 -0.01783827  0.00807171 -0.0122999   0.01237745]
[ 0.01034122  0.01187002  0.00449583 -0.0143747   0.01669829  0.00989742
 -0.00943623  0.01913787  0.01172729  0.00123182  0.00928173 -0.01043292
 -0.02248285 -0.00521159  0.01471765  0.01307324]
[ 0.01662739  0.01367246 -0.00210567 -0.01451015 -0.01046452  0.01296293
 -0.01037526  0.00681327  0.01238794  0.00840489 -0.02209493  0.01512408
  0.01682985 -0.01365816  0.01367501  0.0119618 ]
[-0.02268196  0.02732176  0.00376086 -0.01546288  0.00676805 -0.00311273
  0.00013854  0.00053271  0.01583759 -0.00843669  0.00776196 -0.00256332
  0.0094793   0.00676386 -0.01398384  0.00522284]
[-0.01149936 -0.00585795  0.01570503  0.00859776  0.00345171  0.0222246
 -0.00321495 -0.00643701 -0.02437063  0.00154001 -0.01390228  0.02312869
  0.00451844  0.00457755 -0.00407955 -0.00288095]
[-0.01679018 -0.00059161 -0.01213066  0.01123786 -0.01423779  0.02060347
 -0.00182168 -0.01320403  0.00811612  0.00551401 -0.00344513  0.00449306
  0.00436471  0.0076102  -0.01162822 -0.00940031]
[-0.00800488 -0.00720128  0.00611453  0.00800743 -0.02300796 -0.01156525
  0.01628475  0.00543948  0.00541114  0.00909851 -0.01937332  0.00083639
 -0.01368195 -0.00079825  0.00253754 -0.00714315]
[ 0.01395691  0.0065328   0.01994575  0.01258524 -0.01024586  0.00387278
  0.01283736 -0.02466169 -0.02687448 -0.00682657  0.02708775  0.0271659
 -0.02404973  0.01468626  0.00445384 -0.00122901]
[ 0.0042976  -0.00987897 -0.01792863  0.0016602  -0.00289309 -0.01485439
 -0.00787707 -0.00604884  0.00180094  0.00083574 -0.00016852  0.00596417
  0.01298272  0.01486661  0.00151772 -0.01507178]
[-1.1905420e-02 -1.5521346e-02  2.6536845e-03 -4.4158762e-03
  1.3296858e-02  6.8675220e-04  4.1518020e-03  9.1107315e-05
  8.4005045e-03  7.9600010e-03 -9.2772534e-03 -6.1714451e-04
  9.5945550e-03  2.8623210e-03 -1.6195785e-02  1.7226186e-03]
[ 0.01097442 -0.01173489  0.00376365 -0.01064604 -0.01192413 -0.00767293
  0.00797856  0.00233126  0.00085519 -0.01428658 -0.01897565  0.00354207
  0.00529678  0.00318696 -0.01125112 -0.00923018]
[-5.4726950e-03  8.6758817e-03 -4.0141437e-03  1.3100631e-02
  6.2871906e-03  1.3900151e-02  1.9615844e-02 -1.0388000e-02
  7.7830264e-03 -2.0101815e-02 -1.8990008e-02  2.9789296e-03
  1.2626552e-02  1.8005950e-02 -3.6192504e-03  9.6492608e-05]
[-0.0005939  -0.00417395  0.01426234 -0.01136793  0.01460287  0.01434468
  0.00944116  0.0070983   0.00625007 -0.00020232 -0.01428887  0.01636826
 -0.02156149  0.00156736 -0.0061696   0.00024471]
[ 0.01631154 -0.00682404 -0.01249273  0.01057388  0.01048472  0.00688231
  0.01489429 -0.01630365 -0.02288803 -0.01536911 -0.01565776 -0.00555099
  0.01272036  0.0098891   0.01931056  0.00270965]
[-0.00127571  0.01126848  0.00964288  0.00754473 -0.0123412   0.01897981
  0.00783372 -0.00486009  0.00772375  0.00133368  0.00104971  0.01044131
 -0.00570575 -0.00384599 -0.00769997  0.00984255]
[-0.01004498 -0.01563746  0.0085215   0.01397552 -0.01411227  0.00555848
 -0.00028919 -0.02282554 -0.0078638  -0.01605329  0.02001043  0.01926679
 -0.02775154  0.00852917  0.02901623  0.02794295]
[-0.0193604  -0.00818569 -0.02215715  0.01378774  0.01023051  0.00733778
  0.01264236 -0.00808406 -0.0006747  -0.0105718  -0.00285203  0.01284047
 -0.00462145  0.00791166 -0.00818318 -0.0099259 ]
[-0.00137207  0.00656605  0.01876544 -0.00957306  0.00176763  0.01618843
 -0.0162358  -0.00954706  0.00263557  0.02039122  0.01558216  0.00320497
 -0.00941954  0.00010886  0.01157838 -0.00484494]
[-0.01836809 -0.0156268  -0.0030788  -0.0040882   0.00347382 -0.00383504
  0.01183948  0.00760745 -0.01843659 -0.02282921 -0.00533728  0.00472366
  0.01761648 -0.00357014 -0.00232248 -0.00010858]
[-2.0668209e-02 -6.8797073e-03 -1.3267040e-02  1.8024283e-02
  1.1949015e-02  1.7438976e-02 -1.3123797e-02  8.7454626e-03
 -1.6077414e-02 -2.2001622e-02 -2.1860491e-02  4.4198809e-05
 -3.8914024e-03  9.6543478e-03  4.8689554e-03 -8.1709810e-03]
[-0.0119147  -0.02153877 -0.01506251 -0.0097203  -0.00489684 -0.00922816
  0.00402959 -0.02160844 -0.0269149  -0.01332511  0.01605998  0.00506295
  0.01020777 -0.00065003  0.00314719  0.00188329]
[ 3.92500020e-04 -1.13595488e-05 -1.97361503e-02  2.08870154e-02
  1.47302272e-02 -1.20835204e-03  2.13315012e-03 -4.98039695e-03
 -1.53097324e-02 -7.51741044e-03 -3.69522395e-03  1.26311965e-02
 -1.78893022e-02 -7.88320135e-03 -1.10784378e-02 -8.84266105e-03]
[-0.01371333 -0.00923762 -0.00991074  0.01774932  0.00587322  0.0054273
  0.00176517 -0.00828602  0.00314015  0.00603473 -0.00410379  0.01456088
 -0.01331513  0.01847414  0.01968382 -0.00533975]
[ 0.00622613 -0.01975873  0.00441448  0.01700559 -0.01968215  0.0001066
  0.02041133  0.00144816  0.00066453 -0.01259611  0.01924427  0.01124004
 -0.02308016  0.02276217  0.01627821 -0.00604295]
[-0.01610812 -0.00144873  0.00335759  0.00665405 -0.01470647 -0.00193288
  0.01516362  0.00640781  0.00922843  0.00493287 -0.01861404  0.01011525
  0.01500532  0.017573    0.0057101  -0.01309405]
[-0.00533993  0.01440367  0.0045676  -0.00326775  0.00283038 -0.01544255
  0.01413564  0.01508899  0.00629984  0.01747411 -0.00523992  0.01830179
 -0.01762134 -0.01574182  0.01101348  0.01586001]
[-0.00296758  0.009881   -0.01827091  0.00457028 -0.0029679   0.01415969
  0.01924839  0.00012426  0.00457944 -0.01638502  0.00204174 -0.01246825
  0.00872098 -0.00734424  0.00302983 -0.00617021]
[-0.01978603 -0.01140424  0.00196273  0.00334986  0.01164063  0.00366851
 -0.01274869 -0.00483229 -0.00872661 -0.00483609  0.00596439 -0.00191574
  0.00097445 -0.00501759 -0.01660736 -0.00727429]
[ 0.0102589  -0.00738075  0.00323121  0.02377234  0.00481062  0.02224288
  0.01602592 -0.00498641 -0.01704699 -0.01246103 -0.01249834 -0.01135064
 -0.0221274   0.02038782  0.0226954  -0.00253506]
[-3.5383445e-03 -1.0824127e-02  1.9214489e-03 -8.9832740e-03
 -1.9057415e-02 -4.6050455e-03  5.2978471e-03  1.7565750e-03
  2.5680240e-03 -4.4646291e-03  8.3984369e-03  1.4001014e-02
  2.1056023e-03  3.1184647e-03  4.2628959e-05 -1.1136110e-02]
[ 0.00014945  0.01467613 -0.01980549 -0.0037879   0.01834135 -0.00139807
 -0.00702041 -0.01970362 -0.00792891 -0.01867671  0.00517842  0.02048262
 -0.00517447 -0.00262526  0.0158669  -0.01231187]
[-0.01988877  0.10236358 -0.01186777 -0.01215962  0.05008585 -0.0055897
