layers 4
layer 0 Convolution2D
3 3 1 8 same
[-0.29595003 -0.24161723  0.05047908  0.17950456  0.2736033  -0.2486563
  0.13339199  0.14205843]
[ 0.16505975  0.2683217  -0.21436575  0.04268762 -0.02884261  0.11019586
 -0.01484749  0.21287395]
[-0.21702412 -0.04053847 -0.23576179 -0.25858888 -0.22156152  0.04992575
  0.2499855  -0.07249021]
[ 0.03913823 -0.10930336  0.11073995  0.1435664  -0.26586673 -0.07710245
 -0.21722189 -0.11744447]
[-0.01328632 -0.18084086 -0.155489   -0.03235038  0.22661571  0.35784352
  0.19651206  0.24041684]
[ 0.16737491  0.29885355 -0.0527782   0.02826324 -0.19359076  0.26624447
 -0.1069916  -0.0987731 ]
[-1.7497370e-01 -1.9721504e-01 -1.6702186e-01 -8.3181745e-05
  4.1664075e-02 -1.2859245e-01  7.3586670e-03 -2.1590512e-01]
[ 0.20657125 -0.25484565  0.2539179  -0.07264968  0.13447155 -0.37903434
  0.13274802 -0.00138504]
[ 0.23300192  0.05935196  0.03933892  0.25369287 -0.27678797 -0.3624145
  0.17911816  0.22394255]
[-0.01110529  0.00692605  0.00281207 -0.01487267  0.00931378  0.04186898
 -0.0161568  -0.01552738]
layer 1 MaxPooling2D
2 2
layer 2 Flatten
layer 3 Dense
18432 2
[-0.0051704   0.00140321]
[-0.0178884  0.0241463]
[-0.01366601  0.0386974 ]
[-0.02517612  0.02876092]
[-0.02513768  0.00719315]
[-0.00078144  0.01539213]
[0.00851802 0.01829479]
[0.00753562 0.0105729 ]
[0.00311263 0.00297723]
[-0.01261945  0.02707899]
[ 0.00497874 -0.01288781]
[-0.00148899  0.01411557]
[-0.01420598  0.00885134]
[-0.03816262  0.02818749]
[-0.00320427  0.00416575]
[-0.01598589 -0.00082733]
[-0.01887933  0.00854598]
[-0.01274401 -0.01176716]
[ 0.01272192 -0.02766184]
[-0.00563052 -0.00773297]
[ 0.00234952 -0.00955652]
[-0.02513934  0.03436431]
[-0.000778    0.00219272]
[-0.02328999  0.00387447]
[-0.0031079   0.00132141]
[ 0.00497585 -0.00671489]
[-0.00032735  0.03069054]
[-0.00595378  0.01797119]
[-0.03042354  0.01355783]
[ 0.02265811 -0.01151175]
[-0.00182863 -0.00083261]
[-0.02770435  0.0076118 ]
[-0.00826804  0.00521108]
[0.01205515 0.01965079]
[-0.02213242  0.01531636]
[-0.00264875 -0.01124252]
[-0.01937085  0.01010895]
[-0.00117627  0.02229535]
[-0.00581759  0.01166207]
[-0.02004114 -0.00639119]
[-0.00474057 -0.00085203]
[-0.00768009  0.01007948]
[-0.02536728  0.02924077]
[-0.0062685  -0.00924117]
[-0.00924816  0.02199605]
[-0.03141251  0.03631082]
[-0.00861636 -0.00428533]
[-0.0018185   0.00497844]
[0.00863794 0.00915715]
[-0.00364341 -0.00708639]
[-0.02529031  0.00965903]
[0.00866275 0.00370306]
[-0.00402162  0.01457168]
[-0.01875056  0.00846804]
[-0.01935488  0.01211657]
[-0.0004287   0.02150111]
[-0.01056806  0.00557107]
[-0.02336425  0.0169546 ]
[ 0.00584842 -0.03316148]
[ 0.00934651 -0.01484104]
[-0.01092657  0.03345807]
[-0.07434325  0.06287619]
[-0.00147428  0.02447719]
[ 0.01884414 -0.00596098]
[0.01005776 0.00094063]
[-0.0297376   0.02171463]
[-0.00495891 -0.01353178]
[ 0.00709069 -0.0026577 ]
[-0.01584632  0.02483319]
[-0.06881957  0.05937728]
[-0.015625   0.0047652]
[ 0.00255844 -0.00882354]
[-0.00788407  0.01554136]
[-0.00610147 -0.00270728]
[ 0.04694651 -0.04173262]
[ 0.00103504 -0.0053032 ]
[-0.01460893 -0.00489282]
[-0.08049756  0.07302859]
[-0.00379078  0.02137702]
[-0.01690868 -0.00531072]
[-0.00811297 -0.00645802]
[-0.00023356  0.01871059]
[ 0.02360073 -0.0244732 ]
[-0.00704403  0.01260715]
[-0.02540967  0.02845771]
[-0.09136443  0.09843392]
[-0.00436602  0.01428616]
[-0.01001681 -0.01165791]
[0.00783627 0.0147125 ]
[-0.01558916 -0.00031116]
[ 0.01260326 -0.01765885]
[-0.00041521  0.00780993]
[-0.00850543  0.03789837]
[-0.08471395  0.08902053]
[-0.01484382  0.01402375]
[ 0.0051142  -0.00577002]
[0.00349442 0.00543331]
[-0.01634543  0.03103601]
[ 0.0622101  -0.06476216]
[-0.01102537  0.0171289 ]
[-0.02596472  0.03137664]
[-0.06985536  0.06548998]
[-0.0148031   0.01670835]
[-0.01154571  0.00016545]
[0.00324093 0.00851763]
[-0.01774161  0.03136934]
[ 0.07252686 -0.04140645]
[0.01236638 0.00025945]
[-0.01699757  0.03045451]
[-0.11619361  0.10807217]
[-0.00347189  0.00311888]
[0.00655098 0.00491526]
[0.0029887  0.00841255]
[-0.02623732  0.01374206]
[ 0.01809354 -0.02386386]
[-0.00783201 -0.00908995]
[-0.02225499  0.02962965]
[-0.11436663  0.11601586]
[-0.02197942  0.01699548]
[ 0.01008161 -0.00301984]
[0.00511384 0.01649924]
[-0.03458964  0.00608843]
[-0.00684288 -0.01177516]
[-0.00622389 -0.00919298]
[-0.07376912  0.04421562]
[-0.09464744  0.12174707]
[-0.02039152  0.0064379 ]
[-0.01680909  0.01791705]
[-0.00234007 -0.02201404]
[-0.01085965 -0.00660953]
[ 0.02214322 -0.00785251]
[0.01235066 0.00600943]
[-0.03720803  0.03612072]
[-0.01913155  0.03136263]
[-0.01795686  0.00437672]
[ 0.00114787 -0.00886638]
[ 0.00444827 -0.01357942]
[-0.00099774 -0.0008477 ]
[ 0.02691045 -0.01874476]
[ 0.02238628 -0.00673102]
[-0.01487737 -0.00472359]
[-0.08872176  0.08315931]
[0.0005407 0.0238902]
[0.00278758 0.00427345]
[-0.0024812  -0.00681795]
[-0.00935371 -0.00209123]
[ 0.0158439  -0.04979618]
[ 0.00154883 -0.00374076]
[-0.02147408  0.02200758]
[-0.14301322  0.14378305]
[-0.00818702  0.0097342 ]
[-0.012453   0.0018396]
[-0.00255742 -0.01853705]
[-0.01324739  0.01289201]
[ 0.0389917 -0.0093271]
[ 0.01394404 -0.0074169 ]
[-0.01131528  0.01102051]
[-0.21354994  0.22473297]
[-0.01744783  0.01007045]
[0.00507404 0.01453086]
[0.01492713 0.00297854]
[-3.9804876e-03  5.4362299e-05]
[ 0.0026948  -0.00477493]
[ 0.00768447 -0.00343014]
[ 0.02383697 -0.01883804]
[0.00717557 0.0133798 ]
[0.00850918 0.01718807]
[0.01639595 0.01523835]
[-0.01944748 -0.00046959]
[-0.01009355 -0.00284662]
[-0.00481454  0.01009995]
[0.00058871 0.00744177]
[ 0.00236968 -0.00971223]
[-0.00228123 -0.00396125]
[-0.01545144  0.00379858]
[0.00991158 0.00396062]
[-0.00862383  0.02016404]
[ 0.01902726 -0.0017371 ]
[ 0.01911324 -0.00151166]
[0.00492946 0.01928782]
[0.0185867  0.01300376]
[-0.00456672  0.00139295]
[-0.00532228  0.01151885]
[ 0.0019804  -0.01309599]
[0.00231821 0.02300994]
[ 0.00158467 -0.00057481]
[-0.00288286  0.01480772]
[-0.00515637 -0.00605674]
[ 0.01234569 -0.00151178]
[0.00392105 0.01643914]
[-0.00089942 -0.00421168]
[-0.00071235 -0.00099035]
[-0.01419464  0.01140347]
[-0.0001007  -0.00786114]
[ 0.01300448 -0.01491726]
[-0.01889332  0.00362346]
[-0.00395879  0.00603841]
[-0.00666195  0.00765982]
[0.00387831 0.01917613]
[-0.0097437   0.00935666]
[ 0.00609423 -0.010057  ]
[0.01191723 0.00280883]
[ 0.00792624 -0.02405677]
[-0.00427445  0.02091666]
[-0.00295687 -0.02863949]
[-0.02634614  0.00864833]
[-0.01742814  0.00538148]
[-0.01347857 -0.00250844]
[-0.01981856 -0.00298402]
[-0.00259229 -0.02331418]
[-0.00023309 -0.0083934 ]
[-0.02113297  0.01692986]
[ 0.02930695 -0.01425717]
[-0.00670975  0.00931905]
[0.00995492 0.00236148]
[-0.01059256  0.02106079]
[0.00718162 0.01101299]
[-0.00981565  0.02067515]
[-0.01903856 -0.00805275]
[-0.0197095  -0.00672684]
[ 0.00266022 -0.0205482 ]
[-0.00227818  0.01262083]
[0.01048825 0.02093454]
[0.00489968 0.02591335]
[-0.01372507  0.00048956]
[ 0.00117086 -0.02769865]
[-0.0377621   0.03205168]
[0.00040645 0.01555492]
[-0.03773175  0.01817317]
[-0.0155855   0.02213671]
[ 0.01060744 -0.00376792]
[-0.00646862  0.00085724]
[0.00576687 0.01374007]
[-0.00627251  0.00875702]
[-0.01470865  0.02820619]
[-0.01346696 -0.00631994]
[-0.00063735  0.02312861]
[0.00755435 0.02096067]
[-0.00551751  0.0089382 ]
[ 0.00271197 -0.0036979 ]
[-0.00500043  0.00981289]
[ 0.0025411  -0.00757531]
[-0.01103606  0.01132201]
[ 0.00394987 -0.00588038]
[-0.00113365 -0.01179362]
[0.00268447 0.02953068]
[0.00172187 0.00423393]
[-0.00041913  0.01777014]
[-0.00925664  0.00117486]
[ 0.01365784 -0.02555897]
[-0.00860996  0.00289919]
[0.0042323  0.01690766]
[-0.01924211 -0.00228291]
[-0.02533108  0.03179945]
[0.00716769 0.00965519]
[0.00058319 0.01178928]
[-0.01603894  0.00199784]
[0.00995656 0.00407111]
[-0.03591803  0.0146782 ]
[0.01219254 0.00943131]
[-0.02808535  0.0042358 ]
[-0.01705278  0.02924775]
[-0.01076643  0.00704476]
[-0.00281765  0.00546993]
[0.00501395 0.00379548]
[ 0.00093832 -0.00146556]
[-0.02415054  0.006516  ]
[ 0.00331602 -0.01218209]
[-0.0040381  -0.00823786]
[-0.00512543  0.01046776]
[-0.00752674 -0.00106478]
[-0.01603478  0.00139446]
[-0.01843128  0.01904876]
[ 0.0038456  -0.02534045]
[-0.02186026  0.01276574]
[0.0015599  0.01840329]
[-0.02007805 -0.00382115]
[-0.00537296  0.00619865]
[ 0.00775055 -0.01052119]
[-0.01814467  0.01855274]
[0.01009787 0.00032267]
[ 0.00536177 -0.01705639]
[-0.00144711  0.00117876]
[-0.01728058 -0.0141268 ]
[-0.01701612  0.00203334]
[-0.04974279  0.02646363]
[ 0.00728162 -0.00372732]
[-0.00065076  0.00131927]
[-0.00820359 -0.00219258]
[-0.00019598 -0.00929278]
[ 0.06394949 -0.04698404]
[ 0.01082978 -0.00639175]
[-0.01703365  0.0252437 ]
[ 0.00515736 -0.0177356 ]
[-0.01312323  0.00576996]
[-0.0097619   0.00041582]
[0.00195606 0.00845157]
[-0.00739183  0.01583085]
[-0.01252489 -0.01533622]
[-0.01570858  0.01153109]
[-0.01491587  0.01229179]
[-0.25081837  0.264454  ]
[-0.02492742  0.01336542]
[0.00156548 0.0010382 ]
[-0.01283762  0.01609963]
[0.00376767 0.00472875]
[-0.02152317  0.01203093]
[-0.00188635  0.00340305]
[-0.03027255  0.01454334]
[-0.03456859  0.03842139]
[-0.01349788 -0.00782793]
[-0.00935606 -0.01519308]
[-0.00318517  0.01123881]
[-0.02168102  0.01766793]
[-0.01554771  0.01735131]
[-0.01637672 -0.01022533]
[-0.02662187  0.01928341]
[-0.04654686  0.02919304]
[-0.01031899 -0.00557189]
[-0.01155125 -0.0029881 ]
[-0.01375668 -0.00147198]
[-0.00953152 -0.00130406]
[-0.01000483 -0.01341224]
[0.01639114 0.01674826]
[-0.01743446  0.03933808]
[-0.05867612  0.03635984]
[-0.01157905  0.01721386]
[-0.00336262  0.02170776]
[-4.1694373e-05 -9.4128689e-03]
[-0.01634659  0.00440313]
[-0.02074163 -0.00391537]
[ 0.00564987 -0.01130824]
[-0.03516266  0.03106269]
[-0.05435517  0.0619206 ]
[-0.00301111 -0.01127473]
[ 2.3915262e-03 -9.9525314e-05]
[0.00114365 0.00282029]
[-0.00341266  0.01952148]
[ 0.00831446 -0.00088824]
[ 0.01320322 -0.01413373]
[-0.04451041  0.02352044]
[-0.06466532  0.05074089]
[-0.02462158  0.01420683]
[-0.00041738  0.01098143]
[ 0.00426845 -0.00759327]
[-0.0216718   0.01855872]
[-0.02519623  0.0099747 ]
[-0.00114914  0.0134975 ]
[-0.05650361  0.06348887]
[-0.04654113  0.03709656]
[-0.01294103  0.00169774]
[-0.00588565  0.00015952]
[ 0.00883837 -0.01988445]
[-0.02125641  0.01318723]
[ 0.01061007 -0.00062789]
[-0.01272901 -0.00752258]
[-0.04435839  0.05151843]
[-0.02195279  0.01716805]
[ 0.00010711 -0.00838876]
[-0.01027898 -0.00242076]
[0.02027945 0.00789248]
[-0.00386218  0.00447899]
[-0.001799    0.02008278]
[ 0.0040562  -0.01009714]
[0.00770588 0.01296509]
[-0.00408342  0.00069991]
[ 0.00810385 -0.02181585]
[0.00720842 0.01237241]
[0.01510465 0.01241507]
[ 0.00381368 -0.00197592]
[0.01339922 0.00211984]
[ 0.00177944 -0.00413921]
[0.00571555 0.02112552]
[-0.00317773  0.01703576]
[ 0.0124778  -0.01279499]
[ 0.00614231 -0.00627104]
[-4.9709324e-05  1.7655659e-02]
[-0.0060879   0.01496062]
[0.01888373 0.00440911]
[ 0.00279865 -0.00447893]
[ 0.06311605 -0.05383693]
[-0.02802125  0.02006849]
[-0.00989613  0.01485594]
[ 0.01606794 -0.0051912 ]
[0.00317395 0.01473492]
[0.0224758  0.00510425]
[ 0.02247784 -0.00287569]
[-0.00733989 -0.01017118]
[ 0.02188366 -0.00124659]
[-0.01212186  0.01437315]
[-0.00256693 -0.00506577]
[-0.01709282  0.00977066]
[-0.03840671  0.01861548]
[-0.00228805 -0.02235434]
[ 0.00992243 -0.00352726]
[ 0.00877698 -0.00618727]
[0.01932524 0.0004783 ]
[-0.01687714  0.02334821]
[-0.00546322  0.00845906]
[-0.01926535 -0.007455  ]
[-0.02042656  0.02470518]
[0.00133699 0.00135912]
[0.01726888 0.00071228]
[-0.00637441  0.00600456]
[0.02438946 0.00038172]
[-0.02887901  0.016899  ]
[-0.01049896  0.0026192 ]
[0.01189405 0.01226493]
[-0.00499237  0.00597115]
[ 0.00753619 -0.01286404]
[ 0.00166071 -0.00987905]
[ 0.00627181 -0.00541052]
[-0.00932077 -0.00311367]
[-0.04088864  0.01787948]
[ 0.01177639 -0.00943185]
[0.01312345 0.00485976]
[-0.02023825 -0.0148253 ]
[ 0.00958629 -0.00417988]
[-4.5194891e-05 -1.9030036e-02]
[-0.0145137  -0.01500385]
[ 0.00318902 -0.02233387]
[-0.004443    0.00393385]
[-0.01431609  0.00445266]
[0.01022457 0.01680206]
[ 0.00099053 -0.01709167]
[0.01709839 0.00632802]
[ 0.00837899 -0.01370966]
[-0.00585557 -0.00975307]
[-0.00395434 -0.01655584]
[-0.00382423  0.0213583 ]
[ 0.01022238 -0.01142686]
[-0.01158057 -0.01155403]
[-0.00651162 -0.01779823]
[ 0.01687684 -0.00485325]
[ 0.02010102 -0.02151173]
[0.00330002 0.01450815]
[ 0.0380213  -0.01409503]
[-0.04265109  0.01979305]
[0.00647151 0.02022563]
[0.01707343 0.00576143]
[ 0.01378439 -0.00290194]
[0.01402848 0.01216544]
[0.01206397 0.00702348]
[ 0.00567339 -0.00421654]
[ 0.02678439 -0.04067766]
[-0.02227596  0.01801669]
[0.00338679 0.00204451]
[-0.01325516 -0.02006001]
[-0.01910861  0.01177017]
[ 0.01627029 -0.01582517]
[ 0.00859165 -0.00844924]
[0.01163194 0.01114602]
[ 0.05749834 -0.06166175]
[-0.01044408  0.01477031]
[0.0074097  0.01621608]
[0.00348527 0.01204434]
[-0.00032146  0.00809605]
[ 0.00088452 -0.02132538]
[ 0.00149034 -0.0205884 ]
[ 0.01119255 -0.00573854]
[ 0.02029498 -0.02073138]
[ 0.01361874 -0.01725562]
[0.00010502 0.00222562]
[0.01470729 0.00954539]
[-0.0080633   0.01761576]
[ 0.01701744 -0.02255179]
[-0.0041237  -0.00656463]
[0.01462331 0.01172997]
[-0.0075792   0.00976476]
[ 0.01498315 -0.01274076]
[-0.01752874 -0.00349837]
[ 0.00156971 -0.01171136]
[-0.01570646  0.01550323]
[-0.00448933 -0.00920512]
[ 0.00688586 -0.02101835]
[-0.00647262 -0.00057772]
[ 0.01185682 -0.00664504]
[-0.01377466  0.00464188]
[-0.00408084  0.0119256 ]
[-0.01659125  0.00283544]
[-0.00464664 -0.0033908 ]
[0.00014202 0.00046194]
[ 0.01669558 -0.01715897]
[ 0.01214736 -0.0042994 ]
[ 0.00830377 -0.01975302]
[ 0.0221973  -0.02233548]
[0.01126393 0.01813835]
[-0.01106646  0.01050111]
[0.01733297 0.01728349]
[0.02277973 0.00459785]
[ 0.01585292 -0.00929509]
[-0.00796609  0.0094471 ]
[ 0.00096547 -0.00659823]
[-0.00035809  0.00113959]
[-0.00120778  0.00012848]
[-0.00331985 -0.00211788]
[ 0.00136097 -0.0077618 ]
[ 0.01957886 -0.01766606]
[ 0.01584487 -0.01236636]
[-0.01523206  0.00138197]
[ 0.02759545 -0.01989893]
[ 0.00680835 -0.0187581 ]
[0.00829092 0.0166508 ]
[-0.01119521 -0.01623488]
[-0.00608183  0.00264775]
[ 0.00998257 -0.01647619]
[-0.01000442  0.01263661]
[-0.01289777 -0.00883188]
[-0.01637573  0.02441811]
[-0.00570253  0.01902543]
[-0.00116274 -0.00755806]
[-0.01573637  0.02357602]
[-0.01061013 -0.00359619]
[-0.0254276   0.01679439]
[ 0.02657158 -0.0176299 ]
[ 0.00362478 -0.01376469]
[-0.00418231 -0.00267695]
[-0.07687863  0.06823231]
[0.01203172 0.01021686]
[-0.01939416  0.00280822]
[ 0.01406586 -0.00169201]
[-0.02095306  0.00669222]
[ 0.01067282 -0.02064173]
[-0.01331403 -0.01465721]
[ 0.00971936 -0.02044805]
[-0.15552595  0.17363575]
[0.00789519 0.01630487]
[-0.01154363 -0.00045375]
[ 0.00760351 -0.01304918]
[-0.01878141  0.00880129]
[ 0.02396868 -0.00703006]
[-0.01478951  0.012947  ]
[-0.01005284  0.02353877]
[-0.04989816  0.04760348]
[ 0.00809304 -0.00938028]
[-0.00011418 -0.00264123]
[0.01469015 0.00984396]
[-0.01661996 -0.00505833]
[0.00322792 0.01301401]
[-0.01258501 -0.01264141]
[-0.0025082  -0.00625298]
[-0.03214722  0.03121747]
[-0.00123476  0.00293043]
[0.00146274 0.00647912]
[-2.0040385e-02  2.8366028e-05]
[-0.03035712  0.02682318]
[ 4.7242327e-05 -1.5477980e-02]
[ 0.00476199 -0.00923788]
[-0.00126668 -0.00409909]
[-0.03375417  0.04596774]
[-0.00924928  0.02288379]
[-0.01551198  0.01525883]
[-0.00329282  0.01174349]
[ 0.00250641 -0.00780046]
[-0.00104033 -0.01491609]
[0.00735873 0.00609804]
[-0.00874671  0.00382439]
[-0.03395144  0.0533949 ]
[-0.0093457   0.02197948]
[-0.01967997 -0.00465836]
[ 0.01372646 -0.00335675]
[-0.02047838  0.02990376]
[-0.01178048  0.00114452]
[0.01366498 0.00893681]
[-0.02937039  0.02951446]
[-0.04123268  0.0577242 ]
[ 0.00360602 -0.00630608]
[-0.00763256  0.00059678]
[ 0.00843557 -0.01149992]
[-0.02063346  0.01747901]
[-0.02503182  0.02878176]
[-0.01335532  0.01626018]
[0.00180094 0.00164692]
[-0.08805744  0.1028595 ]
[-0.00709602 -0.00717161]
[-0.01213691 -0.00588114]
[ 0.00524076 -0.02851102]
[ 0.01283616 -0.00599546]
[-0.00494488 -0.00435371]
[-0.00586544 -0.00128075]
[-0.0284337   0.01176438]
[-0.00662076  0.00790761]
[ 0.01328578 -0.00471278]
[-0.00148596  0.00072799]
[0.00667767 0.01633677]
[ 0.0054242 -0.0121714]
[ 0.00811649 -0.01177413]
[ 0.01234825 -0.00541105]
[0.00851217 0.01633035]
[ 0.02864897 -0.01375111]
[0.00235519 0.00379807]
[-0.01152607  0.00648142]
[-0.07200718  0.05247657]
[0.011126   0.00270832]
[-0.00339387 -0.01955494]
[-0.01887604 -0.00463997]
[ 0.0365472  -0.03989233]
[-0.01144722  0.03154095]
[0.0023563  0.01573888]
[ 0.01732051 -0.00767231]
[ 0.00667983 -0.01720566]
[ 0.00844115 -0.01312132]
[ 0.02594098 -0.01011632]
[-0.01080598  0.0130036 ]
[ 0.03341762 -0.00469796]
[-0.02860199  0.04642356]
[-0.00507441  0.01219723]
[ 0.01372851 -0.00199203]
[-0.00885402 -0.00659907]
[ 0.02013063 -0.01225329]
[-0.00739697  0.00694869]
[0.00076185 0.00613408]
[ 0.00076561 -0.00115825]
[-0.03151417  0.04364119]
[-0.00726015  0.01391928]
[-0.00474097 -0.00609766]
[-0.04256883  0.01529633]
[-0.00167208 -0.01578448]
[ 0.00234012 -0.027753  ]
[ 0.01037266 -0.006351  ]
[ 0.01337703 -0.01803227]
[-0.01911349  0.01561037]
[-0.00643965  0.00337325]
[ 0.00929132 -0.0064495 ]
[-0.03100467  0.03040827]
[ 0.0217317  -0.01551575]
[-0.01365845 -0.01521917]
[-0.00160138 -0.00568824]
[-0.00435711  0.01387752]
[-0.02155184  0.03129602]
[0.00770625 0.01984585]
[-0.00527979  0.01494419]
[-0.02225506 -0.00826963]
[0.00775145 0.00646158]
[-0.00170233 -0.00023105]
[ 0.01444378 -0.00756248]
[ 0.00787519 -0.02443822]
[-0.02817901  0.02117671]
[ 0.01224878 -0.01064872]
[ 0.00860005 -0.01839392]
[0.00640971 0.00688319]
[-0.00441094 -0.0020871 ]
[ 0.00232812 -0.02698666]
[-0.01612778 -0.00468863]
[0.00343673 0.00664263]
[-0.0296995  -0.00197876]
[-0.0199229  -0.00511747]
[ 0.01058987 -0.0186308 ]
[0.01211107 0.00096783]
[-0.00922477 -0.01812899]
[ 0.01657765 -0.02167047]
[0.01113843 0.01382007]
[ 0.00340176 -0.03078025]
[-0.03349152  0.01511965]
[-0.01550929  0.0125962 ]
[ 0.01282095 -0.01331553]
[ 0.00388114 -0.00823725]
[ 0.00043369 -0.01701597]
[ 0.03030388 -0.03251432]
[0.01344706 0.0188298 ]
[ 0.03744613 -0.00975146]
[-0.04129774  0.0331033 ]
[ 0.01107166 -0.01245453]
[-0.00465168  0.0005272 ]
[-0.00228819  0.00879764]
[ 0.00480911 -0.02563084]
[ 0.02059153 -0.01056293]
[0.01251583 0.00324234]
[ 0.03136225 -0.04130925]
[-0.01988994  0.03002149]
[0.00109366 0.00598783]
[ 0.01810569 -0.01151667]
[0.00721368 0.00252841]
[ 0.0139739  -0.02149901]
[0.0183663  0.00620737]
[-0.01119472  0.01506403]
[-0.00190051 -0.00116118]
[-0.00994233 -0.01201964]
[-0.01176692 -0.00021061]
[0.0118891  0.00966294]
[-0.02146875  0.01388214]
[ 0.01886149 -0.01153948]
[-0.01236729 -0.00098214]
[ 0.00173435 -0.01514284]
[-0.00869677  0.01734324]
[0.00050068 0.00601949]
[ 0.01635537 -0.01325809]
[ 0.01329707 -0.01445707]
[-0.00585716 -0.0147342 ]
[0.00499917 0.00172898]
[ 0.00782893 -0.0252542 ]
[0.00939286 0.01564165]
[-0.00445932 -0.01414522]
[ 0.00134798 -0.00921089]
[0.00110922 0.00339904]
[0.01639144 0.0171467 ]
[ 0.00034718 -0.01693274]
[0.01843595 0.00187691]
[ 0.02785986 -0.02846869]
[-0.00517097 -0.0146076 ]
[0.01439896 0.008548  ]
[ 0.01375518 -0.02264979]
[-0.00634704 -0.00858178]
[0.01630277 0.00105615]
[-0.01702516 -0.01374572]
[ 0.00525239 -0.01985549]
[ 0.01384289 -0.00831574]
[-0.00639981  0.01310922]
[ 0.02443247 -0.01386508]
[ 0.00261526 -0.02164717]
[ 0.01477529 -0.00493122]
[-0.01250664 -0.00124899]
[ 0.01597558 -0.01009255]
[ 0.01567234 -0.00253735]
[0.02047134 0.00646457]
[-0.01990833  0.00426741]
[-0.00428692 -0.01441311]
[ 0.00995317 -0.03506015]
[0.0147089  0.00690579]
[-0.01613609  0.01051737]
[-0.01433031  0.0099729 ]
[ 0.01166509 -0.00838795]
[ 0.00295659 -0.0304929 ]
[0.01144999 0.00224274]
[-0.00879981 -0.0135882 ]
[ 0.02636819 -0.01324903]
[-0.01269551 -0.00288893]
[-0.01298253 -0.00312564]
[0.00763704 0.01035975]
[ 0.01074035 -0.01926923]
[-0.00686367  0.00609828]
[ 0.00288106 -0.01090348]
[0.0037942  0.00858017]
[-0.0024302  -0.00274823]
[ 0.0132498  -0.01708567]
[-0.00527336  0.00603714]
[-0.00105796 -0.00171798]
[0.00106275 0.00251319]
[ 0.00746424 -0.00207993]
[-0.00694117 -0.01782859]
[-0.00740684  0.01469634]
[ 0.02363595 -0.01772121]
[-0.00506369 -0.00212127]
[ 0.01154574 -0.01332011]
[-0.00273364  0.00157058]
[ 0.00780608 -0.01269439]
[-0.01255558  0.00293298]
[ 0.00369363 -0.01159863]
[-0.01144076 -0.00149573]
[-0.05223934  0.03378866]
[-0.00528307  0.01148986]
[ 0.00523056 -0.01175509]
[-0.01047288  0.00851793]
[0.00712463 0.01330852]
[0.00478671 0.00919481]
[ 0.01202275 -0.00256855]
[-0.00603049  0.02258009]
[-0.05058483  0.04713367]
[0.00705347 0.0096266 ]
[-0.011181    0.00052741]
[-0.0102365   0.00713261]
[0.00399599 0.01819074]
[0.01444727 0.00118487]
[-0.00802122  0.00275419]
[0.01012857 0.00827708]
[-0.03437193  0.02895796]
[-0.00793006 -0.01148478]
[ 0.01035861 -0.00259538]
[0.01051561 0.00373957]
[0.00278426 0.00233104]
[ 0.00313866 -0.01696856]
[0.00357787 0.01147298]
[ 0.00189021 -0.00387043]
[-0.05223881  0.05555946]
[0.0067989  0.00704341]
[-0.01963537  0.00443627]
[ 0.00279245 -0.00576344]
[-0.00995868 -0.01551629]
[-0.01003943  0.00812268]
[0.01264809 0.00444471]
[ 0.02027743 -0.01814521]
[-0.02044156  0.04651121]
[-0.00448761 -0.00157885]
[0.00965241 0.01618868]
[0.01060224 0.00380358]
[0.01688344 0.01361087]
[ 0.00249191 -0.01382373]
[ 0.00177008 -0.00608118]
[0.00118804 0.01596346]
[-0.02600298  0.0404513 ]
[-0.00301039 -0.01107418]
[-0.01574433 -0.0049338 ]
[0.01567469 0.00072671]
[-0.01205229  0.01427279]
[ 0.01868565 -0.00509057]
[0.00557694 0.00647212]
[-0.01153564  0.01762742]
[-0.04991701  0.04983587]
[-0.00330399  0.00776897]
[ 0.01916027 -0.00331224]
[ 0.01080437 -0.0128419 ]
[-0.00900172  0.00052057]
[-0.01679763 -0.00593084]
[0.00597165 0.0103257 ]
[-0.00533922 -0.00115767]
[-0.05854573  0.04114294]
[0.00166002 0.01731511]
[-0.00053592  0.00134614]
[-0.00163165  0.00460082]
[-0.02751019  0.0061932 ]
[-0.01764814 -0.00019429]
[-0.00861314  0.02123677]
[ 0.06263422 -0.0598329 ]
[-0.02150644  0.03251083]
[0.00899346 0.01054926]
[-0.01789953 -0.00060857]
[-0.01396736 -0.00621388]
[-0.00118727 -0.01497353]
[-0.01982123  0.0026495 ]
[ 0.00803764 -0.00817833]
[-0.00942971  0.00907621]
[-0.0384901   0.03279818]
[ 0.00430339 -0.0072796 ]
[0.01157475 0.00029081]
[0.00287208 0.00656082]
[0.00128404 0.01359076]
[0.00826023 0.02307658]
[-0.00981699 -0.0192258 ]
[-0.02422296  0.0017319 ]
[-0.03396489  0.03448433]
[0.009639   0.02188423]
[0.00943315 0.01030469]
[-0.0108638  -0.01172697]
[0.01025727 0.00072804]
[-0.01650212  0.00515311]
[-0.01052625 -0.00470186]
[ 0.03140606 -0.0255293 ]
[-0.0060562   0.00284628]
[-0.02259973  0.01932541]
[-0.01475656 -0.00697729]
[-0.02656569 -0.00840008]
[ 0.0115215  -0.01682726]
[-0.00828021  0.00121847]
[0.01306884 0.01939612]
[-0.00877948 -0.00248201]
[-0.01352931  0.01989077]
[-0.01042882  0.02293672]
[ 0.00415141 -0.01523724]
[-0.00356381  0.01301668]
[-0.01390503  0.00698502]
[-0.01242477  0.01796162]
[ 0.01050933 -0.01092626]
[-0.00838388  0.01464118]
[-0.04463398  0.03860456]
[-0.00832539  0.01724991]
[ 0.0136422  -0.01772485]
[-0.04244377  0.04707004]
[-0.01185181  0.00229571]
[-0.05368643  0.04948962]
[ 0.01579353 -0.00738966]
[-0.00264434 -0.01027495]
[-0.01743728 -0.00569308]
[0.00167702 0.02090872]
[-0.00265763 -0.00725139]
[-0.0129896  -0.00075929]
[ 0.04282128 -0.03279198]
[ 0.01299435 -0.02329488]
[-0.00127584 -0.0082485 ]
[ 0.02342644 -0.04485238]
[-0.04106048  0.01482794]
[ 0.00061557 -0.01094654]
[-0.01097823 -0.00424895]
[ 0.00944091 -0.0048605 ]
[ 0.00320217 -0.01320077]
[ 0.00965441 -0.01578246]
[-0.00572815  0.00085672]
[ 0.00720004 -0.00874373]
[-0.02010649  0.02750765]
[0.00130363 0.00930944]
[ 0.02470384 -0.00342892]
[-0.0173559  -0.00224565]
[ 0.01310284 -0.00971068]
[ 0.03622516 -0.02008541]
[-0.00784825  0.01393077]
[ 0.0226312 -0.0448334]
[-0.01057731  0.0162265 ]
[0.0033962 0.0191852]
[ 0.00204137 -0.00632635]
[-0.00871213  0.01207412]
[ 0.02327658 -0.01596271]
[-0.01552651 -0.01747659]
[-0.0201372   0.01507172]
[ 0.01563751 -0.00953302]
[0.00189399 0.00767823]
[-0.00836623 -0.01138735]
[-0.00225058  0.01513104]
[ 0.00853884 -0.00205194]
[-0.00136169 -0.01530344]
[0.00346833 0.00374245]
[-0.00497108  0.00394171]
[ 0.00926926 -0.01068692]
[ 0.01596329 -0.02333634]
[-0.01384221  0.00698911]
[ 0.00885704 -0.01284817]
[-0.01330519  0.01287345]
[ 0.03295356 -0.02278378]
[ 0.00928374 -0.00666689]
[-0.01231781  0.00923285]
[ 0.01533231 -0.02916281]
[0.01538756 0.00399664]
[-0.00785756 -0.00174693]
[0.01482993 0.00825267]
[-0.01035977  0.00617729]
[ 0.01477872 -0.00269729]
[0.02008083 0.00632965]
[ 0.00298907 -0.00554647]
[ 0.00265793 -0.02330715]
[ 0.00595283 -0.00013065]
[-0.00724546 -0.01481339]
[ 0.00556453 -0.0095719 ]
[ 0.0097383  -0.01212856]
[ 0.01583761 -0.01178941]
[-0.00083232 -0.00345443]
[-0.01524166  0.01534672]
[ 0.03038984 -0.0012298 ]
[ 0.00880995 -0.01017144]
[0.01017633 0.01765979]
[0.00186296 0.00532776]
[ 0.00113044 -0.00535947]
[-0.00795615 -0.00656422]
[ 0.011091   -0.01244726]
[0.01656705 0.01472366]
[ 0.01890386 -0.02507131]
[ 0.01308342 -0.01294508]
[-0.00246916  0.00406012]
[-0.00747964  0.01421178]
[0.00243732 0.01120919]
[ 0.02370768 -0.0141947 ]
[-0.00412171 -0.00156494]
[ 0.00298986 -0.00614563]
[ 4.2271139e-03 -8.2704144e-05]
[ 0.0291253  -0.00982106]
[0.01400472 0.00551934]
[-0.00778874 -0.00527172]
[0.00475357 0.00831559]
[-0.0135053  -0.01509279]
[ 0.00749952 -0.00682884]
[0.00535417 0.00775431]
[2.3130209e-03 9.1766531e-05]
[ 0.0501871  -0.05604064]
[0.01693247 0.00345705]
[-0.00527972  0.00665198]
[ 0.00042182 -0.01766207]
[0.01973205 0.0024393 ]
[0.00409997 0.00733682]
[ 0.01577636 -0.01088946]
[-0.00593069  0.01184183]
[ 0.00339242 -0.0186925 ]
[0.01680882 0.00478109]
[-0.01001533 -0.01404372]
[ 0.00984634 -0.01439393]
[-0.01788612  0.00017463]
[-0.01050995 -0.01765499]
[ 0.01128506 -0.00629461]
[-0.02850233  0.01597107]
[0.00656971 0.00118419]
[-0.00343631  0.00701829]
[ 0.01842522 -0.0105193 ]
[0.00117928 0.0042461 ]
[-0.00034952  0.01360509]
[ 0.00371338 -0.00820271]
[-0.01008704  0.00990228]
[-0.00103174  0.01333724]
[-0.02164363 -0.00452508]
[ 0.01872494 -0.00879721]
[ 0.00856737 -0.00059533]
[-0.00303639  0.00283166]
[-0.03352677  0.01451789]
[ 0.01488746 -0.01770743]
[-0.01473678 -0.00642248]
[ 0.00248561 -0.0021126 ]
[-0.08731315  0.07045971]
[-0.00548344  0.00493109]
[ 0.01145076 -0.00198434]
[0.00270935 0.0194477 ]
[5.3858184e-05 1.4652452e-03]
[ 0.0120755  -0.00054676]
[ 0.00585506 -0.01574673]
[ 0.01429372 -0.00694363]
[-0.05808691  0.03918324]
[ 0.0081745  -0.01762366]
[-0.01918014  0.01127152]
[ 0.01611087 -0.0091971 ]
[0.00364459 0.00529441]
[0.00443158 0.00602603]
[0.00346584 0.00358586]
[0.00368175 0.00426409]
[-0.04813803  0.04993572]
[0.00629618 0.0057715 ]
[ 0.0121721  -0.01047055]
[-0.01588429 -0.01483983]
[-0.01481034  0.02505267]
[-0.00421024 -0.00318203]
[-0.0143219  -0.00936812]
[-0.00932349 -0.00272182]
[-0.05670951  0.06159049]
[-0.00012809  0.00314872]
[ 0.0104648  -0.01698721]
[-0.00332493  0.0001194 ]
[0.00560918 0.01352409]
[-0.00052609  0.00400247]
[-0.00871486 -0.00614292]
[-0.0147176   0.00368032]
[-0.05460515  0.0546217 ]
[ 0.01417252 -0.00908849]
[0.00794071 0.00207716]
[0.01298248 0.00891219]
[-0.00171203  0.00058931]
[-0.00812623 -0.00711162]
[-0.00032598  0.00359724]
[-0.01351375  0.00850153]
[-0.03817246  0.04971679]
[-0.00899839  0.0160193 ]
[ 0.00282877 -0.00220906]
[-0.00801781 -0.01909197]
[-0.00805329  0.02061816]
[-0.00811891  0.01412899]
[ 0.00664248 -0.01178538]
[ 0.06201189 -0.0298867 ]
[-0.03978404  0.04704933]
[-0.00613122 -0.00602964]
[0.00198702 0.00898626]
[ 0.00569881 -0.00905901]
[-0.00271949 -0.00548743]
[-0.01925972  0.00572365]
[ 0.00175504 -0.00529507]
[ 0.00077289 -0.00929311]
[-0.03574116  0.02973525]
[0.00544914 0.00857646]
[-0.00220273 -0.0023367 ]
[0.00443856 0.00491376]
[0.00771963 0.00595933]
[-0.02061711  0.01433092]
[-0.00104951 -0.01784655]
[-0.01290371 -0.00327612]
[-0.02659542  0.02475531]
[-0.00643743  0.00949675]
[ 0.01622367 -0.01209745]
[-0.00900849  0.00169995]
[-0.00679038  0.00033464]
[-0.01920785  0.02052201]
[0.01580859 0.01120776]
[ 0.02669421 -0.02415249]
[-0.00417911  0.02306147]
[0.00188317 0.00051392]
[-0.0023965   0.01124196]
[-0.02716343  0.01796731]
[0.02186334 0.0052315 ]
[0.00679945 0.01794727]
[ 0.01198579 -0.01424911]
[0.01424062 0.00052336]
[-0.02460846  0.03872058]
[-0.00718253  0.01418098]
[-0.00480431  0.00179756]
[ 0.01505829 -0.01560208]
[0.00310693 0.00097307]
[-0.00274444  0.00670194]
[ 0.0042691  -0.01186137]
[-0.02134084  0.02176618]
[-0.05104691  0.02323716]
[-0.01972701 -0.00747505]
[ 0.00119342 -0.01820146]
[-0.01303053  0.0104473 ]
[ 0.00745798 -0.00775854]
[0.0003505  0.01532412]
[-0.01640018  0.00906894]
[-0.02022351 -0.00273984]
[-0.00762852  0.02016657]
[-0.02151068 -0.00233643]
[-0.00379308  0.00579268]
[-0.00581312  0.01020767]
[0.01757809 0.00267032]
[-0.01502198  0.0247409 ]
[-0.00504094  0.01536346]
[-0.0477703   0.04923426]
[ 0.04378271 -0.04843057]
[-0.01176378  0.0136881 ]
[ 0.01342074 -0.01998062]
[-0.04758738  0.03837819]
[-0.01055651  0.00452749]
[-0.03965637  0.01476171]
[ 0.00640766 -0.00958717]
[ 0.03767364 -0.03643245]
[ 0.04192853 -0.028955  ]
[-0.01255309 -0.00071753]
[-0.00313907  0.00414466]
[-0.0732851   0.06904467]
[0.00068889 0.00724364]
[-0.00090684  0.00180483]
[-0.00431569 -0.02642766]
[ 0.04683118 -0.03195726]
[ 0.04904847 -0.05170822]
[0.00041512 0.0177562 ]
[-0.01600419  0.01390919]
[-0.02344006  0.03109719]
[0.00010662 0.01148022]
[-0.00898666  0.00731306]
[-0.02655899  0.01009353]
[-0.03526937  0.01803023]
[-0.00104643  0.00976054]
[0.00816008 0.00928825]
[0.00202649 0.00210595]
[-0.01650782  0.02061304]
[ 0.02808592 -0.02525602]
[ 0.01218159 -0.00078272]
[0.00771656 0.01356028]
[-0.01233657 -0.00535325]
[-0.01418804  0.00598571]
[-0.01058591  0.01018725]
[ 0.00186596 -0.00674631]
[0.00828918 0.00168397]
[ 0.01924308 -0.00458539]
[0.01075322 0.00688986]
[-0.00266146  0.00119803]
[ 0.02749308 -0.0136554 ]
[0.01416273 0.00799322]
[-0.003898   0.0067154]
[-0.01058774 -0.00177425]
[0.00545766 0.01470331]
[0.02264067 0.00421789]
[0.02209924 0.00629823]
[-0.00968397  0.01649176]
[-0.00868669  0.00791283]
[0.0098291 0.0061607]
[-0.00391311  0.00797945]
[-0.00528781 -0.00360586]
[-0.01303214 -0.0134864 ]
[ 0.03619785 -0.04201569]
[-0.00122071  0.00882247]
[ 0.0056059  -0.00281236]
[ 0.0294674  -0.02619878]
[ 0.01977227 -0.01470846]
[-0.0037446   0.01109348]
[ 0.00074699 -0.01658906]
[-0.01763701  0.01979253]
[0.00893991 0.00480405]
[-0.00736828  0.00042671]
[ 0.00960171 -0.00772468]
[-0.00800898  0.01341652]
[-0.00749139  0.01992139]
[-0.00962612 -0.00207366]
[0.00700916 0.01675923]
[ 0.00785308 -0.00569404]
[0.00640422 0.00338643]
[-0.01633255 -0.0070562 ]
[ 0.00658535 -0.01117147]
[-0.01407781 -0.01346376]
[-0.00877112 -0.00528411]
[0.00067738 0.00376521]
[0.00994236 0.00320821]
[-0.01835696  0.00748387]
[ 0.00614863 -0.00506205]
[ 0.01983898 -0.00499755]
[ 0.01278432 -0.01749451]
[ 0.01457303 -0.01732711]
[-0.0082133  -0.01292437]
[0.0084938  0.01864142]
[0.01417121 0.0030388 ]
[0.00804819 0.00583936]
[0.00253325 0.00282448]
[0.00057879 0.00818405]
[-0.01738014  0.01842734]
[-0.00498381 -0.01609577]
[-0.0001502  -0.00268334]
[ 0.01267242 -0.00634853]
[0.01390974 0.01445832]
[0.00458889 0.01170197]
[ 0.0066834  -0.00547022]
[ 0.00920261 -0.00136628]
[0.01038213 0.00216891]
[0.0160911  0.00771922]
[ 0.03107273 -0.02680248]
[ 0.00656921 -0.00306824]
[ 0.00138116 -0.01171461]
[-0.0112108  -0.00558794]
[ 0.00399105 -0.01290615]
[ 0.00747895 -0.00686103]
[-0.01224361 -0.0222206 ]
[0.00734235 0.01087526]
[ 0.02875706 -0.04181685]
[-0.01702302 -0.00562191]
[-0.01228004 -0.01796772]
[0.00816668 0.00369406]
[-0.00096099 -0.01074129]
[ 0.02946255 -0.01739837]
[ 0.00628593 -0.01299636]
[-0.01495805  0.01759101]
[-0.02991966  0.01797674]
[-0.01148888 -0.01318735]
[-0.0117244  -0.00273458]
[ 0.00287498 -0.0043553 ]
[-0.0226665   0.01295553]
[ 0.00947244 -0.02326289]
[-0.01472384  0.01125113]
[0.01509645 0.00091863]
[-0.03676291  0.03957543]
[-0.01574413  0.01480181]
[ 0.00484853 -0.00117963]
[ 0.01757986 -0.01646331]
[ 6.96359348e-05 -1.48268305e-02]
[ 0.02594399 -0.02078446]
[0.00323979 0.00150455]
[ 0.04095192 -0.03560559]
[-0.09692058  0.08908856]
[0.0126234  0.00389116]
[-0.00808557  0.01177738]
[-0.00920551 -0.0100913 ]
[-0.01528709  0.00866631]
[0.01360024 0.01826389]
[-0.01644024  0.00123635]
[-0.02479357 -0.0073299 ]
[-0.0821884   0.05385482]
[-0.01206384 -0.00318679]
[0.01109528 0.01090792]
[0.00518579 0.00877296]
[-0.02617683  0.00637548]
[ 0.00216276 -0.00481816]
[0.00816924 0.01426304]
[0.01351327 0.01476498]
[-0.05057873  0.05762191]
[-0.01534258 -0.0003515 ]
[-0.01034609  0.00088366]
[-0.00942744  0.00542709]
[-0.02366445  0.01978469]
[-0.0046357  -0.00074558]
[-0.00862164 -0.00162665]
[0.00208066 0.00858311]
[-0.04602829  0.03935272]
[0.00374085 0.0097029 ]
[0.00422006 0.00275845]
[ 0.00277264 -0.01770561]
[-0.00902983  0.01101852]
[-0.01064126  0.00946486]
[-0.0108348 -0.0053737]
[ 0.0492932  -0.04612864]
[-0.03329824  0.06045663]
[ 0.00174061 -0.00973467]
[0.00801633 0.01506058]
[-0.02083839  0.0184537 ]
[ 0.01137244 -0.01240054]
[0.01294881 0.02083967]
[-0.00884324  0.0034701 ]
[ 0.00692669 -0.00214047]
[0.00909609 0.00288833]
[-0.01252969  0.01312671]
[0.01219645 0.00703344]
[-0.00268909  0.00655089]
[-0.00892852 -0.00256804]
[-0.01959183 -0.00272925]
[ 0.01571655 -0.00540733]
[-0.01369185 -0.00604993]
[-0.02142414  0.00628706]
[-0.01789927 -0.00816436]
[-0.00122895  0.00096548]
[-0.00870749 -0.01307877]
[ 0.00941837 -0.00355364]
[-0.01562198  0.00610493]
[-0.01277173  0.00012249]
[ 0.04072196 -0.01517626]
[-0.01921562  0.02006639]
[-0.01115731  0.01406445]
[0.00773869 0.00575963]
[-0.00412571  0.01826311]
[ 0.0181345  -0.01550665]
[-0.01784544  0.01086475]
[-0.0120753  -0.01290801]
[-0.01730615  0.01733606]
[-0.05356957  0.06600446]
[-0.01825932  0.00931829]
[-0.00637863 -0.00795043]
[ 0.00674498 -0.00518899]
[-0.01914051  0.01415958]
[ 0.00381614 -0.00333444]
[-0.00176508 -0.00619694]
[-0.00622154  0.01602341]
[-0.04461413  0.02208519]
[-0.00654725  0.01575648]
[ 0.00256201 -0.01714131]
[-0.02363521  0.0185656 ]
[-0.00668299  0.01205981]
[-0.01487576  0.01375256]
[0.00877959 0.00730526]
[-0.02379427  0.02372896]
[-0.00961751  0.03526548]
[-0.0039107  0.0202384]
[0.01201297 0.00346904]
[-0.01173587  0.01467005]
[-0.01321952  0.01194991]
[9.3488197e-05 1.7761113e-02]
[0.00106023 0.01251032]
[0.00505624 0.01266148]
[-0.00814755  0.00521601]
[ 0.01375524 -0.00860898]
[-0.00300981  0.00700834]
[-0.03347581  0.0389662 ]
[-0.0007775  -0.01277144]
[-0.0146702  0.0324572]
[ 0.00842582 -0.00635799]
[-0.00734773  0.01418884]
[ 0.09130424 -0.10425296]
[-0.01138342 -0.00945099]
[-0.01381189  0.01599325]
[-0.02444214  0.00011012]
[-0.00178603  0.00694095]
[-0.01330695  0.02432537]
[0.00738757 0.0079935 ]
[ 0.06000547 -0.0613048 ]
[ 0.10092341 -0.09614227]
[ 0.01527448 -0.0059989 ]
[0.00714638 0.01346152]
[-0.06789399  0.0670843 ]
[ 0.01239889 -0.01847066]
[ 0.00849056 -0.03938404]
[-0.00402184 -0.01105723]
[ 0.03600274 -0.03954653]
[-0.018852   -0.00959856]
[0.00886792 0.02513188]
[-0.00858996  0.02019794]
[-0.00070262  0.00239889]
[ 0.02317456 -0.01608399]
[0.00470644 0.00488227]
[-0.02276446  0.00666714]
[ 0.01246201 -0.0009604 ]
[0.01170429 0.00664542]
[-0.02596549  0.00792731]
[-0.01217352  0.01753982]
[-0.01063855  0.00707743]
[ 0.00025949 -0.01005128]
[-0.01485309 -0.00590934]
[-0.01625207 -0.01221735]
[ 0.04140375 -0.04442792]
[0.00365301 0.01243022]
[0.00209966 0.00894237]
[ 0.00974801 -0.00220057]
[-0.01546174  0.00313861]
[ 0.02702138 -0.00970653]
[ 0.01497288 -0.03265624]
[-0.01868132  0.01581636]
[0.00306843 0.00189418]
[-0.00902267  0.00172624]
[ 0.01316442 -0.00037579]
[0.00275674 0.00196182]
[-0.01460595  0.00047241]
[ 0.02407804 -0.03290388]
[-0.01675049 -0.01009778]
[0.01480874 0.00797199]
[ 0.04630701 -0.02693053]
[ 0.02260114 -0.02962338]
[-0.00836365 -0.01026311]
[-0.00300737  0.01428932]
[ 0.00669158 -0.00427519]
[ 0.01380812 -0.01467966]
[-0.00703543 -0.00558103]
[ 0.00044254 -0.00027722]
[-0.00094505  0.01280437]
[-0.01506093  0.01608404]
[-0.0173223   0.01223562]
[ 0.01008332 -0.01313671]
[0.0084535  0.02026435]
[-0.01279194 -0.01043986]
[0.00218515 0.00018934]
[ 0.01751235 -0.00995627]
[-0.013628    0.01616096]
[-0.01691095 -0.00251825]
[0.00716054 0.00594238]
[-0.00333356 -0.00093846]
[-0.00351488  0.01571276]
[-0.00091196 -0.0043264 ]
[ 0.01116516 -0.02135462]
[ 0.01174587 -0.00952806]
[0.02003891 0.00102437]
[-0.01610025  0.0088131 ]
[0.01189959 0.00746959]
[0.01554997 0.00118001]
[-0.0038001 -0.0152841]
[ 0.01452079 -0.01837639]
[ 0.03256807 -0.00842366]
[-0.00076502 -0.00011312]
[-0.00092928 -0.02229361]
[ 0.0236217  -0.01957129]
[-0.00735843  0.02333364]
[ 0.00463149 -0.01416559]
[-0.00091369  0.00822033]
[-0.00541097 -0.01045009]
[ 0.0036856  -0.01556163]
[-0.00821145  0.00573   ]
[ 0.0169295  -0.01195495]
[ 0.03006556 -0.03418275]
[0.00763184 0.00132014]
[-0.01048641  0.01637412]
[-0.01400686 -0.00947584]
[0.00056053 0.01138178]
[-0.00594834 -0.01630887]
[-0.00595395  0.01237866]
[0.01431547 0.01438753]
[-0.00153731 -0.02284571]
[-0.01642843 -0.00248956]
[-0.00247602  0.00928726]
[-0.00985999 -0.00298724]
[-0.01535689 -0.01836228]
[ 0.00920611 -0.00291949]
[0.00152376 0.01788857]
[ 0.01911764 -0.01023782]
[ 0.01452194 -0.01086071]
[-0.01892528  0.01069546]
[-0.00036566 -0.00281622]
[-0.0039522  -0.00531985]
[-0.00538956  0.00864751]
[-0.01083784 -0.00348998]
[0.00323234 0.02406636]
[0.01882646 0.00417662]
[ 0.0394613  -0.03736697]
[ 0.01708159 -0.01686593]
[ 0.00200383 -0.00307166]
[ 0.00529129 -0.00636344]
[ 0.02176685 -0.01128682]
[0.01771868 0.0054227 ]
[ 0.01462273 -0.00265777]
[ 0.00521004 -0.00165051]
[0.01306002 0.00371037]
[-0.0112741  -0.01340857]
[0.01020593 0.01221413]
[0.00246358 0.00180494]
[-0.01601877  0.0009665 ]
[ 0.01543846 -0.01651446]
[-0.01665354 -0.00269156]
[ 0.01077515 -0.01188436]
[ 0.00957854 -0.01428136]
[-0.01043035  0.00515981]
[ 0.00385497 -0.00566298]
[0.01559268 0.01523577]
[-0.00085223 -0.00827358]
[-0.00403365  0.00653663]
[-0.00084218  0.01537237]
[ 0.00038499 -0.00796226]
[-0.05916591  0.058544  ]
[ 0.01183603 -0.00116993]
[-0.01643343  0.01162479]
[ 0.01262505 -0.01301865]
[-0.020131    0.01680581]
[-0.00280267  0.00241319]
[-0.00182534 -0.01371332]
[-0.00805659  0.00437825]
[-0.02311082  0.02066437]
[-0.01309538  0.00638042]
[-0.01530765  0.01501957]
[0.0079309 0.0033907]
[-0.00955717 -0.00514976]
[ 0.00331305 -0.01397424]
[-0.00242573  0.01059574]
[-0.00879999  0.00208757]
[-0.04798238  0.03476307]
[ 0.01006684 -0.00217737]
[ 0.00718346 -0.0021377 ]
[0.0113762  0.01043818]
[-0.00953535 -0.00839258]
[0.01526133 0.00625998]
[-0.00153698 -0.01168016]
[ 0.03847539 -0.06530526]
[-0.0030874   0.00243095]
[0.00677127 0.01845812]
[-0.01450039  0.00045552]
[-0.00910074 -0.0068175 ]
[-0.00318699  0.00950569]
[0.01672942 0.0042917 ]
[-0.00652929  0.00697006]
[0.00664188 0.00241445]
[0.01500467 0.01346536]
[-0.00391373  0.00860465]
[ 0.00094986 -0.00126514]
[ 0.01017829 -0.00413434]
[0.01731578 0.00287158]
[-0.02899577  0.0242462 ]
[ 0.00048814 -0.00812443]
[ 0.01970078 -0.0106132 ]
[ 0.01057496 -0.00765017]
[-0.00694998 -0.00040508]
[-0.01632004  0.0122831 ]
[-0.01281167  0.00888553]
[ 0.006495   -0.02361956]
[-0.00574868  0.00113103]
[0.01730333 0.01207596]
[-0.00463444  0.00245338]
[-0.01170078  0.00575512]
[-0.0201251   0.00869056]
[ 0.01912998 -0.02140005]
[0.00145034 0.00311453]
[-0.00878062 -0.00955504]
[-0.0073211  -0.00428118]
[-0.00054015  0.01334412]
[-0.01520846  0.02195105]
[-0.00193199 -0.0042843 ]
[-0.01545338  0.00854838]
[ 0.02679592 -0.02240367]
[-0.02191548  0.03306117]
[-0.00781518  0.00756051]
[-0.02550612  0.01967837]
[0.01857474 0.01025596]
[-0.00018096  0.02998389]
[-0.05657347  0.03197249]
[-0.01332256  0.01098107]
[-0.00397095  0.00813907]
[-0.00939105  0.02026556]
[0.01190409 0.0134493 ]
[-0.01930569  0.01489159]
[0.00217004 0.00915846]
[0.00284419 0.00252761]
[-0.0234142   0.02465084]
[-0.01594389  0.02055403]
[ 0.0052689  -0.01385019]
[-0.03034242  0.02930826]
[ 0.00291595 -0.01793429]
[-0.00554627  0.00391379]
[0.01232426 0.00472783]
[-0.03348171  0.03380907]
[ 0.05814335 -0.05723785]
[ 0.00650174 -0.00446854]
[ 0.01231419 -0.01079857]
[0.00144683 0.00211757]
[-0.00049068 -0.00167418]
[-0.01431838  0.0117355 ]
[0.0246775  0.00905428]
[ 0.05101996 -0.0488412 ]
[ 0.1146268  -0.11309648]
[ 0.00966998 -0.00692625]
[0.0161537  0.01384597]
[-0.00048626 -0.01043623]
[-0.011347    0.00467679]
[ 0.04648264 -0.01420412]
[-0.00669043 -0.00655766]
[ 0.01034122 -0.01633974]
[ 0.02122514 -0.00155808]
[-0.00153603  0.01740512]
[0.00334769 0.01484761]
[-0.00364449  0.00298689]
[ 0.01473014 -0.04608987]
[ 0.02076144 -0.00536738]
[-0.00963954 -0.00680803]
[-0.00351388 -0.00613455]
[ 0.00763368 -0.01538429]
[-0.0034938   0.01708724]
[-0.00209095  0.00731575]
[-0.00304117  0.02761928]
[-0.00238874 -0.01646024]
[ 0.01199706 -0.02127346]
[ 0.01029353 -0.0101404 ]
[ 0.04663023 -0.05594507]
[ 0.02277517 -0.02074709]
[-0.00985238  0.01075525]
[-0.00558161 -0.01485796]
[ 0.01133421 -0.00943654]
[ 0.03341968 -0.01365562]
[-0.00167337 -0.0154511 ]
[0.0045018  0.00123769]
[0.00783681 0.01946963]
[ 0.00738651 -0.01949321]
[-0.01468132  0.00315644]
[ 0.01011831 -0.00043509]
[0.00541662 0.00887335]
[ 0.04143295 -0.04595416]
[0.00189456 0.00368472]
[ 0.01396316 -0.01653941]
[ 0.02097271 -0.00340466]
[ 0.02104351 -0.02397593]
[-0.00700006 -0.00503809]
[-0.013861    0.01495834]
[-0.01454188 -0.015235  ]
[0.00570727 0.00345152]
[-0.01081114  0.01570646]
[-0.00607467 -0.00592525]
[-0.0004049   0.01171739]
[-0.02128528  0.0173421 ]
[-0.01767391  0.00848885]
[ 0.01310061 -0.00953972]
[ 0.00794795 -0.00880101]
[ 0.00118026 -0.01761365]
[-0.02429226  0.00246256]
[0.00735503 0.01040998]
[-0.02070571 -0.00097384]
[0.00250149 0.01693934]
[ 0.00017925 -0.00938098]
[-0.00216244 -0.01353841]
[0.00126249 0.01252151]
[ 0.00428995 -0.01842058]
[ 0.0205711  -0.00375318]
[-0.00302879  0.01273318]
[ 0.01591167 -0.006761  ]
[-0.01571071 -0.01279391]
[0.00714887 0.00195614]
[-0.00632189  0.00834529]
[-0.00064736  0.01469867]
[ 0.02311039 -0.01467422]
[ 0.00886838 -0.01317015]
[0.01304709 0.00797798]
[-0.02327772 -0.00661628]
[0.00459028 0.01307064]
[ 0.00886507 -0.01474947]
[ 0.02298272 -0.01604079]
[0.01023045 0.01210114]
[-0.01045459  0.00207406]
[ 0.03239424 -0.03974742]
[ 0.01619195 -0.0169009 ]
[ 0.03033487 -0.00398304]
[0.00117999 0.01483004]
[-0.01482989 -0.00673522]
[ 0.02003617 -0.00367668]
[-0.00526883  0.0007417 ]
[-0.00774675  0.00781056]
[0.02012146 0.00084702]
[ 0.01222338 -0.01111017]
[-0.00624168  0.00265196]
[-0.00435258 -0.00894879]
[-0.00928617 -0.00910462]
[-0.02127239 -0.00868325]
[-0.01503595 -0.00032878]
[ 0.01608314 -0.02117578]
[ 0.01304271 -0.00513453]
[-0.01617511  0.00092078]
[ 0.00277658 -0.01352938]
[ 0.00514461 -0.00971144]
[-0.00401992  0.01226045]
[ 0.00282915 -0.00841204]
[0.01251899 0.01627908]
[-0.00794466 -0.02001346]
[ 0.0050675  -0.01375848]
[-0.01708395 -0.00563035]
[ 0.01959828 -0.01787083]
[ 0.02440048 -0.02091319]
[0.00576744 0.00734674]
[0.00311    0.01728076]
[0.01676956 0.00157261]
[ 0.00836469 -0.01005723]
[0.01179172 0.01212769]
[-0.00782324 -0.00252501]
[ 0.0063162  -0.01613594]
[ 0.02620077 -0.01091735]
[-0.01818971 -0.00249483]
[ 0.00845176 -0.00918143]
[-0.01062928  0.01105387]
[ 0.00214889 -0.01332383]
[-0.01372885  0.00099668]
[-0.0053328  -0.00122199]
[ 0.00437848 -0.01857407]
[ 0.06449057 -0.06487707]
[0.00969456 0.01334983]
[-0.00509015 -0.00809354]
[0.02346465 0.00172473]
[-0.00490649 -0.00900849]
[ 0.03820617 -0.04509994]
[-0.01884027  0.00201988]
[-0.01013031 -0.0076969 ]
[-0.01869018 -0.00381638]
[-0.01205735 -0.00314316]
[-0.00261136  0.00679224]
[-0.01609188 -0.01179676]
[-0.01496566 -0.00315325]
[-0.0113314  -0.00689542]
[-0.01065475 -0.0080394 ]
[ 0.0073434  -0.01823285]
[ 0.01885644 -0.00881945]
[0.01008962 0.00920471]
[-0.01196023 -0.00052373]
[-0.01110579 -0.00923806]
[0.00187917 0.0122242 ]
[ 0.02127415 -0.02479305]
[-0.0098828  -0.00948667]
[-0.00744031 -0.01052984]
[ 0.01240633 -0.00528036]
[-0.00937207  0.00632899]
[-0.00205726  0.01012677]
[0.01566604 0.01061929]
[ 0.01813615 -0.00779849]
[0.002583   0.00098178]
[0.0051912  0.00544063]
[-0.00443024 -0.00424182]
[-0.01560893  0.00391352]
[0.00963861 0.01417057]
[-0.01328366  0.01850512]
[0.00959114 0.00011711]
[-0.01730783  0.01731517]
[ 0.01462751 -0.00636505]
[-0.01167284  0.00814752]
[-0.02404048  0.01781637]
[-0.01990604  0.02638884]
[0.01607267 0.00361833]
[-0.01587961  0.01761973]
[-0.02081762  0.01144783]
[-0.00561674  0.02114054]
[-0.0032416   0.02075636]
[-0.00882317  0.00553807]
[ 0.00453495 -0.00552159]
[-0.00083778  0.02734902]
[-0.01805929  0.00377628]
[-0.01646629  0.02139184]
[0.0053758  0.00165505]
[-0.01727384 -0.00042625]
[ 0.00491553 -0.00919918]
[ 0.00619747 -0.00662209]
[0.00269929 0.01182589]
[-0.00754456  0.01068449]
[ 0.00817952 -0.01610739]
[ 0.00278064 -0.0131348 ]
[ 0.01931731 -0.01481148]
[-0.01999446  0.02401379]
[-0.01917672  0.01723397]
[-0.00624279 -0.00137126]
[-0.01506821  0.01299753]
[-0.04257749  0.05271081]
[ 0.00428864 -0.01582023]
[0.00945624 0.00571315]
[ 0.02885545 -0.02253189]
[-0.01423494  0.01226519]
[-0.0154915   0.00174587]
[-0.01704958 -0.01141434]
[0.00596923 0.00778895]
[-0.05698222  0.04166785]
[-0.02207962  0.01337925]
[0.00449518 0.00212175]
[0.00913577 0.005282  ]
[0.00851979 0.01969874]
[-0.02714874  0.02238386]
[ 0.02417255 -0.01011364]
[-0.04772211  0.0416839 ]
[ 0.0356504  -0.03682395]
[0.01089404 0.01048597]
[ 0.01533176 -0.00037592]
[-0.0313912   0.02889396]
[0.00517028 0.00117786]
[-0.02716039 -0.00487818]
[ 0.00078018 -0.00281527]
[-0.02914451  0.03530811]
[ 0.0450374  -0.07285415]
[0.01664286 0.00663289]
[0.00842746 0.00594695]
[-0.01232152  0.00583638]
[0.01527575 0.00685562]
[-0.03476779  0.02050626]
[ 0.01384947 -0.01735871]
[-0.01215471  0.02683392]
[ 0.02311468 -0.00769029]
[-0.00603971  0.00530668]
[-0.00503379 -0.01756017]
[ 0.01575412 -0.00650861]
[-0.01232957 -0.00065116]
[ 0.02200978 -0.03007035]
[0.00596963 0.005021  ]
[ 0.01543682 -0.02538347]
[ 0.05147484 -0.05607788]
[0.01413735 0.00679858]
[0.0068631  0.01155241]
[ 0.00617975 -0.01826719]
[ 0.01465042 -0.0174466 ]
[ 0.01167226 -0.03111899]
[0.00036326 0.01518914]
[-0.01194802 -0.02152195]
[-0.0110429  0.0063418]
[-0.00946738  0.00391177]
[-0.01541208 -0.01494631]
[0.01176597 0.00918823]
[-0.00543614 -0.00480279]
[ 0.01587962 -0.03597597]
[0.00934785 0.01319822]
[ 0.02831505 -0.00240065]
[-0.02929671  0.04001414]
[-0.00274271  0.00455401]
[-0.00926074 -0.01581463]
[-0.00640135 -0.00986636]
[ 0.0322008  -0.04649314]
[-0.00218683 -0.01671877]
[-0.01719153  0.02384709]
[ 0.02386586 -0.02054178]
[ 0.01028174 -0.01678651]
[-0.00309823  0.02581304]
[-0.01245341  0.01973334]
[ 0.01816454 -0.00119802]
[ 0.02821207 -0.01795701]
[-0.01390021  0.0099856 ]
[0.01913043 0.00559706]
[ 0.0322379  -0.05139335]
[ 0.04118469 -0.04703009]
[-0.00703503  0.01443404]
[ 0.01560838 -0.0077536 ]
[ 0.00667782 -0.0052612 ]
[0.00016564 0.00608715]
[ 0.00024159 -0.0036418 ]
[0.0177066  0.00022961]
[ 0.00989991 -0.03793551]
[-0.01487593  0.0014705 ]
[0.00187604 0.021051  ]
[-0.00366085 -0.00583782]
[0.01047183 0.00610558]
[ 0.00973173 -0.00343177]
[ 5.1428506e-05 -1.8703729e-02]
[ 0.01368808 -0.01619543]
[-0.00563692 -0.00616041]
[-0.01221334  0.00647923]
[-0.01255225 -0.00307396]
[-0.00464403  0.00733464]
[-0.00914807 -0.00882801]
[ 0.01674279 -0.01351472]
[-0.00745916  0.01318509]
[0.00055195 0.00064057]
[-0.00652888  0.00222651]
[-0.00777265  0.02769924]
[-0.01520793 -0.00454935]
[-0.00210905 -0.0066327 ]
[0.01754666 0.00632987]
[0.02050648 0.0114493 ]
[-0.00712828  0.00353528]
[ 0.01573508 -0.01421223]
[0.00618293 0.00218368]
[-0.00098608 -0.00408702]
[-0.01132554 -0.01234005]
[ 0.01697819 -0.01964762]
[-0.01461027  0.00048891]
[0.01932706 0.00102665]
[0.00280885 0.01301531]
[-0.01813363  0.00833396]
[ 0.00853043 -0.01198389]
[-0.01201279 -0.00396174]
[-0.0038741  -0.01306099]
[-0.00895573 -0.02030862]
[ 0.00549105 -0.00752339]
[0.01368871 0.00707892]
[-0.00497909 -0.00794625]
[ 0.01818678 -0.00908704]
[ 0.00521329 -0.00058012]
[0.00632046 0.0224082 ]
[0.00830843 0.01267526]
[-0.01006501 -0.01111075]
[0.01086749 0.01376327]
[ 0.01720664 -0.00787437]
[ 0.01638839 -0.02863007]
[-0.0083528  -0.01963767]
[ 0.00200339 -0.0200985 ]
[-0.00754074 -0.01769519]
[-0.02222259 -0.0093117 ]
[-0.01210019 -0.01517013]
[0.00726164 0.01694952]
[0.00449239 0.00689528]
[ 0.00632841 -0.00630812]
[-0.01114553  0.00215166]
[0.02013688 0.01312368]
[ 0.02646593 -0.01391008]
[-0.01302165  0.00281459]
[-0.02288663 -0.00382454]
[ 0.01304703 -0.01400189]
[ 0.01401023 -0.00608867]
[-0.00223971 -0.00376006]
[-0.00943073  0.00856326]
[ 0.00493709 -0.02012292]
[ 0.0211811  -0.02778828]
[ 0.00193953 -0.01126875]
[ 0.01320889 -0.01289057]
[ 0.00345822 -0.01205054]
[0.00327153 0.00595524]
[ 0.00093411 -0.02399796]
[ 0.00070934 -0.00794666]
[-0.0024556  -0.01806518]
[ 0.02196675 -0.00995832]
[ 0.00929498 -0.00513358]
[-0.01875283  0.01228515]
[ 0.00822825 -0.00834525]
[ 0.00067087 -0.00536809]
[-0.01082881  0.00945298]
[-0.00978565  0.01355088]
[0.01994352 0.00938165]
[-0.00208622  0.01869616]
[0.01297882 0.00305795]
[-0.00563648  0.01193096]
[-0.01492364 -0.00375516]
[ 0.01591884 -0.01327091]
[ 0.00783937 -0.01061386]
[-0.01560317  0.01704671]
[-0.0045461   0.00543506]
[ 0.02206828 -0.02390724]
[ 0.012756   -0.00951872]
[-0.00679752  0.00139957]
[0.00149591 0.00391172]
[ 0.0135973  -0.00709774]
[-0.00385658 -0.00661252]
[0.00123445 0.00248173]
[ 0.01677778 -0.0099539 ]
[ 0.0098977  -0.01459668]
[ 0.00606105 -0.00618622]
[-0.01079427  0.01260646]
[0.00100072 0.01526659]
[0.00209313 0.01396084]
[ 0.00514654 -0.01386902]
[-0.004168    0.01352828]
[-0.0032265   0.01786438]
[-0.00494524  0.00192623]
[-0.00165276 -0.00559947]
[-0.01193572 -0.00613501]
[0.01745674 0.00247448]
[-0.00145927  0.00278915]
[ 0.00162771 -0.00621596]
[0.0191033 0.015688 ]
[ 0.01744574 -0.01046671]
[-0.01666209  0.02028332]
[-0.00349149 -0.00361154]
[0.01348628 0.01505615]
[0.01920399 0.00096441]
[-0.01025306  0.01539575]
[0.01676515 0.01569072]
[0.01324741 0.00579151]
[-0.01594129  0.00536384]
[-0.00103335 -0.00020784]
[-0.01542808  0.00760761]
[ 0.01455077 -0.00995803]
[-0.00699467 -0.01775881]
[0.01364115 0.01599684]
[0.00333783 0.01329593]
[ 0.0058198  -0.00066373]
[-0.01885067  0.00401732]
[-0.03658248  0.00268411]
[0.0152417  0.00641404]
[-0.0144258   0.00997803]
[-0.00333402 -0.02565948]
[0.00654634 0.00593238]
[-0.02431584 -0.00256767]
[ 0.00153799 -0.01264835]
[-0.007078    0.01159965]
[-0.04984502  0.04517095]
[ 0.00797034 -0.00312636]
[0.00457038 0.00866315]
[ 0.0222063  -0.00636974]
[0.00686682 0.00908715]
[0.01367637 0.0058367 ]
[ 0.00795109 -0.01787051]
[-0.02098888 -0.00653847]
[-0.0321385   0.05953377]
[ 0.00359408 -0.01075899]
[-0.01200049 -0.01588025]
[ 0.00350783 -0.03274316]
[-0.01563938 -0.00340956]
[-0.01617392  0.00875139]
[-0.00345746  0.01345103]
[ 0.00690666 -0.00973362]
[-0.02040047  0.03525152]
[0.00749009 0.00589971]
[ 0.00013954 -0.00583359]
[ 0.02356907 -0.01239305]
[-0.0252413   0.00105244]
[-0.01087389 -0.00138643]
[ 0.02265029 -0.01413243]
[-0.02683686  0.01891367]
[-0.04354572  0.02237644]
[0.00389932 0.00804336]
[-0.00902118 -0.01057602]
[ 0.001427   -0.01570583]
[ 0.03636843 -0.03395523]
[ 0.01974644 -0.01301644]
[-0.01099386 -0.00352601]
[-0.05205835  0.04949132]
[-0.05131699  0.03258143]
[ 0.01996889 -0.00095732]
[ 0.00424441 -0.00117361]
[-0.0212072  -0.00250694]
[-0.00391794 -0.00225863]
[-0.0149163  -0.01593867]
[-0.00758833 -0.02234469]
[-0.04077331  0.0426449 ]
[-0.01342213  0.002221  ]
[-0.00550588 -0.0068264 ]
[0.00464156 0.00517492]
[-0.01841154  0.0351632 ]
[-0.00744181  0.02438538]
[-0.02035405 -0.00040258]
[-0.00321638  0.00179711]
[-0.06373378  0.06104877]
[ 0.05001574 -0.02862428]
[-0.00378027  0.00602131]
[0.00817581 0.00067743]
[-0.01297529  0.04168667]
[-0.01363145  0.01399753]
[-0.01139999  0.01281977]
[0.01564996 0.01632596]
[-0.03836142  0.0502978 ]
[-0.03909786  0.00752718]
[-0.01112023 -0.01086249]
[0.00578238 0.00778834]
[-0.01567996  0.00872399]
[0.01213435 0.00036817]
[ 0.02149686 -0.04320994]
[-0.01085658 -0.00379391]
[-0.01894785  0.00309697]
[-0.00981758  0.00313712]
[ 0.00069729 -0.01208123]
[ 1.5293583e-02 -8.1967482e-05]
[ 0.00853716 -0.02365969]
[ 0.02603066 -0.00725312]
[ 0.01161914 -0.03009103]
[0.00424294 0.00176175]
[ 0.02292736 -0.04770951]
[ 0.03881192 -0.03549053]
[ 0.00459004 -0.02038272]
[ 0.00969779 -0.02182282]
[-0.00196975  0.01734241]
[ 0.01828289 -0.01327862]
[-0.01322731  0.01397554]
[-0.01982149 -0.00479358]
[0.00047577 0.00033194]
[ 0.04854351 -0.03919606]
[ 0.00860642 -0.02439576]
[-4.2225178e-03 -5.4787888e-05]
[0.01164509 0.00960963]
[ 0.0142113  -0.02692636]
[ 0.00123838 -0.01738184]
[ 0.01924304 -0.01510453]
[ 0.01806543 -0.03174934]
[ 0.01305492 -0.00128683]
[ 0.01660329 -0.01315945]
[ 0.00451307 -0.00327752]
[ 0.01333328 -0.00969153]
[-0.01072717  0.00329184]
[ 0.00243376 -0.00594632]
[ 0.01427349 -0.00947223]
[-0.00456601  0.01513309]
[-0.02625008  0.03011408]
[-0.01882955  0.00726246]
[0.00724972 0.00208734]
[-0.00852048  0.00926559]
[ 0.01314061 -0.01285325]
[-0.0185395   0.02098432]
[0.00056524 0.0001542 ]
[ 0.02109738 -0.0189657 ]
[-0.00976083  0.00940682]
[ 0.00705863 -0.00523077]
[-0.00250816 -0.01049197]
[-0.00025973 -0.01090298]
[ 0.02242615 -0.02434601]
[ 0.01563925 -0.00338864]
[0.01355658 0.01189454]
[0.00097867 0.00351742]
[-0.00706914 -0.00380317]
[0.0080075  0.00595891]
[-0.00701406 -0.02087343]
[-0.00198764 -0.0193587 ]
[0.00538657 0.00248513]
[ 0.01650558 -0.01370311]
[ 8.7680535e-05 -4.3030721e-03]
[ 0.00639862 -0.01741736]
[-0.00135092  0.01395482]
[0.00052424 0.01136052]
[ 0.0110515  -0.00543523]
[ 0.01917697 -0.00100967]
[-0.00664861 -0.01318862]
[-0.00202451 -0.0184926 ]
[-0.01010388  0.01384861]
[-0.01332934 -0.0010523 ]
[-0.01562526  0.02146127]
[-0.01966157  0.02083133]
[0.00495043 0.00899169]
[-0.01457684 -0.01239358]
[-0.0048377  -0.01212468]
[ 0.03008107 -0.02173582]
[-0.00065061  0.01436279]
[ 0.00942143 -0.0178745 ]
[0.00693806 0.0004068 ]
[-0.01805452  0.01892745]
[-0.01050209 -0.01057637]
[-0.00555617  0.01499858]
[0.01046513 0.01363911]
[ 0.02480849 -0.02989815]
[-0.00211438  0.01121   ]
[ 0.01150181 -0.01073289]
[-0.00825582 -0.00241467]
[-0.00443388  0.00583428]
[-0.01831867  0.00631043]
[0.0126633  0.01019494]
[ 0.02005106 -0.00302066]
[ 0.00814084 -0.01342841]
[ 0.01083996 -0.00268768]
[-0.00424235 -0.01829158]
[ 0.0198741  -0.02832815]
[ 0.00389425 -0.01260374]
[ 0.01399293 -0.01022034]
[0.01675532 0.00174734]
[-0.00039691  0.01600717]
[0.0018974  0.00298556]
[-0.00830213 -0.01011277]
[ 0.00366949 -0.009462  ]
[0.01871049 0.00990184]
[0.01421719 0.01731505]
[-0.01168885 -0.00119774]
[ 0.01816284 -0.01007143]
[ 0.00238307 -0.01353749]
[0.02054176 0.01153567]
[-0.0102038  -0.01238193]
[ 0.0126297  -0.00387461]
[-0.01615745  0.01030994]
[ 0.0098003  -0.01057634]
[-0.00164788 -0.00309244]
[ 0.0058756  -0.00633363]
[0.01480642 0.00749139]
[ 0.02081958 -0.01303625]
[-0.00706622  0.00255803]
[-0.00359855  0.00640851]
[ 0.01762391 -0.01221118]
[-0.00901245  0.00974616]
[-0.01213285  0.00165631]
[ 0.00302208 -0.00492971]
[0.01142813 0.00361831]
[-0.01259565 -0.00154557]
[-0.01099894  0.0022665 ]
[ 0.01788784 -0.00599962]
[ 0.05476354 -0.04399108]
[ 7.331742e-05 -8.967661e-03]
[0.0040346  0.01146244]
[ 0.0113037  -0.01576483]
[-0.00408363 -0.00635668]
[ 0.00377655 -0.00405132]
[0.01136233 0.0038014 ]
[ 0.01043864 -0.01797181]
[-0.01850515 -0.00354895]
[-0.01704762  0.01402558]
[ 0.01391755 -0.00947347]
[0.00208527 0.00471751]
[-0.00483079 -0.01740427]
[-0.00289565  0.00843724]
[-0.01030125 -0.01795261]
[0.02121145 0.00123455]
[-0.00628262  0.01742599]
[-0.0176958   0.01010333]
[0.01697862 0.00767577]
[ 0.01157097 -0.00698101]
[-0.01594095  0.01593624]
[-0.00580656 -0.00017534]
[-0.01962581 -0.01161737]
[0.0023053 0.0036665]
[-0.01464492  0.0071441 ]
[-0.01140841 -0.01011169]
[0.01346825 0.01851069]
[2.1727709e-02 7.6489494e-05]
[0.00899463 0.00596442]
[-0.00476279  0.0149293 ]
[-0.01397809 -0.00045838]
[-0.01214221  0.00546918]
[-0.01425754  0.02994724]
[-0.01481783  0.00955061]
[-0.01107455 -0.01286204]
[ 0.02196576 -0.00668288]
[0.00778398 0.01163359]
[-0.00663101  0.02168379]
[0.00840082 0.00214947]
[-9.0969304e-05  2.0158321e-02]
[-0.05420107  0.05476292]
[-0.00282785  0.01777144]
[-0.00999086 -0.00824727]
[0.00866154 0.00540055]
[-0.01489174  0.00620045]
[-0.00385461  0.00124812]
[-0.00261083  0.00917962]
[-0.01364584 -0.00470644]
[-0.11798526  0.12054429]
[-0.01608081 -0.0094917 ]
[0.00346721 0.00253439]
[0.01788933 0.00426604]
[-0.012615    0.02137961]
[ 0.01353424 -0.01200145]
[0.00377206 0.00690596]
[-0.02588553  0.02537459]
[-0.05041643  0.03129368]
[-0.00665815  0.01585591]
[-0.01414012 -0.00515885]
[ 0.00986863 -0.01218075]
[-0.01607556  0.01558516]
[0.00441575 0.00545243]
[-0.00193143 -0.01620195]
[-0.02803471  0.03468059]
[-0.00838767  0.02792749]
[-0.00736469  0.0150691 ]
[ 0.00942714 -0.01785734]
[-0.0005982  -0.02002849]
[0.00211782 0.01945793]
[ 0.02636677 -0.00981062]
[-0.00053338 -0.01891271]
[ 0.02924685 -0.02583235]
[-0.07219341  0.05657652]
[-1.0335969e-02  2.6970265e-05]
[-0.00186557 -0.01486714]
[-2.2896521e-02 -9.2092116e-05]
[-0.00164565 -0.00967252]
[ 0.01636266 -0.00914421]
[0.01730949 0.0022228 ]
[-0.04635843  0.05697004]
[0.0086352  0.01157884]
[-0.00769807  0.02184463]
[-0.00926827  0.00485465]
[-0.03034712  0.03569073]
[0.00449305 0.0189606 ]
[-0.00637363  0.010921  ]
[-0.02214467  0.01768575]
[-0.002265    0.00426064]
[-0.00467141  0.00193267]
[-0.00477252  0.01566623]
[-0.01551465  0.01707744]
[-0.03458571  0.01364645]
[ 0.04280761 -0.02135973]
[0.01233215 0.00039659]
[ 0.01207623 -0.00065976]
[-0.01646182  0.02635601]
[ 0.01967044 -0.0325865 ]
[-0.01978578  0.00092116]
[0.01116922 0.0186028 ]
[-0.01266095  0.01602723]
[ 0.02680727 -0.01688498]
[-0.00962375  0.04418363]
[0.00246229 0.01524277]
[-0.00084327  0.00553115]
[-0.06121976  0.05443096]
[ 0.0043412  -0.01008274]
[0.02020383 0.00862869]
[-0.01140954 -0.00241689]
[-0.0263279   0.00217584]
[-0.01329589  0.01400954]
[0.0019868  0.01066465]
[-0.00752103  0.00745904]
[ 0.04526903 -0.01602776]
[-0.00548427  0.00459504]
[ 0.01098381 -0.01714683]
[-0.02374886  0.02264357]
[-0.01113986  0.00397143]
[-0.02945613  0.01821568]
[-0.01385622 -0.01162724]
[-0.00629742  0.0168212 ]
[ 0.03852393 -0.05040411]
[ 0.00347117 -0.01152616]
[-0.00378949 -0.00972832]
[-0.00706041 -0.02259869]
[ 0.01534587 -0.01264357]
[ 0.01025367 -0.00884139]
[ 0.00542055 -0.02127181]
[0.00110135 0.00141311]
[-0.01646391 -0.00253521]
[ 0.02266165 -0.01552363]
[-0.00789007 -0.0078084 ]
[ 0.00799774 -0.00735952]
[-0.01828697 -0.00115689]
[-0.03513512  0.03002744]
[-0.01034642 -0.00609889]
[-0.0352288   0.00831883]
[ 0.01626654 -0.0184526 ]
[-0.00134307 -0.00132806]
[0.0028848 0.003679 ]
[0.00017198 0.00075388]
[-0.00796096  0.00767908]
[ 0.0358867  -0.03011503]
[-0.00696512 -0.01573834]
[ 0.01775074 -0.02487783]
[-0.00301168  0.00359221]
[0.00786323 0.00339519]
[0.02127434 0.01053845]
[0.00460358 0.00590485]
[-0.01615835  0.00602438]
[ 0.02109557 -0.00111013]
[-0.00332319  0.00937826]
[0.00209845 0.0073589 ]
[-0.00092558  0.00603331]
[-0.01684821  0.00953995]
[0.00083032 0.01516014]
[0.00213828 0.00123023]
[ 0.01748998 -0.00387256]
[0.01205338 0.01869034]
[-0.00836653 -0.0126826 ]
[-0.02020481  0.01938656]
[0.0032275  0.01093964]
[-0.00801531 -0.00412483]
[-2.2280754e-03  8.3405423e-05]
[ 0.00048389 -0.00206943]
[0.00778615 0.01088309]
[-0.00789433  0.02058486]
[-0.01124115  0.00919824]
[-0.00775989  0.00066391]
[-0.05047005  0.06669749]
[-0.0062823  -0.00884094]
[ 0.01441729 -0.01148568]
[0.00683764 0.01478115]
[0.02208738 0.00810287]
[ 0.00761117 -0.02229771]
[-0.01148726 -0.00708529]
[ 0.01213971 -0.01154913]
[-0.01395762  0.00752693]
[ 0.00379614 -0.002804  ]
[0.00325009 0.01682053]
[0.02030057 0.01220156]
[-0.01852264 -0.01241087]
[ 0.02724187 -0.00943237]
[-0.00435783  0.01381262]
[0.0174086  0.00886033]
[-0.02305068  0.00606964]
[0.01266953 0.01451237]
[ 0.02031709 -0.00357714]
[-0.01766802  0.00679897]
[-0.02777044  0.04094385]
[ 0.0267728  -0.02715527]
[-0.0015033   0.01139503]
[-0.00794856  0.00403383]
[-0.01838521  0.00054538]
[0.01274368 0.00694927]
[-0.01459635 -0.00864929]
[-0.00322658 -0.00569099]
[0.00775635 0.00257574]
[-0.00781654  0.00633265]
[-0.00245167 -0.01497435]
[ 0.00832666 -0.00358642]
[-0.00687361 -0.00909257]
[ 0.01732322 -0.00497446]
[ 0.00300533 -0.00724341]
[ 0.00747701 -0.01574035]
[ 0.02504477 -0.01853913]
[-0.00952777 -0.00582473]
[0.01617755 0.00534818]
[ 0.02226135 -0.02853819]
[-0.00565145  0.00881427]
[ 0.00896142 -0.00126415]
[-0.00177813  0.00888371]
[ 0.00387214 -0.00725363]
[-0.00512081 -0.01769325]
[ 0.01455254 -0.0038617 ]
[-0.01492304 -0.01746587]
[ 0.01058623 -0.01535438]
[-0.00309174 -0.01525007]
[-0.00285855  0.01753785]
[-0.00399725 -0.00419351]
[-0.00098676 -0.0038444 ]
[-0.01079547 -0.01776309]
[-0.0005593   0.01544139]
[0.01151782 0.00631236]
[ 0.00691625 -0.00427611]
[-0.008559    0.01192954]
[ 0.00755014 -0.00748468]
[0.00954535 0.00470073]
[-0.0115068   0.01400039]
[-0.00178296  0.0083465 ]
[-0.00108998  0.01313304]
[ 0.01332005 -0.00914946]
[-0.00966834 -0.01292791]
[ 0.01567048 -0.01225291]
[-0.01879181  0.01601616]
[-0.01932687  0.00607666]
[ 0.01618906 -0.00445127]
[-0.0094111  -0.00299782]
[ 0.01181823 -0.01238288]
[0.00936988 0.01579101]
[0.00783936 0.00475794]
[-0.00758662  0.0162208 ]
[-0.01101957 -0.01069241]
[0.00017342 0.00492764]
[-0.00041014 -0.00458801]
[-0.00698282 -0.01093928]
[0.00634723 0.01084829]
[-0.01156687  0.00320503]
[ 0.01675832 -0.01793535]
[-0.00935621  0.00117367]
[0.01633906 0.0011922 ]
[-0.01345051  0.01018828]
[ 1.5638761e-04 -2.6201333e-05]
[-0.00534754  0.01063027]
[ 0.00635216 -0.00672473]
[-0.01444576 -0.00075443]
[-0.01461334  0.02392808]
[-0.00912014  0.00756348]
[0.00559948 0.01046081]
[ 0.01255864 -0.01213984]
[ 0.00849956 -0.00042973]
[-0.0090652   0.02691689]
[-0.01882911 -0.0092986 ]
[0.01536038 0.00360785]
[-0.00099701  0.01948973]
[-0.09465711  0.09567893]
[-0.01203914  0.00443412]
[0.00526903 0.01054609]
[ 0.00090428 -0.01594773]
[-0.01671282  0.0214738 ]
[-0.00610634 -0.00194446]
[0.01280918 0.00502576]
[-0.00692901  0.01308746]
[-0.06476321  0.07441999]
[0.01411901 0.01353392]
[-0.00925214 -0.0170994 ]
[ 0.00408353 -0.00292793]
[-0.01554254 -0.0004829 ]
[0.00380837 0.0108327 ]
[-0.00234018 -0.0071782 ]
[-0.03132599  0.02868381]
[-0.09850723  0.08298045]
[-0.00181449 -0.00136178]
[-0.00035537  0.00648014]
[ 0.00362697 -0.00205022]
[ 0.01114058 -0.01081025]
[-0.01032077 -0.00244484]
[0.01824022 0.00621628]
[ 0.01144528 -0.00992727]
[-0.02393697  0.05239509]
[-0.00604053 -0.00195663]
[-0.00792572 -0.0017396 ]
[-0.00556518  0.00856762]
[-0.00520364  0.01886037]
[ 0.01393842 -0.03201026]
[-0.00994151 -0.01860534]
[ 0.00051652 -0.01131353]
[0.00626125 0.00195603]
[ 0.0004885  -0.00556685]
[-0.0187076   0.00899044]
[ 0.01602842 -0.01515001]
[ 0.00934412 -0.00336834]
[0.0016488  0.01347788]
[ 0.01318564 -0.01978238]
[0.02615361 0.00629046]
[0.01244524 0.00837884]
[-0.00916828  0.01089101]
[0.00647414 0.02094022]
[ 0.00857875 -0.00169356]
[0.02146594 0.01063079]
[ 0.02076093 -0.00421759]
[-0.00192105  0.02555558]
[0.01904546 0.00317086]
[-0.00753167  0.0063473 ]
[-0.0014836   0.01960785]
[ 0.00752003 -0.00547709]
[ 0.00961428 -0.01493815]
[ 0.04588939 -0.05481142]
[0.00936297 0.01002698]
[0.01092441 0.00694257]
[ 0.02070646 -0.00175076]
[-0.02396049  0.03017462]
[ 0.0108545  -0.00621754]
[0.00208887 0.00721979]
[-0.01804972 -0.00328464]
[-0.01846446  0.02654707]
[-0.01365456  0.03430761]
[-0.01174838 -0.01393789]
[-0.0198411   0.01475052]
[-0.03570401  0.05612366]
[ 0.00813408 -0.00611155]
[-0.00901384 -0.00789794]
[ 0.00121532 -0.00565108]
[-0.00296052  0.02201225]
[-0.01059036  0.03149391]
[ 0.02384286 -0.02250779]
[-0.00267458  0.00884604]
[ 0.02697948 -0.00557518]
[0.01746802 0.00058655]
[-0.0046742   0.01190219]
[0.00246145 0.01007276]
[-0.01217239  0.00421016]
[-0.02868759  0.00552954]
[ 0.01079676 -0.00308581]
[-0.01511629  0.01840509]
[ 0.03668219 -0.01776899]
[ 0.02030365 -0.01131094]
[0.01100479 0.01125572]
[ 0.02497433 -0.02297806]
[ 0.00025137 -0.01321644]
[-0.00857314 -0.01083555]
[-0.00234045 -0.0104873 ]
[-0.00828186  0.0109771 ]
[ 0.03086338 -0.0432161 ]
[ 0.00554404 -0.0005513 ]
[-0.01957854 -0.00115578]
[-0.0155926  -0.00642544]
[-0.01442359  0.01512576]
[-0.03715948  0.0223735 ]
[0.02309971 0.00258191]
[ 0.03626392 -0.04951693]
[-0.04503502  0.03858427]
[-0.00967964  0.00467064]
[ 0.00608812 -0.01574536]
[ 0.01187993 -0.02285545]
[-0.00130528  0.01897153]
[ 0.00329316 -0.00432659]
[ 0.02067204 -0.01590172]
[ 0.02884901 -0.01384676]
[-0.00588255  0.01113484]
[-0.00618075 -0.00351081]
[ 0.01671043 -0.01279913]
[0.02324938 0.01170674]
[-0.01261945 -0.00956463]
[ 0.00692196 -0.02853255]
[ 0.00816001 -0.00867749]
[ 0.01922594 -0.01757372]
[-0.01292358  0.00888639]
[-0.02237899  0.00334711]
[-0.01570385 -0.01071616]
[-0.00759772  0.01161068]
[0.00192682 0.02264701]
[ 0.02706814 -0.02197703]
[ 0.00109414 -0.0034228 ]
[ 0.02105784 -0.02920043]
[-0.02046219 -0.00474641]
[-0.01807153 -0.00862813]
[ 0.00793306 -0.00823422]
[-0.00453608 -0.01447863]
[0.00089053 0.00597688]
[-0.03074473  0.02132521]
[-0.00621771  0.0102698 ]
[-0.02437372  0.01863076]
[0.01427618 0.01814855]
[-0.01995197  0.01407244]
[0.01501278 0.00355895]
[ 0.01892336 -0.01157543]
[-0.00463144 -0.00325518]
[ 0.01915427 -0.01878143]
[ 0.00701473 -0.00854009]
[ 0.0019005  -0.00422834]
[-0.018322    0.02995098]
[0.01737771 0.00640067]
[-0.00914468  0.00992242]
[0.00325445 0.00745547]
[0.01862658 0.0051431 ]
[ 0.03223404 -0.00152906]
[0.00061526 0.00695342]
[ 0.03383216 -0.04058913]
[-0.01731679  0.02884998]
[ 0.01215353 -0.01366587]
[-0.0013648  0.010933 ]
[-0.00495585  0.00909958]
[-0.00222903 -0.00283641]
[0.00813394 0.00056031]
[-0.03214734  0.02610124]
[ 0.00313273 -0.02440812]
[0.00187801 0.00914066]
[-0.01630764  0.00828369]
[ 0.01730333 -0.01227054]
[0.00069261 0.02971722]
[-0.01231712 -0.0111282 ]
[-0.00783229  0.01645146]
[ 0.01412061 -0.01269124]
[ 0.00768747 -0.0151427 ]
[-0.04675353  0.05497394]
[0.00042508 0.01927522]
[0.00778464 0.00184793]
[-0.0139655   0.02368345]
[-0.01303083  0.01753541]
[0.00100569 0.01777573]
[-0.00158196  0.01722256]
[-0.00053001 -0.00133077]
[-0.00515116 -0.01260519]
[-0.0141802  -0.00354303]
[ 0.01529389 -0.01598622]
[-0.04334032  0.03836116]
[-0.00462177  0.0011635 ]
[-0.01521264 -0.00943651]
[0.00843159 0.01240418]
[-0.02111121  0.03605346]
[-0.00362131  0.00913707]
[ 0.01286068 -0.00977661]
[ 0.00310725 -0.00685596]
[-0.0094062   0.02178344]
[ 0.0105801  -0.02203056]
[-0.01546798 -0.00140451]
[0.00050855 0.01355089]
[-0.01225668  0.00224892]
[-0.00475731 -0.00529238]
[0.00070674 0.01472124]
[0.01395336 0.01367837]
[-2.6508192e-02 -9.3791823e-05]
[-0.00011557 -0.01043309]
[-0.01604183  0.02076414]
[-0.00493439  0.01787891]
[-0.01087297 -0.01627636]
[-0.02359237  0.02253739]
[0.00094599 0.01591267]
[0.00338105 0.00835228]
[0.00650203 0.01684775]
[0.01508683 0.00496419]
[ 0.02183954 -0.02033289]
[-0.01610982 -0.00326502]
[ 0.02664354 -0.00932102]
[-0.02593996  0.02793886]
[ 0.0118772  -0.00100252]
[ 0.0056641 -0.0003554]
[0.00261646 0.00701276]
[-0.01095769 -0.01544953]
[-0.00011176  0.00997128]
[ 0.00805897 -0.01285077]
[-0.00393048  0.00163637]
[ 0.00779498 -0.0096578 ]
[0.00181009 0.01180112]
[ 0.00607985 -0.0029577 ]
[-0.009438    0.00636903]
[-0.00829156 -0.00400398]
[0.00226575 0.01369616]
[0.01531693 0.00283426]
[-0.01256532 -0.00021274]
[-0.00309024 -0.0179076 ]
[-0.00470538  0.00492563]
[0.00155445 0.00168281]
[ 0.01589247 -0.00706344]
[0.00551016 0.02073341]
[0.00899355 0.02447522]
[ 0.00693611 -0.01558979]
[-0.00689767  0.0216744 ]
[-0.05651779  0.04490186]
[-0.01804891  0.01949216]
[ 0.00681775 -0.00267544]
[ 0.02226341 -0.01237481]
[-0.00103005  0.00010091]
[-0.01611703 -0.01310839]
[0.01505467 0.00332312]
[-0.02144608  0.01917711]
[-0.0660064   0.05369898]
[ 0.00732376 -0.00572583]
[ 0.00069148 -0.0147151 ]
[0.01366133 0.01120705]
[-0.01798775  0.02770496]
[0.00864682 0.00466717]
[-0.00570371  0.01178039]
[-0.00345844  0.01274669]
[-0.03104941  0.03503318]
[-0.00056337  0.00371689]
[ 0.00205732 -0.00212184]
[ 0.0292695  -0.00440487]
[-0.00170276  0.02200785]
[-0.01544624 -0.00320142]
[ 0.00845908 -0.00246654]
[ 0.01539773 -0.00373975]
[-0.083873    0.08881567]
[0.00415842 0.01760396]
[-0.00281344  0.00227388]
[ 0.02414301 -0.00068941]
[ 0.04276132 -0.02976265]
[ 0.09707154 -0.09796771]
[-0.00265273 -0.00541304]
[ 0.0109751 -0.0003253]
[-0.02021028  0.0215133 ]
[-0.00042263 -0.00864078]
[-0.00624848  0.02585305]
[-0.01942784  0.02437792]
[-0.00800345 -0.01042125]
[0.00874708 0.0027724 ]
[ 0.00701174 -0.00846737]
[-0.01081931  0.00685155]
[-0.01715447  0.01855525]
[0.00245496 0.00979184]
[-0.00112129 -0.00896206]
[ 0.0056795  -0.01420757]
[ 0.00612638 -0.00785637]
[ 0.0003467  -0.01844732]
[ 0.01575928 -0.00243865]
[ 0.04104779 -0.03630432]
[-0.02665398  0.02827567]
[0.00396604 0.02245251]
[-0.01376673  0.00178364]
[ 0.01921732 -0.0194889 ]
[ 0.04867363 -0.05974244]
[-0.00158835 -0.00086995]
[-0.00877132  0.01567838]
[-0.00011829  0.02108379]
[-0.00606408  0.01316022]
[0.01151803 0.01571285]
[-0.00124215  0.0136453 ]
[-0.00937333  0.01666777]
[-0.01510683  0.00967731]
[-0.01628476  0.03560326]
[0.01212958 0.01929786]
[-0.02606232  0.02173922]
[-0.04164065  0.0283684 ]
[-0.01671749 -0.00360633]
[-0.00099559 -0.01195284]
[ 0.00951856 -0.00940371]
[0.00189099 0.01341752]
[-0.017254   -0.00053188]
[ 0.01685748 -0.00463839]
[ 0.0066439  -0.01309369]
[-0.0677268   0.05286649]
[0.00231079 0.00433403]
[-0.00566831  0.00622203]
[-0.00796835  0.02113303]
[ 0.00768866 -0.01667945]
[-0.00100259  0.02840337]
[-0.01110492 -0.01678472]
[-0.00792027  0.00723478]
[ 0.02605295 -0.01299005]
[ 0.02319105 -0.01868771]
[-0.00844085 -0.00680006]
[-0.00288248 -0.00356787]
[ 0.01541194 -0.01688434]
[-0.03872017  0.02391398]
[0.00628934 0.00466739]
[-0.02339233 -0.00181532]
[ 0.02761315 -0.02996633]
[-0.0020807  -0.01944036]
[-0.00054591  0.01718299]
[0.01963223 0.00755733]
[-0.02254353 -0.00416432]
[0.00034037 0.01318138]
[-0.00835967 -0.02562447]
[ 0.02346548 -0.02168563]
[ 0.00371447 -0.02705194]
[0.00625466 0.00842126]
[-0.01074431  0.02257474]
[ 0.00214425 -0.01750522]
[-0.00214875 -0.00291996]
[0.00410712 0.00775614]
[ 0.02101419 -0.01866347]
[-0.01943095 -0.00404542]
[0.00654874 0.01569859]
[-0.00705224 -0.00324216]
[ 0.01196169 -0.01102315]
[ 0.02002886 -0.00269331]
[-0.00121887  0.02003632]
[ 0.00864954 -0.03079763]
[-0.00656905 -0.00542276]
[ 0.0342985  -0.04818905]
[-0.00654573 -0.0003042 ]
[-0.01867723  0.02051561]
[ 0.00135902 -0.01029138]
[-0.01069379 -0.01911271]
[ 0.01243346 -0.01435804]
[-0.01205468  0.00421009]
[0.01094173 0.0059433 ]
[-0.03246077  0.0085025 ]
[-0.0129155  -0.00053181]
[-0.01787881 -0.00719677]
[-0.00145314  0.01470879]
[ 0.00160864 -0.013389  ]
[0.00988724 0.02517064]
[-0.02460082  0.00998709]
[-0.00937515 -0.00137242]
[ 0.02139356 -0.01646634]
[-0.02804817  0.03724028]
[-0.0052046   0.00623743]
[-0.00874122  0.01019759]
[ 0.00054097 -0.01361596]
[-0.01400285  0.0023643 ]
[ 0.01007108 -0.00081088]
[ 0.01460353 -0.002449  ]
[ 0.01781453 -0.02356838]
[-0.01868311 -0.00269491]
[-0.01143514 -0.01433124]
[-0.01294474  0.00139285]
[-0.01179615 -0.01615211]
[-0.00451969 -0.0002542 ]
[ 0.00482402 -0.01530483]
[0.00255668 0.01335654]
[ 0.02073238 -0.02143913]
[-0.02053298  0.00504265]
[-0.00201216 -0.00638444]
[0.00911667 0.01913839]
[0.00990137 0.0098118 ]
[ 0.01580147 -0.01059764]
[-0.00675871 -0.01983651]
[ 0.00095334 -0.00394018]
[ 0.0348753 -0.0314852]
[0.00257763 0.01555979]
[0.00225948 0.02057823]
[-0.00544514 -0.00287143]
[-0.01860053  0.03101579]
[-0.01075045  0.00556953]
[-0.00975639 -0.01213389]
[ 0.01783339 -0.01838922]
[ 0.02081035 -0.01834812]
[-0.00491784  0.03262465]
[0.00538756 0.00988285]
[-0.0025884  -0.00054635]
[-0.00807201  0.0249161 ]
[-0.0153947   0.01566684]
[-0.03667554  0.03250707]
[0.00795869 0.00690483]
[0.02056253 0.01067223]
[-0.00183992 -0.00281535]
[0.00719879 0.00804874]
[0.0139658  0.01561689]
[-0.0153201   0.03955991]
[ 0.0010129  -0.01314648]
[-0.01392861  0.01113723]
[-0.00673787  0.02542488]
[-0.02256021  0.01859778]
[ 0.05335239 -0.03712197]
[-0.01654141 -0.0128688 ]
[-0.0139537  -0.01430985]
[-0.01258458  0.01185979]
[-0.00842013  0.00269977]
[-0.00632838  0.01445291]
[-0.01317156 -0.01099227]
[ 0.01384957 -0.02167521]
[-0.00534794 -0.00439725]
[-0.01785294 -0.01783491]
[-0.00814564 -0.00260217]
[-0.02953152  0.01601822]
[ 0.02203786 -0.00606852]
[-0.00104285 -0.00198001]
[-0.01526714  0.02488666]
[-0.01152975 -0.0097395 ]
[ 0.00049132 -0.01072903]
[ 0.00527946 -0.00821156]
[0.00396162 0.00198026]
[-0.01499943  0.02476287]
[0.0133943  0.00638682]
[ 0.00703255 -0.01626106]
[0.0122342  0.01188025]
[-0.0012043   0.00292261]
[-0.01825     0.02328184]
[-0.01009447  0.015445  ]
[-0.00495476 -0.00460625]
[ 0.01117558 -0.00064477]
[-0.00997909 -0.01007933]
[0.02496583 0.00822597]
[0.011439   0.01232463]
[ 0.01616093 -0.00232131]
[-0.00931697  0.01100556]
[0.01204402 0.00396671]
[-0.01247908  0.00416504]
[0.01204279 0.0095961 ]
[-0.0058492   0.00417593]
[ 0.01037198 -0.0117064 ]
[ 0.01348366 -0.00833239]
[-0.00713723  0.00736821]
[-0.00980342  0.01218992]
[-0.01673926  0.0010205 ]
[0.00127452 0.01608564]
[-0.01522756 -0.00548046]
[-0.00677882  0.00152767]
[ 0.00149927 -0.00263508]
[0.01300045 0.01850009]
[0.00292833 0.01932239]
[-0.07283357  0.06936776]
[-0.00237378  0.00880241]
[-0.01194672  0.00464373]
[-0.00821894 -0.01063326]
[-0.01851307  0.01005324]
[ 0.01298645 -0.01071356]
[-0.0049272   0.01323229]
[ 0.01509105 -0.01292445]
[-0.06039912  0.05917245]
[0.00194525 0.00774024]
[0.01040383 0.01940718]
[ 0.00344989 -0.00478896]
[-0.01434957  0.01303484]
[ 0.00187884 -0.02787442]
[0.01027626 0.00058259]
[-0.01382143  0.0183354 ]
[-0.05489804  0.07823142]
[ 0.00394493 -0.00341796]
[-0.00255109 -0.00737719]
[0.02465592 0.00168711]
[-0.01537447  0.01209013]
[-0.00489286  0.00359845]
[-0.01249873 -0.015136  ]
[ 0.03256326 -0.04343509]
[ 0.0028613 -0.0030779]
[-0.01514478 -0.00723548]
[0.00523655 0.01034077]
[-0.01702254  0.00705251]
[0.00396252 0.00996098]
[-0.01736553  0.01813751]
[-0.01480248  0.00011747]
[-0.00204996  0.01803205]
[-0.01374895  0.01110839]
[ 0.01196022 -0.00668255]
[0.01138155 0.02045846]
[-0.00773967  0.00741732]
[ 0.01079644 -0.03381974]
[0.00846662 0.01558914]
[ 0.0022371  -0.00761691]
[ 0.0261496  -0.02954322]
[-0.06363561  0.04759386]
[ 0.00888429 -0.00819478]
[0.01511914 0.01426821]
[ 0.00691242 -0.00672033]
[0.00132146 0.00887408]
[0.00363121 0.01576604]
[-0.00016754 -0.00809678]
[-0.00379318  0.00056478]
[-0.00308232 -0.01035359]
[0.00037115 0.01523671]
[0.00968362 0.01645985]
[0.01607313 0.01092533]
[-0.00559472 -0.0170118 ]
[-0.00064101  0.02525894]
[-0.01642151  0.01658816]
[-0.0221859   0.03365964]
[-0.01704138  0.02331088]
[-0.00417548  0.01088024]
[-0.01108341  0.00175615]
[ 0.01853266 -0.00699483]
[-0.00648757 -0.00074066]
[0.00129659 0.00398118]
[-0.01338624 -0.00183149]
[-0.00934886  0.0113382 ]
[-0.03630289  0.03228546]
[-0.01662194 -0.00085072]
[-0.01553045  0.00630284]
[-0.00531574  0.00624653]
[-0.02558469  0.0284138 ]
[-0.00598666  0.01454189]
[ 0.01968085 -0.01052514]
[-0.03677481  0.0489491 ]
[-0.00180224 -0.02369286]
[-0.00605226  0.01461744]
[ 0.00518994 -0.01807999]
[0.00521783 0.00904509]
[-0.01169843 -0.00385082]
[0.00686534 0.01365298]
[-0.01338718  0.00133702]
[-0.00406761  0.02285603]
[ 0.03880464 -0.00702786]
[ 0.02251065 -0.0018625 ]
[ 0.00897114 -0.0112066 ]
[ 0.0173199  -0.01043396]
[-0.00423645  0.00568514]
[ 0.00811698 -0.00944214]
[ 0.01033183 -0.00229496]
[-0.02373433  0.02453109]
[ 0.01384242 -0.03230919]
[7.6005614e-05 7.7957651e-03]
[ 0.00772938 -0.01447981]
[ 0.00036536 -0.0169511 ]
[-0.01181271  0.0159289 ]
[-0.00404702 -0.00655559]
[ 0.01141843 -0.00150272]
[ 0.02506592 -0.03707184]
[-0.01702919  0.01459584]
[-0.00504215  0.01113967]
[ 0.0179156 -0.0181364]
[ 0.00287488 -0.00872327]
[-0.00861012  0.01719536]
[ 0.02764023 -0.0002573 ]
[-0.00031541  0.00103911]
[-0.01846573  0.01348959]
[ 0.00459688 -0.00361912]
[-0.00258295 -0.00350735]
[-0.00944675  0.0162413 ]
[ 0.02318803 -0.02182105]
[ 0.00449604 -0.00094513]
[ 0.01971417 -0.00396158]
[-0.00230569  0.00504632]
[ 0.00548543 -0.00623833]
[-0.0093727  -0.00632363]
[ 0.01930278 -0.00158231]
[-0.01622057  0.01281848]
[-0.01302342 -0.00298358]
[ 0.00940187 -0.00754531]
[-0.01541447  0.00217442]
[-0.00459018  0.01051913]
[ 0.01639943 -0.01964137]
[-0.04678261  0.06505817]
[-0.0102425  -0.00178614]
[-0.00652029 -0.01537413]
[-0.01877018  0.02382094]
[-0.02293427 -0.00783382]
[-0.01909547  0.02422184]
[-0.00181334  0.01705784]
[-0.01404649  0.00948465]
[-0.01702462  0.02453538]
[0.00236192 0.01259441]
[-0.00416968  0.00548958]
[ 0.01307906 -0.00469615]
[0.0041737  0.01667745]
[-0.0088119  -0.00140563]
[0.0148168  0.01383636]
[ 0.0068284  -0.00552857]
[-0.01024484  0.02100744]
[-0.00263623 -0.00079997]
[-0.00144828 -0.01306089]
[ 0.00318279 -0.00824637]
[-0.00268007 -0.00285692]
[-0.01050231 -0.01417016]
[ 0.01243704 -0.00433413]
[ 0.02466312 -0.03039376]
[-0.02350534  0.01767511]
[ 0.00028324 -0.00944252]
[-0.00151493 -0.01034542]
[-0.00965593  0.00232767]
[ 0.01714513 -0.00757278]
[ 0.0282508 -0.0272606]
[-0.01343287  0.01694879]
[ 0.00122908 -0.00716191]
[-0.02595172  0.03172698]
[-0.01974272 -0.00711013]
[ 0.02277954 -0.00302068]
[-0.01752151 -0.00111595]
[ 0.013734   -0.00011066]
[ 0.00654401 -0.00919209]
[-0.00178627 -0.00067048]
[ 0.02835104 -0.02035509]
[-0.02055266  0.01485042]
[ 0.01046272 -0.01055723]
[0.01979824 0.00103385]
[-0.02949365  0.01908479]
[-0.00618429  0.00129429]
[ 0.00519811 -0.00070529]
[ 0.00749886 -0.01426135]
[-0.00223137 -0.01093906]
[-0.02964745  0.03647886]
[-0.00883876  0.00262105]
[-0.0072358   0.00586094]
[-0.02635211  0.00885468]
[0.00290243 0.00498962]
[-0.0113388  -0.01405619]
[-0.01879012  0.00031114]
[-0.00334388 -0.02172164]
[0.00707997 0.0119055 ]
[0.01471179 0.00494007]
[-0.0224942   0.00221836]
[-0.0191029   0.00020355]
[ 0.00839551 -0.02067007]
[-0.01047482  0.02154836]
[-0.01070819  0.02278926]
[-0.04362987  0.04841268]
[-0.08732697  0.08752873]
[-0.00896614 -0.0083988 ]
[-0.01692247  0.013866  ]
[-0.02155261  0.0387895 ]
[-0.02185516  0.01862721]
[-0.01698672  0.01439389]
[-0.01147581  0.02264274]
[-0.00357515 -0.02827696]
[ 0.04213009 -0.06445321]
[-0.00100305  0.00575772]
[-0.01286555  0.01419781]
[ 0.01766633 -0.00914133]
[ 0.00618074 -0.01435717]
[-0.00909405 -0.00695071]
[-0.01347025 -0.01417062]
[ 0.03617131 -0.03157632]
[ 0.01901009 -0.00628819]
[-0.01097856  0.00562831]
[0.019065   0.00799376]
[-0.00906287 -0.01678908]
[-0.00976304  0.01165448]
[0.00469289 0.00053055]
[0.00475448 0.00587899]
[ 0.04561102 -0.03832817]
[-0.01237551  0.00055686]
[-0.00417505  0.0186452 ]
[ 0.00402344 -0.01209865]
[ 0.01555027 -0.01372885]
[-0.01510341  0.01503154]
[-0.00495275 -0.00422625]
[0.00351509 0.01658969]
[0.00618962 0.00112119]
[0.00072025 0.00036641]
[-0.00621853 -0.01240727]
[-0.01021563  0.00919158]
[ 0.02027924 -0.01628564]
[-0.01711974  0.01588946]
[-0.00375282 -0.01696632]
[0.01151716 0.01218776]
[-0.02954587  0.00784771]
[-0.04465039  0.04675763]
[0.01160773 0.00603264]
[-0.01583739 -0.01825254]
[0.00875812 0.00965568]
[ 0.00842888 -0.00069173]
[ 0.03204447 -0.00466215]
[-0.01324389  0.01149098]
[ 0.03955467 -0.01521121]
[-0.0605737   0.06975119]
[ 0.01680726 -0.01044983]
[ 0.01588645 -0.01141274]
[-0.0095524   0.00049535]
[-0.01541354  0.01573613]
[ 0.05193956 -0.03201386]
[ 0.00363077 -0.00970135]
[ 0.02715868 -0.04212067]
[-0.11281293  0.10617314]
[ 0.00533705 -0.01403845]
[ 0.01002527 -0.00993968]
[0.02273416 0.00092206]
[-0.01721711 -0.0010621 ]
[ 0.00931005 -0.00329656]
[0.00918777 0.01552107]
[0.00183081 0.01134995]
[-0.00033505  0.0115268 ]
[0.00567378 0.01079343]
[-0.00127557 -0.00673612]
[ 0.00052368 -0.01168163]
[ 0.00159006 -0.00625774]
[ 0.02525201 -0.00951585]
[-0.00569921  0.0044585 ]
[-0.00225859  0.0141784 ]
[ 0.01256755 -0.0120992 ]
[-0.01620001 -0.0107141 ]
[0.01118065 0.00845522]
[0.0137678  0.00054016]
[-0.00734221 -0.00573709]
[-0.02875911  0.01674883]
[-0.01821181  0.00048421]
[-0.0334084   0.01335238]
[-0.03501026  0.04142882]
[-0.0103127   0.01900785]
[ 0.00527846 -0.00717283]
[-0.00415877  0.00207723]
[ 0.02237796 -0.01654413]
[0.00467378 0.00864534]
[0.01168198 0.00781751]
[-0.01558311  0.01881476]
[-0.07765274  0.07398798]
[0.00981084 0.01184516]
[-0.01195979  0.00191376]
[0.01426292 0.01027897]
[ 0.02860909 -0.01486774]
[ 0.00216521 -0.00325764]
[ 0.00602411 -0.01066381]
[0.00329953 0.00235898]
[-0.02071299  0.03969704]
[0.00387594 0.00314852]
[0.00812298 0.00888769]
[0.00760344 0.0053177 ]
[-0.01338899 -0.00010638]
[ 0.00017994 -0.00634464]
[-0.00058444  0.01412034]
[-0.01100844  0.0118949 ]
[-0.02901954 -0.00175516]
[-0.01673411 -0.00612201]
[ 0.01310244 -0.00520269]
[0.00739314 0.00594325]
[-0.01494662  0.0227455 ]
[ 0.00106815 -0.00055232]
[0.00653131 0.01532769]
[-0.02088978 -0.00285869]
[-0.07555052  0.07146633]
[ 0.00412336 -0.00758209]
[-0.00657412 -0.00706555]
[-0.00646799 -0.00251575]
[0.00217478 0.02233983]
[-0.02655511  0.00543657]
[0.0108462  0.01716347]
[-0.01532554  0.00887216]
[-0.05998746  0.03977476]
[-0.00260921  0.01957107]
[ 0.01433439 -0.00974515]
[-0.01003118 -0.00691374]
[-0.02158923 -0.00187261]
[ 0.02094247 -0.01843775]
[0.02049481 0.00717917]
[ 0.01797372 -0.02154232]
[-0.03968948  0.02765413]
[ 0.00974171 -0.01374391]
[-0.01573598  0.00761632]
[0.01918874 0.00015252]
[-0.03557178  0.01898584]
[ 0.02058403 -0.0406612 ]
[ 0.00637209 -0.00223892]
[ 0.01492518 -0.01278516]
[-0.04580634  0.07943262]
[-0.01074997 -0.00747268]
[-0.00836764 -0.007233  ]
[0.00880242 0.00082979]
[-0.00322529 -0.01110442]
[ 0.03710276 -0.02390283]
[-0.00583426 -0.02018961]
[ 0.04954502 -0.0193988 ]
[-0.01160359  0.01037451]
[0.01156443 0.00635174]
[-0.00290117  0.0013877 ]
[-0.01134185 -0.00515589]
[ 0.04071154 -0.04533227]
[-0.01762853  0.02391122]
[0.00763575 0.01845102]
[0.00537016 0.00452981]
[ 0.0234256  -0.02228388]
[-0.00117519  0.01905596]
[-0.01209411 -0.00935224]
[0.01333297 0.01948769]
[-0.019902   0.0213267]
[-0.00817935  0.04221329]
[0.00862598 0.0091352 ]
[-0.03070263  0.0131381 ]
[-0.0366808   0.04083323]
[-0.00378876 -0.004189  ]
[0.00354667 0.00332128]
[-0.00192997 -0.00222569]
[-0.00134284 -0.00926438]
[-0.01409921  0.01305007]
[-0.01625002  0.0115925 ]
[-0.00699137  0.00595343]
[-0.04883926  0.03000751]
[-0.01336357 -0.01389875]
[ 0.0122453  -0.01425424]
[-0.01528186 -0.00454632]
[-0.01701768  0.00596883]
[-0.00177977  0.02605214]
[-0.01475521 -0.00685767]
[ 0.02027119 -0.01073622]
[-0.01810895  0.03515278]
[-0.0058951   0.00158926]
[-0.00976584 -0.01217445]
[-0.00279199  0.01598399]
[-0.01054534  0.01384557]
[0.00074814 0.02023085]
[-0.00934223  0.01694398]
[ 0.02077213 -0.03649487]
[-0.0133645   0.02106098]
[ 0.01139509 -0.01559403]
[-0.01203497 -0.00740861]
[-0.01362091  0.01364289]
[ 0.02852126 -0.02848614]
[ 0.00957345 -0.0157382 ]
[ 0.00369979 -0.01652213]
[ 0.02090877 -0.01588764]
[-0.06996313  0.07395601]
[-0.00332782  0.0049398 ]
[ 0.00404058 -0.0254349 ]
[0.00357647 0.00331469]
[ 0.00888909 -0.01191211]
[-0.00086627 -0.00209528]
[0.00296289 0.01112882]
[ 0.00952823 -0.00882317]
[-0.03721373  0.03995984]
[-0.01724965 -0.00791279]
[-0.01027315 -0.00071008]
[-0.00536759 -0.00168093]
[ 0.01916336 -0.00748323]
[-0.00779252 -0.00497601]
[-0.01220878  0.01425697]
[-0.00621508  0.00935376]
[-0.02491695  0.00295081]
[0.00478896 0.00490801]
[-0.00324277  0.00157531]
[-0.0343458   0.00561772]
[-0.00460942 -0.00771983]
[-0.01156372 -0.01783939]
[-0.00848669 -0.01411986]
[-0.012488   -0.01321274]
[-0.01994101 -0.001918  ]
[-0.01625375 -0.01397024]
[0.01294672 0.00552522]
[0.00247571 0.01838634]
[ 0.02380368 -0.0267089 ]
[-0.03084911  0.02294596]
[-0.01024341 -0.01479518]
[ 0.02968264 -0.04663762]
[-0.11506349  0.09023794]
[0.01751429 0.00790029]
[-0.00328076 -0.00654773]
[-0.03089782  0.02032037]
[ 0.00805325 -0.00831245]
[ 0.03017328 -0.00757644]
[-0.01504962  0.01165441]
[-0.02165543  0.01776705]
[ 0.00277879 -0.03236406]
[-0.00986969 -0.00845166]
[-0.00188271  0.00773648]
[ 0.00897179 -0.01242777]
[0.00609329 0.01972375]
[ 0.01981824 -0.01465502]
[ 0.00759861 -0.00871759]
[ 0.07641312 -0.07337165]
[-0.02798964  0.02958181]
[-0.01026748 -0.020729  ]
[-0.0059799  -0.01622104]
[-0.01311495 -0.00598752]
[ 0.00301221 -0.00010476]
[ 0.018808   -0.02199263]
[-0.00961763 -0.00876457]
[ 0.03372986 -0.02835523]
[ 0.00889404 -0.00220996]
[-0.00496499 -0.00881273]
[0.00313035 0.00054021]
[0.00882245 0.0034266 ]
[ 0.01759324 -0.01810809]
[0.01524247 0.00385574]
[0.00077028 0.00265628]
[-0.00553983  0.01631664]
[0.00779764 0.00581508]
[-0.0097787  -0.00196279]
[ 0.00506666 -0.0043651 ]
[-0.00596128  0.01262679]
[-0.0039727   0.01593317]
[ 0.00765084 -0.00914639]
[ 0.01641427 -0.00848862]
[-0.00686168  0.02554324]
[-0.01029848  0.00647232]
[ 0.00568736 -0.00723785]
[0.01782843 0.01039452]
[0.00843913 0.01575706]
[-0.02446247  0.01589951]
[-0.0014435  -0.00346584]
[-0.00977905  0.01250187]
[-0.00410054  0.02862238]
[-0.04567222  0.07374607]
[0.01821212 0.01199402]
[-0.01388019  0.00867158]
[0.00334299 0.00209658]
[0.0039593  0.01245155]
[ 0.02388226 -0.00980046]
[ 0.00275007 -0.01751282]
[ 0.0643333  -0.05355996]
[ 0.00108724 -0.00238696]
[ 0.00582276 -0.01455512]
[-0.02340599  0.02752385]
[ 0.00186654 -0.00280546]
[0.01107923 0.02350761]
[-0.0034481   0.01055762]
[-0.00401555 -0.0004733 ]
[-0.03197713  0.00826935]
[-0.00723533  0.00585624]
[ 0.00907943 -0.00759601]
[-0.0088353   0.01214628]
[0.01193352 0.00132019]
[-0.01084101  0.00874093]
[ 0.00905831 -0.00507372]
[-0.00826383  0.01132588]
[-0.00515441  0.03279716]
[-0.03233431  0.02454438]
[ 0.0126636  -0.01538075]
[-0.01694959 -0.00719684]
[-0.00817854  0.00337877]
[-0.01939974 -0.00957771]
[ 0.02499739 -0.02235071]
[-0.02035528  0.00965   ]
[ 0.00311967 -0.00403391]
[-0.00950611  0.0075952 ]
[ 0.01001737 -0.01329216]
[-0.01380848 -0.00996996]
[0.01491713 0.01809622]
[-0.01523005  0.0176753 ]
[-0.01279001 -0.00470773]
[-0.01335108  0.02005288]
[ 0.02267206 -0.02895064]
[-0.0129773   0.01710661]
[-0.00554552 -0.00758502]
[-0.01164664  0.01149129]
[-0.02553609  0.00114146]
[ 0.05473088 -0.07051667]
[-0.00168253  0.0234605 ]
[ 0.00826795 -0.01288928]
[-0.03126112  0.02158926]
[-0.1127307   0.10607078]
[ 0.01204867 -0.01194222]
[1.270716e-02 9.812522e-05]
[0.01393984 0.00977604]
[0.00667494 0.01211845]
[-0.00489761 -0.00302848]
[0.01117284 0.00698449]
[-0.03793657  0.02364219]
[-0.05402353  0.05479834]
[-0.01316764  0.00234954]
[0.00024266 0.00385394]
[0.00470256 0.01868172]
[-0.00529901  0.01853019]
[-0.03141486  0.02750678]
[ 0.00944313 -0.01428141]
[-0.00833161  0.0119086 ]
[-0.06393314  0.04824095]
[-0.01603237 -0.00839608]
[0.00376394 0.00516052]
[-0.00703116 -0.00697587]
[-0.02143852  0.02954131]
[-0.00528621 -0.01380021]
[ 0.00311329 -0.01085163]
[-0.00191958 -0.02689231]
[-0.05821885  0.04219971]
[-0.01406116 -0.00904127]
[0.01228611 0.00031329]
[-0.00127763 -0.00946514]
[-0.01563738 -0.00540701]
[ 0.03512295 -0.02296208]
[-0.00850748 -0.02377403]
[0.00789605 0.01520923]
[-0.02043344  0.03284816]
[ 0.01133223 -0.01044278]
[0.01816152 0.0144261 ]
[-0.00269986 -0.01800293]
[-0.01415386  0.0124854 ]
[ 0.00864807 -0.00380814]
[ 0.00297113 -0.00475372]
[-0.01458906 -0.01211738]
[-0.00286805  0.00469454]
[-0.01059926 -0.01336131]
[4.0278295e-03 3.5879464e-05]
[0.02048503 0.00544317]
[-0.00018037  0.0084088 ]
[ 0.03742016 -0.03926602]
[-0.00154415 -0.00804275]
[-0.01157618  0.00075444]
[-0.02491105  0.03630407]
[-0.00666983  0.02204495]
[-0.01653016  0.01073616]
[-0.00498829  0.00666769]
[-0.02785191  0.0274308 ]
[ 0.02236803 -0.03160167]
[-0.0175589  0.0014802]
[ 0.0184469  -0.02016943]
[-0.00554962  0.00687172]
[ 0.01464805 -0.01517864]
[-0.02047813  0.00285017]
[-0.00037972  0.01542197]
[ 0.06307674 -0.06318432]
[-0.00683387  0.01038826]
[-0.01257273 -0.0011685 ]
[0.00453884 0.00113612]
[-0.0508687   0.05506054]
[-0.01070228 -0.011976  ]
[-0.01589851  0.01536683]
[-0.00477035 -0.00163168]
[0.00941904 0.00457951]
[-0.01319745  0.00152367]
[ 0.01057141 -0.00235836]
[-0.00256517  0.00847823]
[-0.0549712   0.04401844]
[-0.01003208 -0.00212605]
[ 0.01014934 -0.00633262]
[ 0.00577073 -0.00594668]
[-0.01882234  0.01542914]
[-0.01767127  0.01289828]
[0.0058839  0.01715733]
[0.00679452 0.0098241 ]
[-0.01808404  0.00229134]
[-0.01148235  0.00885109]
[-0.01383534  0.00866199]
[-0.06144299  0.03212586]
[-0.00087454 -0.01297393]
[-0.01367246  0.04115119]
[-0.0171107  -0.01280536]
[-0.03653812  0.01574017]
[ 0.09315329 -0.08271518]
[ 0.01426279 -0.01356873]
[0.00264736 0.00181771]
[-0.01496572  0.01112978]
[-0.00667638 -0.00909745]
[-0.0110789  0.0134018]
[ 0.00243192 -0.00270485]
[-0.02443184  0.02099479]
[ 0.03572239 -0.0181527 ]
[-0.00695853 -0.0103444 ]
[-0.01785286 -0.00573613]
[-0.00793995  0.00774509]
[-0.00129425  0.00837655]
[0.01269202 0.01040621]
[-0.0111483  -0.00748839]
[-0.00241987 -0.0232249 ]
[-0.04631658  0.05796677]
[0.00864588 0.00859746]
[-0.00678791  0.00462602]
[-0.0035585  -0.00573003]
[ 0.0054767  -0.00548979]
[-0.01796955 -0.01552305]
[ 0.00418677 -0.0100721 ]
[-0.00661841 -0.00402213]
[-0.02742014  0.00839111]
[-0.02250797  0.00723471]
[0.00037507 0.00506781]
[ 0.00953461 -0.01207565]
[-0.00390223  0.00974918]
[-0.02163211  0.01660069]
[ 0.01748119 -0.0038145 ]
[0.00222288 0.00406372]
[-0.03002595  0.01511155]
[-0.00959395 -0.00028217]
[ 0.00835551 -0.00959708]
[-0.0192026   0.00867612]
[ 0.00235028 -0.01804062]
[-0.013059   -0.00110753]
[0.01372746 0.00511415]
[-0.02200914  0.01188295]
[-0.00981605  0.0112821 ]
[ 0.0051786  -0.00663098]
[0.00462282 0.0173341 ]
[-0.00151185 -0.0035894 ]
[ 0.01945033 -0.0210663 ]
[-0.01107555 -0.00736755]
[ 0.00992073 -0.00615407]
[-0.01858167 -0.01336598]
[-0.0007508   0.02723514]
[0.00160765 0.01531092]
[0.02320956 0.00474628]
[0.00161073 0.02290869]
[-0.02924738  0.01410403]
[-0.0185179   0.00659306]
[-0.00305105  0.01324719]
[ 0.04528578 -0.03697945]
[-0.07974756  0.09020937]
[0.01815523 0.00436588]
[ 0.01090563 -0.01122793]
[-0.01113033  0.01473031]
[0.00833141 0.00638086]
[-0.00913585  0.01197129]
[-0.00021599  0.00871727]
[ 0.02772109 -0.01684678]
[ 0.0056905  -0.01524185]
[-0.00446512  0.00012701]
[-0.00954485 -0.00651264]
[ 0.01437979 -0.00575655]
[0.0084457  0.01456129]
[-0.03896433  0.03572951]
[-0.01367419 -0.00523575]
[-0.04900688  0.05650093]
[-0.01527758  0.01195298]
[-0.01312546  0.01264153]
[-0.02756832  0.00329366]
[-0.01324724  0.0078003 ]
[-0.01031985  0.00925901]
[-0.00041196 -0.01650874]
[0.00967336 0.00282654]
[-0.01890447  0.0177306 ]
[-0.04923528  0.06566914]
[-0.00720935 -0.0160787 ]
[0.00316164 0.00784282]
[-0.01302037  0.01473124]
[0.00176624 0.01135572]
[ 0.00269725 -0.00849302]
[ 0.00296971 -0.00495887]
[ 0.00872375 -0.01104498]
[-0.10760789  0.08456336]
[ 0.01025424 -0.01044678]
[-0.00717718  0.01551903]
[-0.00994954 -0.01102813]
[-0.01670646 -0.00274154]
[ 0.00196726 -0.03041559]
[ 0.01273267 -0.01180866]
[-0.01136622 -0.00089197]
[0.00549588 0.01857359]
[0.00679698 0.02274548]
[0.00968224 0.01253844]
[-0.0060338  -0.01938199]
[0.00641782 0.00575899]
[-0.0072021   0.01793066]
[-0.008694    0.01357094]
[-0.01799548 -0.00131454]
[-0.0119192   0.00859614]
[0.00393961 0.00250887]
[ 0.00256382 -0.00231049]
[-0.01501738  0.01530629]
[0.00575948 0.00632696]
[ 0.05793972 -0.04646045]
[ 0.00062433 -0.00396316]
[ 0.03333119 -0.05115228]
[-0.02118139  0.0389478 ]
[-0.01867729  0.01957604]
[-0.00976097 -0.00056635]
[ 0.01129708 -0.01817132]
[-0.01084225  0.00378871]
[-0.00533747 -0.00239577]
[ 0.01770381 -0.00412202]
[0.00784716 0.02084217]
[0.0065995  0.01264784]
[-0.0106151   0.00029902]
[0.01394376 0.00883239]
[-0.01538199  0.02626737]
[ 0.04071457 -0.04515927]
[-0.01194857  0.01104858]
[-0.01385087  0.00863182]
[ 0.07036387 -0.06599615]
[-0.05857196  0.06443827]
[-0.00825255  0.01447646]
[-0.01059977 -0.01998129]
[-0.01036386 -0.00293517]
[ 0.00363918 -0.00900539]
[ 0.04791584 -0.01751453]
[-0.01572918 -0.01228169]
[ 0.06345633 -0.06563721]
[0.0048568  0.01077224]
[0.01402208 0.00141718]
[ 0.01590956 -0.01518702]
[0.01705207 0.00977995]
[0.01061584 0.00445435]
[0.00292277 0.01037043]
[0.01083445 0.00627762]
[-0.02380127  0.01307891]
[-0.07333558  0.08264428]
[-0.01689671 -0.00383114]
[0.00955303 0.00816242]
[0.00569555 0.01847626]
[-0.01911019  0.03054382]
[-0.02630942 -0.00400356]
[ 0.0065698  -0.01090492]
[-0.03695942  0.02726216]
[-0.05766234  0.05787639]
[-0.00711579  0.01538686]
[0.00718452 0.0026968 ]
[ 0.00250828 -0.00752025]
[-0.0307396   0.02494618]
[ 0.03888081 -0.05822878]
[ 0.0006845  -0.00687575]
[ 0.01683074 -0.032955  ]
[-0.05045034  0.03752667]
[0.0118779  0.00378792]
[0.01109271 0.01510842]
[ 0.00115011 -0.00333221]
[-0.02076922  0.01476405]
[ 0.02363363 -0.04046523]
[ 0.00528112 -0.01411843]
[-0.03063966  0.00699101]
[-0.03357905  0.05733234]
[ 0.0125071  -0.00790946]
[ 0.0126387  -0.01005231]
[0.01373195 0.00562608]
[-0.01762022 -0.01027915]
[ 0.02857333 -0.01652318]
[-0.00999412 -0.01398787]
[ 0.03390845 -0.0021455 ]
[-0.00519638  0.02618462]
[-0.01520521 -0.01659376]
[-0.00593624 -0.01015217]
[ 0.00650823 -0.0152605 ]
[-0.0095127 -0.019748 ]
[ 0.00112482 -0.01716863]
[-0.01586892 -0.00756987]
[-0.0186512   0.01605694]
[-0.00907492 -0.01250782]
[-0.01599037  0.01218387]
[ 0.01402108 -0.00504929]
[ 0.01776007 -0.01906874]
[ 0.00758906 -0.00530648]
[ 0.01285898 -0.02228478]
[0.00649278 0.00095172]
[ 0.00729987 -0.0362105 ]
[-0.02513161  0.02520231]
[-0.00368407 -0.003911  ]
[0.01042785 0.00654239]
[ 0.00963513 -0.00109828]
[-0.01038023  0.00172881]
[ 0.03491168 -0.02867989]
[0.01465021 0.00228028]
[0.00688917 0.01131996]
[-0.06444632  0.069883  ]
[ 0.00862984 -0.00382325]
[0.00408908 0.01044672]
[-0.01569825  0.00303149]
[-0.01588988  0.01650963]
[-0.01338652  0.00041867]
[-0.00412465  0.00634341]
[-0.01909364  0.01187639]
[-0.08488761  0.08809568]
[0.00831645 0.01166728]
[ 0.00522826 -0.00371294]
[-0.02460767  0.0139215 ]
[0.00389252 0.02188055]
[-0.0204295   0.01174989]
[-0.02020556  0.01247067]
[-0.02675819  0.02448006]
[-0.04057518  0.02252514]
[-0.01840676  0.01004953]
[0.0131521  0.00582828]
[-0.06830502  0.05000443]
[-0.00513983 -0.00030411]
[-0.01743226  0.03860255]
[0.01397756 0.00255831]
[-0.02440307  0.00728403]
[ 0.07057273 -0.04854137]
[ 0.00562262 -0.00686809]
[ 0.00376072 -0.01498411]
[ 0.01352615 -0.00737943]
[0.0028737  0.01561015]
[0.00733567 0.00449185]
[ 0.01488348 -0.01939739]
[ 0.04554898 -0.04570238]
[ 0.02615248 -0.01747229]
[ 0.01621873 -0.00517964]
[-0.00171614 -0.01015461]
[ 8.1795610e-05 -2.1165213e-02]
[-0.00876454 -0.00973444]
[-0.01279679  0.00621499]
[-0.00195476  0.01161087]
[ 0.00706951 -0.00164788]
[-0.02388074  0.00623416]
[0.00902311 0.0049932 ]
[ 0.01601552 -0.01512182]
[ 0.00011591 -0.01584291]
[-0.01850494  0.00680045]
[0.007207   0.01815597]
[-0.01093242  0.01387933]
[ 0.00625227 -0.02135926]
[-0.01594091  0.01056134]
[-0.00664357  0.01080788]
[-0.00434725  0.01076749]
[ 0.01727394 -0.00375334]
[0.01675248 0.00524178]
[ 0.00347664 -0.00829508]
[-0.01154731  0.00235495]
[-0.01159232  0.00047038]
[0.00034776 0.00859293]
[ 0.01318106 -0.01397969]
[ 0.01490436 -0.00102435]
[ 0.02208881 -0.01073177]
[-0.0048622  -0.01486768]
[0.00722808 0.00129665]
[-0.00771145 -0.00304908]
[0.01828373 0.00890334]
[-0.01534308  0.0201999 ]
[-0.0097474   0.00797482]
[-0.00923972 -0.0159117 ]
[ 0.00213158 -0.00492947]
[-0.01335853  0.01428915]
[-0.02230531  0.00466981]
[-0.00582128 -0.00831279]
[-0.00505628  0.00273166]
[-0.01934378 -0.00644727]
[-0.01287724  0.01350185]
[-0.00389453  0.00652572]
[-0.01428218 -0.00079968]
[ 0.00709716 -0.00553586]
[-0.00434404  0.0094276 ]
[0.01662272 0.01103621]
[-0.0132161 -0.0104596]
[-0.01916753 -0.00903095]
[0.01440159 0.00760552]
[9.188924e-05 8.519956e-03]
[-0.00705766 -0.01568576]
[ 0.0197749  -0.01334153]
[ 0.01546793 -0.00816383]
[9.7854370e-03 2.7770297e-05]
[ 0.02432748 -0.00589159]
[-0.07017472  0.07549506]
[-0.00991988  0.00934704]
[ 0.00660494 -0.02341892]
[-0.01169651  0.0014815 ]
[-0.00121841  0.016285  ]
[0.01825201 0.0015316 ]
[-0.00273191 -0.00480395]
[ 0.00776857 -0.03393435]
[ 0.02542384 -0.05468093]
[0.00345498 0.01609649]
[-0.01275229 -0.00658406]
[0.00026464 0.00630846]
[ 0.01516305 -0.02663278]
[ 0.02061066 -0.01430076]
[-0.00629567 -0.00147881]
[-0.00669368 -0.0209501 ]
[ 0.02085936 -0.03829588]
[-0.00266266  0.00602612]
[-0.00452233 -0.01426372]
[ 0.00990838 -0.00262101]
[-0.00339786 -0.00502032]
[ 0.01639522 -0.01153688]
[-0.00502006  0.01021325]
[-0.0150695  -0.00656741]
[-0.00786234  0.0228849 ]
[0.0096247  0.01430184]
[0.01033475 0.01117999]
[-0.00799959  0.00552676]
[0.00231945 0.01914836]
[ 0.02498611 -0.01296338]
[0.01564399 0.01202759]
[-0.00834341  0.0126455 ]
[-0.04288291  0.05378006]
[-0.01127428  0.00064959]
[0.0125715  0.01753467]
[ 0.0162572  -0.00150413]
[-0.00658971 -0.00109723]
[ 0.03078862 -0.00660761]
[-0.01519781  0.01797178]
[-0.03169933  0.01425574]
[0.00258085 0.00959288]
[-0.01664039 -0.01487813]
[-0.00305058 -0.01295516]
[-0.00170339  0.01634456]
[-0.01270727  0.0189955 ]
[-0.00146528 -0.00985855]
[-0.01331361  0.00333613]
[0.00830602 0.00413932]
[0.01374585 0.00920463]
[-0.00512085 -0.00436796]
[-0.00335414  0.01912559]
[ 0.00134355 -0.01773533]
[-0.01787745  0.00907076]
[-0.00139117  0.02266325]
[0.01449802 0.00882315]
[ 0.01679535 -0.00426177]
[-0.01169297  0.00048533]
[-0.02059846  0.01320396]
[-0.00918187 -0.01099324]
[-0.00742368  0.00045726]
[-0.01631867  0.00245326]
[ 0.02118618 -0.00081829]
[0.00308905 0.01759839]
[0.00406198 0.0206452 ]
[-0.0015506  -0.00416358]
[-0.0228427   0.00756688]
[-0.0114393   0.00432425]
[-0.0152628   0.00117796]
[0.01231561 0.00652477]
[ 0.00700171 -0.00470989]
[-0.02088058 -0.00284296]
[-0.01623151  0.02501443]
[0.00444357 0.00213246]
[0.00953532 0.0161741 ]
[-0.00843582  0.00722675]
[ 0.00424045 -0.00112363]
[-0.00825678 -0.00109897]
[ 0.03440856 -0.02748162]
[0.0053718  0.00348295]
[-0.02297496  0.01699864]
[-0.06985164  0.05347739]
[-0.02073811  0.01388867]
[-0.00098605 -0.01252492]
[-0.00497527  0.01003794]
[-0.03380991  0.00764264]
[0.00734969 0.01083583]
[ 0.02347444 -0.02294187]
[-0.02106451  0.00559935]
[-0.04984795  0.06135455]
[-0.00298395 -0.01290654]
[-0.00623652 -0.01270072]
[0.00864631 0.01207931]
[-0.0084296   0.01562026]
[ 0.0126594  -0.01715002]
[-0.00344433 -0.02046481]
[-0.02022509  0.00015949]
[-0.05178285  0.05068582]
[-0.0073662  -0.01537782]
[0.00643035 0.00019018]
[ 0.01733359 -0.02337002]
[-0.00998089  0.00739648]
[ 0.02084713 -0.02887673]
[-0.00714543 -0.0006273 ]
[-0.00298913  0.00279038]
[-0.04476383  0.05441146]
[-0.00867573  0.00702627]
[0.00550527 0.01447996]
[-0.00706103 -0.00085466]
[-0.01298589 -0.00200971]
[ 0.0369543  -0.03430872]
[ 0.00093208 -0.00412049]
[ 0.02960533 -0.03525491]
[-0.0304399  0.0155275]
[0.00906505 0.00255147]
[0.01320515 0.01501163]
[-0.00577148 -0.00965645]
[-0.01147883  0.00547181]
[ 0.00655324 -0.00563863]
[ 0.00083582 -0.0158924 ]
[ 0.0204545  -0.00475582]
[-0.01934503  0.02438171]
[-0.01675384 -0.00570244]
[0.00659376 0.01125111]
[-0.01110268 -0.00960313]
[-0.00244642  0.00915039]
[ 0.04160108 -0.03709758]
[-0.00380518 -0.01351771]
[ 0.01196117 -0.00448942]
[-0.17881103  0.19348083]
[-0.01441209 -0.01144795]
[ 0.00955076 -0.00620219]
[-0.01287858  0.00018652]
[ 0.01354579 -0.01168988]
[ 0.00292043 -0.00018439]
[ 0.01136255 -0.00816191]
[-0.01431799  0.02561852]
[-0.05169838  0.07681365]
[-0.01215536 -0.00711036]
[0.00564475 0.01445889]
[-0.01444218  0.01506214]
[0.0191926  0.00117383]
[-0.03168212  0.03334832]
[-0.00324479  0.02212496]
[-0.01632386  0.00758909]
[-0.08297572  0.09028252]
[-0.0171721  -0.00919207]
