layers 4
layer 0 Convolution2D
3 3 1 8 same
[-0.10929004 -0.10455305 -0.13429911  0.17888586  0.10156144 -0.08084123
 -0.07362623  0.00038087]
[-0.24008262 -0.30145    -0.26764885 -0.13133943  0.26298192  0.15591565
  0.23735629 -0.22368272]
[ 0.06326728 -0.29883203  0.17562129 -0.16716164 -0.16933423 -0.02008421
  0.03167449  0.15333478]
[-0.14556257  0.20797715 -0.23871472 -0.2181776  -0.26255283 -0.18888961
 -0.14247361 -0.06812995]
[-0.00968203 -0.05183385 -0.01555436 -0.3157942  -0.2016951   0.2902134
 -0.05301477  0.03926476]
[-2.2598223e-01 -9.6415944e-02  3.3298761e-01 -5.9652653e-02
 -1.0611854e-01 -2.3739628e-01  1.3432889e-04 -4.4616222e-02]
[-0.07114665  0.07526616  0.29795027  0.27910438  0.22265896 -0.12452862
  0.02115596  0.01719978]
[ 0.01459324 -0.10143636 -0.20531684  0.09632413  0.09224489 -0.25829557
 -0.2743222  -0.23945375]
[-0.03315274 -0.11171492  0.05444825  0.2051974   0.07482544  0.18594047
 -0.19706729  0.22644901]
[ 0.01266557  0.01007228  0.01994051  0.00367164 -0.00848344  0.01224275
  0.00361987  0.01536821]
layer 1 MaxPooling2D
2 2
layer 2 Flatten
layer 3 Dense
18432 2
[ 0.01802464 -0.01195328]
[-0.00603864  0.01134893]
[ 0.01282376 -0.00046682]
[-0.00279332  0.02442845]
[-0.00342213  0.01180749]
[-0.02631038  0.00388588]
[-0.00636093  0.00898106]
[-0.01797284  0.01511229]
[-0.00877292 -0.00995492]
[-0.00532879  0.00898107]
[-0.0201101   0.00348085]
[ 0.00433039 -0.00879734]
[0.0129002  0.01295066]
[-0.00338455  0.00084539]
[ 0.01180782 -0.00844887]
[-0.01652375  0.02292172]
[ 0.00742516 -0.00858137]
[0.00793042 0.01634376]
[-0.03015273  0.03921476]
[-0.02020432  0.01459822]
[0.00491099 0.02735667]
[-0.00261066  0.01087515]
[-0.00776965 -0.01135953]
[-0.01422082  0.02575615]
[ 0.00285583 -0.01814334]
[0.00312969 0.02284608]
[-0.0050817   0.00610451]
[0.00279195 0.01579326]
[-0.00940473  0.00084561]
[0.01393711 0.00645755]
[ 0.00125556 -0.0064422 ]
[-0.03303932  0.01561384]
[-0.01279506  0.00890887]
[0.01412834 0.00757788]
[-0.01218185  0.01080155]
[ 0.00716978 -0.00861765]
[-0.00405857 -0.00181497]
[0.00011027 0.00779072]
[ 0.01925528 -0.01688295]
[0.0053364  0.01547336]
[-0.0145913  -0.01745429]
[-0.00578141  0.00752101]
[0.00057506 0.00274902]
[ 0.00134589 -0.00702136]
[-0.0080878   0.01324193]
[ 0.00283827 -0.00199185]
[-0.01211449 -0.00577248]
[-0.01767971  0.02227499]
[ 0.01855933 -0.01832153]
[-0.01182017  0.03703488]
[-0.00908039  0.03022658]
[-0.02431182  0.00667546]
[-0.0198896   0.02543123]
[-0.0121729   0.01511617]
[-0.01260093  0.00149045]
[-0.01961796 -0.00085056]
[ 0.00737649 -0.0175162 ]
[-0.00736124 -0.00245992]
[-0.01698438  0.02609662]
[0.00045312 0.01772703]
[-0.0234009   0.00101376]
[-0.01429625  0.00822571]
[-0.01054907  0.01451446]
[-0.00083185  0.02158363]
[-0.01260382 -0.00064942]
[-0.02599676  0.0240883 ]
[0.0076136  0.00295209]
[-0.00476888 -0.00457187]
[-0.03970809  0.01635097]
[-0.02597716  0.00902681]
[-0.01975542 -0.00452208]
[-0.00546393  0.0187858 ]
[-0.00041348 -0.01439445]
[0.0029287  0.02456131]
[-0.01405943 -0.00392986]
[ 0.01177212 -0.01572577]
[-0.02913817  0.02565418]
[0.00596664 0.00758776]
[ 0.00538689 -0.01199166]
[ 0.00652568 -0.00130887]
[-0.00151354 -0.01417466]
[-0.00790115  0.0195093 ]
[ 0.00423085 -0.01392112]
[-0.01987922  0.01741176]
[-0.03094874  0.0421469 ]
[-0.01992166  0.00435917]
[0.007497   0.00484187]
[-0.00771952  0.01308691]
[ 0.00590736 -0.01879418]
[-4.6028545e-05 -9.0122956e-04]
[ 0.00336782 -0.00446993]
[ 0.00244124 -0.00448888]
[-0.02440796  0.03166662]
[-0.02297127  0.01673782]
[ 0.01073858 -0.01284803]
[ 0.0139332  -0.00948855]
[-0.01035002 -0.0087549 ]
[-0.01257785  0.03941211]
[ 0.00772235 -0.00436942]
[-0.02971027  0.0320559 ]
[-0.01871379  0.04842503]
[-0.00391215 -0.00759362]
[-0.02249734 -0.00350379]
[-0.01512422 -0.01517574]
[ 0.00924977 -0.00241357]
[-0.02533848  0.0175749 ]
[ 0.0038921  -0.00171127]
[-0.0455092   0.04144132]
[-0.04668628  0.03460595]
[-0.02326105  0.01955067]
[-0.00554987  0.01282586]
[-0.00615013  0.01465436]
[0.01541366 0.01310866]
[-0.0357875   0.02267832]
[ 0.00544457 -0.01287409]
[-0.05313333  0.05007272]
[-0.05178539  0.02690757]
[-0.00031865  0.0169973 ]
[-0.01343153  0.00033419]
[-0.02416909  0.02307199]
[0.00089786 0.00769932]
[-0.01062571  0.03104614]
[0.00788892 0.01221889]
[-0.04473689  0.02869285]
[-0.02663315  0.04260236]
[-0.00585608 -0.00950354]
[0.00134368 0.02166932]
[-0.01063211  0.0085914 ]
[0.0057163  0.01478275]
[-0.02861736  0.02002783]
[ 0.00701259 -0.02360096]
[ 0.0058771  -0.01480005]
[-0.04430311  0.04553517]
[-0.01893582 -0.01026834]
[-0.0039659 -0.0044489]
[-0.01299183  0.00486846]
[-0.00521067 -0.00105907]
[-0.01635122  0.01034729]
[-0.00456435  0.01273277]
[ 0.0681729  -0.03444167]
[-0.06727204  0.08091749]
[0.01077787 0.021563  ]
[-0.01062295 -0.00656073]
[-0.01620694 -0.00238186]
[-0.00609431 -0.00467332]
[-0.02135579 -0.0004836 ]
[-0.00747563 -0.00982159]
[-0.00537746 -0.02215477]
[-0.07492868  0.08839296]
[-0.01166451 -0.00887091]
[0.01521843 0.00088602]
[-0.02037683  0.02254631]
[-0.0073139   0.01156607]
[0.00424969 0.00620302]
[ 0.02748956 -0.02486635]
[-0.05035075  0.03614201]
[-0.00849524  0.00352178]
[-0.0157664   0.01797136]
[-0.00514631 -0.0150727 ]
[-0.01311345  0.00741325]
[0.01664487 0.00346538]
[ 0.01182137 -0.00981312]
[ 0.01422609 -0.02386427]
[-0.01200111  0.00568969]
[0.00104969 0.02016176]
[ 0.01597972 -0.00037359]
[ 0.00930119 -0.01482611]
[-0.00877074  0.01712986]
[0.01055362 0.00672825]
[ 0.03221161 -0.01105295]
[ 0.00905015 -0.01213487]
[-0.0083664 -0.0099899]
[-0.0052679   0.01115124]
[-0.00492151 -0.00715981]
[0.0111854  0.00836351]
[0.00198182 0.01061675]
[ 0.02131321 -0.01950194]
[ 0.0219661  -0.01420495]
[0.00088467 0.02593629]
[-0.00501555  0.00100361]
[0.01513057 0.01615375]
[-6.0890929e-05  1.2536259e-02]
[-0.00663117  0.00212139]
[-0.01950476  0.0011204 ]
[ 0.01341728 -0.00682437]
[-0.01353348  0.00647514]
[ 0.01593235 -0.01338288]
[0.00791489 0.00468768]
[ 0.00125185 -0.00658286]
[-0.0105909   0.01264937]
[ 0.01875212 -0.01213903]
[0.00979632 0.01415527]
[ 0.00744339 -0.02717002]
[ 0.01673244 -0.01268671]
[-0.01318581  0.01365824]
[ 0.00126863 -0.00381228]
[-0.01415473  0.01320381]
[ 0.02038831 -0.01704589]
[ 0.01987542 -0.00686423]
[ 0.00142357 -0.0085717 ]
[ 0.02666061 -0.00524926]
[0.01471736 0.01155021]
[-0.01448383 -0.01423656]
[-0.0033847  -0.01023436]
[ 0.00099524 -0.00018703]
[ 0.01421195 -0.01170818]
[0.00411954 0.00471687]
[ 0.00119384 -0.01575828]
[ 0.01283651 -0.00842352]
[-0.0176702  -0.00394445]
[0.00416706 0.00766025]
[0.00787671 0.01011295]
[-0.00214554  0.01899985]
[ 0.02159047 -0.00486684]
[ 0.01806995 -0.02933446]
[ 0.01660768 -0.00530375]
[-0.00743618 -0.01865427]
[0.01352804 0.0085288 ]
[-0.00672108  0.00917681]
[-0.02951128  0.01620262]
[-0.02019309 -0.00079937]
[0.00983781 0.00788288]
[0.00172112 0.00594194]
[-0.0242024   0.01410658]
[ 0.01689441 -0.00925756]
[-0.02535001  0.03277577]
[-0.03297401  0.02953445]
[-0.03022562  0.02303955]
[-0.0018998 -0.0040058]
[-0.00813603  0.02914134]
[0.01895741 0.00584054]
[-0.00807437 -0.02216611]
[0.00888977 0.01457885]
[-0.00086383  0.0132516 ]
[-0.01771343  0.02678513]
[0.00738705 0.00036808]
[-0.01768408  0.01309046]
[0.00354153 0.01799381]
[0.00912851 0.00643137]
[-0.00608329  0.00867594]
[0.00116273 0.00193068]
[ 0.00863205 -0.00679027]
[-0.02524969  0.01720773]
[-0.01420593 -0.00807882]
[-0.02079017 -0.00599573]
[ 0.0077533  -0.01228563]
[0.0234768  0.00467586]
[ 0.01056064 -0.00576199]
[ 0.00402551 -0.02026202]
[-0.00173606  0.01166652]
[-0.01743705  0.02312088]
[-0.00150201  0.02002568]
[-0.0139506   0.00767582]
[-0.00488453 -0.01405701]
[ 0.00087168 -0.01843473]
[-0.01064953 -0.0016871 ]
[-0.00130908 -0.01106519]
[-0.01557293  0.00122458]
[-0.01401727  0.0191434 ]
[-0.01153725  0.00500537]
[-0.01816414  0.00074594]
[-0.01552221  0.01254872]
[-0.01236451  0.00088397]
[-0.00532449  0.01780984]
[0.00643238 0.01140432]
[ 0.02121748 -0.00263593]
[-0.00838661  0.00177194]
[0.00387192 0.00263529]
[-0.00929888 -0.00830839]
[ 0.00626771 -0.01717095]
[-0.01405543  0.00165559]
[-0.0222022  0.0248797]
[-0.01010985 -0.02024872]
[-0.04209862  0.02366596]
[-0.01026502  0.00701666]
[0.01142314 0.01461302]
[-0.0039489   0.01473978]
[ 0.01936105 -0.0302483 ]
[-0.00099956 -0.01831592]
[-0.00133833 -0.01029883]
[-0.00702484 -0.02102293]
[-0.03781915  0.03039136]
[ 0.00168129 -0.00145186]
[0.01401234 0.01465681]
[-0.02205539  0.02231456]
[-0.00053603  0.01460049]
[0.00985261 0.01367583]
[ 0.02243843 -0.01793816]
[ 0.00462564 -0.00126514]
[0.00615056 0.00192651]
[-0.00890746  0.00596401]
[ 0.01292259 -0.02025009]
[-0.04083911  0.03624459]
[-0.00594096  0.00288532]
[0.00997304 0.0089108 ]
[-0.00060455  0.01286072]
[ 0.01300661 -0.00785002]
[-0.01690848  0.00557256]
[ 0.00852679 -0.01258682]
[-0.09837765  0.09891552]
[-0.03010875  0.01963072]
[ 0.00438039 -0.01239052]
[-0.00048413  0.00532797]
[ 0.01140699 -0.01180133]
[0.00141757 0.00428454]
[-0.01640621 -0.01728567]
[-0.00100336 -0.00642709]
[-0.06791024  0.056898  ]
[-0.03307163  0.02966038]
[-0.01376647  0.00830899]
[-0.0054166   0.00712604]
[-0.02284554  0.02449595]
[ 0.01202559 -0.00735374]
[-0.00947455 -0.01378037]
[-0.00969728 -0.00372114]
[-0.06484386  0.06406673]
[-0.01609768  0.015838  ]
[-0.01255225  0.01970351]
[-0.00653375  0.00973397]
[-0.01743134  0.00262906]
[-0.01956201 -0.00893141]
[-0.01028587  0.00530823]
[ 0.00980376 -0.00213949]
[-0.07234003  0.07356253]
[-0.02155677  0.02579972]
[-0.00950338  0.00415874]
[-0.02892542  0.00807831]
[-0.00738247  0.01877248]
[-0.00150535 -0.00835655]
[-0.01437356 -0.01941401]
[-0.00938445 -0.0014985 ]
[-0.10895399  0.09854377]
[-0.0369597   0.03139809]
[-0.00243437 -0.0049877 ]
[-0.01172789  0.00537167]
[0.00313777 0.00246332]
[-0.00393418 -0.00128401]
[-0.0037964  -0.01585777]
[-0.01073637 -0.00898353]
[-0.0969533   0.11604523]
[-0.01989035  0.02963163]
[-0.00502302  0.01206935]
[-0.02657556  0.00183549]
[-0.00235433  0.00930528]
[-0.00672895  0.01612746]
[-0.00791579 -0.01127152]
[ 0.00245525 -0.02167191]
[-0.10784972  0.09889831]
[-0.02348826  0.0518962 ]
[0.00986534 0.02447753]
[0.00489629 0.01433329]
[-0.01499615  0.02115482]
[0.00783219 0.01814317]
[0.00904753 0.0149705 ]
[-0.02183114  0.01281396]
[-0.07616045  0.07682992]
[-0.0417793   0.01873825]
[0.0097181  0.00288443]
[-0.0048522  -0.00797221]
[0.01281115 0.01485117]
[0.01050533 0.01407697]
[-0.0194266   0.00040889]
[ 0.01406063 -0.00567081]
[-0.00719314  0.01154694]
[-0.02006401  0.02272721]
[-0.01809195  0.00098754]
[-0.00361301  0.00967801]
[-0.01159741 -0.01202661]
[-0.01501396  0.01768543]
[-0.00260591 -0.00890166]
[-0.02118455 -0.00359608]
[-0.09407101  0.06083554]
[-0.00963589  0.03412052]
[ 0.00709178 -0.01309542]
[-0.01226511  0.00641983]
[-0.02144477  0.00957311]
[ 0.01849796 -0.01768441]
[-0.00750775  0.01609093]
[ 0.0395671  -0.05445354]
[0.00402352 0.02156067]
[0.00135034 0.00161743]
[ 0.01653218 -0.0146296 ]
[ 0.03852457 -0.00941979]
[-0.00041163  0.01916902]
[ 0.00879604 -0.01397059]
[-0.017423    0.02611807]
[-0.00467879  0.01087107]
[0.01238781 0.00915351]
[-0.00455619  0.01886542]
[ 0.01272199 -0.02088577]
[ 0.02794875 -0.02377114]
[ 0.00878215 -0.02219929]
[0.00415673 0.00671118]
[-0.02633835  0.00159003]
[ 0.00465796 -0.00772691]
[ 0.01685079 -0.01507493]
[-0.01505073  0.01542484]
[-0.00708525 -0.00497077]
[ 0.01894946 -0.03000049]
[ 0.00732444 -0.01630794]
[0.00131462 0.00127089]
[-0.01012039  0.02709512]
[-0.02637481  0.01753637]
[0.01043123 0.00845508]
[-0.01146352 -0.01651951]
[-0.00588724 -0.01120547]
[ 0.02176909 -0.03104983]
[-0.0082058  -0.01323892]
[ 0.00318821 -0.01017931]
[0.00900065 0.00847171]
[ 0.02106116 -0.02567036]
[ 0.00453932 -0.00936096]
[ 0.0114013  -0.00930268]
[ 0.02137443 -0.00030592]
[ 0.00880933 -0.0373677 ]
[-0.0148713   0.02224393]
[0.02037479 0.00032983]
[ 0.00788673 -0.02379968]
[0.0080619  0.00372865]
[0.01830016 0.00744736]
[ 0.00428401 -0.01459687]
[ 0.01713589 -0.00636823]
[ 0.02537458 -0.02841237]
[ 0.0123282  -0.02366845]
[0.00073824 0.0041362 ]
[ 0.01053668 -0.01675026]
[ 0.01187676 -0.02232023]
[ 0.00598072 -0.01064514]
[-0.01034038 -0.00424484]
[ 0.02050208 -0.01343585]
[ 0.03797813 -0.00828363]
[ 0.00369372 -0.01266916]
[ 0.00648174 -0.02137484]
[0.00604344 0.0044455 ]
[ 0.00306642 -0.01532249]
[-0.00072046 -0.01331781]
[-0.01404742  0.01500831]
[ 0.01836471 -0.02426514]
[ 0.03127737 -0.01792204]
[-0.00091393 -0.01938535]
[0.01109667 0.00773217]
[-0.0051209   0.00901422]
[-0.02468741  0.0158138 ]
[0.00809461 0.00213617]
[ 0.00103008 -0.01490859]
[ 0.02408058 -0.0269282 ]
[ 0.02992895 -0.01793726]
[ 0.01598029 -0.00577742]
[0.0093516  0.00478608]
[-0.00201195 -0.01910432]
[0.01497841 0.0122238 ]
[0.00288593 0.00733485]
[-0.01123129 -0.00513877]
[ 0.01360475 -0.01316712]
[ 0.00604588 -0.01711127]
[ 0.00957751 -0.01217541]
[0.00458225 0.00331656]
[ 0.00202151 -0.01292727]
[0.02014145 0.0015058 ]
[ 0.01519022 -0.00519524]
[-0.01020772 -0.00211475]
[-0.00489289  0.01108456]
[ 0.00913216 -0.0123215 ]
[ 0.0033994  -0.01746763]
[0.01933946 0.00378815]
[0.02210894 0.00035437]
[-0.0119138   0.00857368]
[ 0.01282837 -0.01832828]
[0.01314327 0.00358651]
[-0.00404673 -0.00333732]
[-0.00949078  0.01174341]
[0.01341489 0.0050103 ]
[ 0.02187884 -0.01265188]
[ 0.01708958 -0.0050274 ]
[ 0.0108207  -0.01426635]
[-0.00203247 -0.00957368]
[ 0.01686681 -0.00710319]
[-0.00809895 -0.02070451]
[ 0.01731147 -0.00849124]
[ 0.01221184 -0.00552079]
[-0.00925689  0.01275941]
[0.00633802 0.00020885]
[0.01470363 0.00768385]
[ 0.02031571 -0.00300726]
[-0.01593247  0.0024432 ]
[-0.00232938 -0.01127008]
[0.0093845  0.00609004]
[-0.0035446  -0.02555772]
[-0.00971772 -0.01856641]
[0.00350146 0.00216717]
[-0.00850818  0.00116351]
[0.01728436 0.01168086]
[0.00171296 0.00111385]
[0.01220399 0.00904577]
[-0.01152118 -0.01720516]
[-0.00539862 -0.01380532]
[ 0.01801907 -0.02213613]
[ 0.02883339 -0.00558297]
[-0.03002417  0.03129772]
[0.01518605 0.00293657]
[-0.01082299 -0.01575178]
[0.01529215 0.00068474]
[-0.01539012 -0.01175989]
[-0.00531852 -0.00178384]
[ 0.01879348 -0.00663493]
[ 0.00583731 -0.00923926]
[-0.00017198 -0.00815871]
[-0.01749553 -0.01724253]
[-0.00286959 -0.00245337]
[-0.00694263 -0.02378717]
[ 0.01777111 -0.00733721]
[0.01347851 0.01361781]
[-0.00623992 -0.01623037]
[-0.00547672  0.01212293]
[ 0.0049468  -0.01669281]
[-4.1240830e-05  5.3717773e-03]
[-0.00313659  0.0061876 ]
[-0.00862734  0.00033735]
[-0.00536683  0.01573231]
[ 0.01052959 -0.0129182 ]
[-0.01366646 -0.00984282]
[ 0.02049965 -0.00353893]
[-0.01166141  0.00638102]
[ 0.0079077  -0.00976963]
[ 0.00760839 -0.01352312]
[1.1635440e-05 4.1291333e-04]
[0.00131454 0.00109112]
[-0.01548387  0.02273222]
[-0.00407895  0.00396508]
[ 0.01265309 -0.01867454]
[ 0.01094133 -0.00834907]
[-0.01397964  0.01894262]
[0.00188843 0.00715382]
[-0.00186528  0.00021683]
[-0.00119741  0.02426349]
[ 0.01998452 -0.01058447]
[-0.00590182 -0.01616896]
[-0.00959855 -0.01551562]
[ 0.00747236 -0.0026343 ]
[ 0.05409617 -0.0522515 ]
[-0.01463045  0.01147094]
[-0.01556656  0.00624012]
[0.00964625 0.02547942]
[ 0.02220684 -0.02182394]
[0.01390366 0.007366  ]
[-0.00743612 -0.01626365]
[ 0.00815718 -0.01534858]
[-0.0169658   0.02106986]
[-0.01800645 -0.00467507]
[-0.01090302  0.01453782]
[-0.0070565   0.00023207]
[-0.00663626 -0.01357812]
[ 0.00152016 -0.01589904]
[-0.00514005 -0.00494768]
[0.00446946 0.01367232]
[-0.00300991  0.01154995]
[-0.00505883  0.01607022]
[-0.0048458  -0.01599114]
[-0.02308515  0.00610375]
[0.01421028 0.00108115]
[ 0.01267553 -0.0176287 ]
[ 0.00163205 -0.02025257]
[ 0.04319046 -0.02874252]
[-0.0257339   0.02117299]
[-0.02124195  0.01610218]
[-0.00574994 -0.0001812 ]
[-0.00999401 -0.00046123]
[-0.00704196 -0.00650647]
[-0.01982108 -0.01429356]
[-0.00914967 -0.00687205]
[-0.00490146 -0.00114444]
[-0.04358048  0.03822587]
[ 0.01303896 -0.00708525]
[-0.00790506  0.01738316]
[-0.0089169   0.01750813]
[0.00361301 0.02049343]
[-0.01692267  0.00964134]
[0.0076698 0.0034732]
[0.00798501 0.00110018]
[-0.00632959  0.03761658]
[-0.02265396 -0.00103369]
[ 0.02157855 -0.00137445]
[-0.02985251  0.01297405]
[ 0.02713737 -0.02082874]
[0.01098061 0.01087161]
[-0.00974173  0.00305566]
[0.01132445 0.00419554]
[-0.04120155  0.02295168]
[-0.02190004  0.01442825]
[-0.00402919  0.00274103]
[-0.01794632  0.01769561]
[-0.02026441  0.00155768]
[-0.00124625  0.00591502]
[-0.01223384  0.00367421]
[ 0.05669751 -0.05316336]
[-0.03928011  0.03653307]
[-0.05489341  0.03206004]
[0.02198629 0.00263167]
[0.00239682 0.00147906]
[0.00804226 0.00097744]
[0.01276815 0.00043178]
[0.00563024 0.01379465]
[0.01741474 0.0159032 ]
[-0.00633006 -0.01030295]
[0.00224858 0.02171598]
[ 0.00536505 -0.0247342 ]
[ 0.02288181 -0.03180782]
[0.0103096  0.00155594]
[0.01550906 0.00481509]
[9.6968695e-05 2.9010463e-03]
[ 0.04176462 -0.02075345]
[-0.01708876  0.01036275]
[-0.01916857 -0.01491766]
[0.01999237 0.00242667]
[ 0.03239333 -0.00318464]
[-0.01495409 -0.01331044]
[-0.0001583  -0.00118284]
[0.00256565 0.01776031]
[-0.00466293  0.02548349]
[-0.01170171  0.01595005]
[0.00914143 0.01533347]
[ 0.02693795 -0.02335706]
[ 0.03717526 -0.012738  ]
[0.01160836 0.0104488 ]
[ 0.0208564  -0.00414306]
[-0.00326408  0.00815744]
[0.01716034 0.00451282]
[0.02017006 0.01172237]
[-0.01363326  0.00857807]
[ 0.01421916 -0.00498401]
[ 0.02354909 -0.02941387]
[-0.00309642  0.0030086 ]
[ 0.00809247 -0.01899769]
[-0.02102714  0.01698911]
[ 0.01500083 -0.02676636]
[ 0.00750208 -0.01639394]
[-0.00863885  0.00037077]
[ 0.01428793 -0.02733751]
[ 0.0133886  -0.00979408]
[ 0.01307932 -0.02694358]
[-0.00155185 -0.00096487]
[-0.00443021 -0.00483178]
[ 0.01347935 -0.01140003]
[0.00384088 0.00517763]
[-0.00271445 -0.00425346]
[-0.00342808 -0.00378229]
[ 0.00979904 -0.01305479]
[ 0.00112864 -0.00148537]
[-0.00129077 -0.01439188]
[0.01262427 0.01288095]
[ 0.02543928 -0.02575783]
[ 0.00285265 -0.01919232]
[ 0.00531651 -0.0089125 ]
[ 0.0280094  -0.01639425]
[ 0.02841109 -0.03386617]
[0.01756364 0.00475022]
[ 0.00962225 -0.00572167]
[-0.00371594 -0.01753022]
[0.0163834  0.01272298]
[-0.00801522 -0.00877975]
[-0.0086625  -0.01680844]
[0.02686566 0.00560492]
[ 0.03761052 -0.03752817]
[-0.0116807  -0.00931764]
[0.01800559 0.00562978]
[0.00477975 0.01020304]
[-0.03964793  0.03183636]
[ 0.00113763 -0.01595917]
[-0.00234973 -0.00701112]
[-0.00067683 -0.0129388 ]
[ 0.02790783 -0.01545929]
[ 0.00789768 -0.03388661]
[-0.00031559 -0.00826652]
[ 0.01494832 -0.01385252]
[ 0.02797315 -0.02183366]
[ 0.00272012 -0.01136926]
[-0.00209543 -0.01075526]
[0.01816431 0.00302563]
[-0.00017108 -0.00336842]
[0.0127106  0.01167823]
[0.00054091 0.0096417 ]
[-0.00432705 -0.00394467]
[ 0.02832673 -0.023001  ]
[ 0.00190163 -0.0041777 ]
[ 0.00441661 -0.01677615]
[0.01173083 0.00025487]
[ 0.01263498 -0.00224037]
[-0.00386094 -0.02326314]
[0.00892519 0.00283747]
[ 9.1345806e-05 -2.3197968e-02]
[ 0.00310265 -0.01144577]
[ 0.01394131 -0.00152229]
[ 0.00966117 -0.00081613]
[-0.00734028 -0.01451148]
[0.02017483 0.00808304]
[ 0.01274552 -0.01128628]
[0.00960762 0.01121716]
[ 0.00089724 -0.01343508]
[ 0.0037534  -0.00502042]
[-0.00440141 -0.01097138]
[0.00205672 0.00934301]
[0.01501094 0.01658767]
[0.01782937 0.00111769]
[-0.01128141 -0.01637119]
[-0.00310446 -0.01403326]
[ 0.02320024 -0.01987853]
[0.0099747  0.01105889]
[-0.00749017  0.00433749]
[ 0.01344758 -0.00309277]
[ 0.00131765 -0.01216415]
[0.00424649 0.01211392]
[-0.00357953 -0.00371352]
[ 0.00520447 -0.00837678]
[-0.00940086 -0.02207779]
[-0.01067746  0.00903608]
[0.00469633 0.00208296]
[0.00557915 0.01548957]
[-0.00220316 -0.01697239]
[0.01075972 0.00284854]
[0.00731627 0.01682735]
[ 0.01410364 -0.00427757]
[0.01935538 0.00067068]
[ 0.02626514 -0.03666598]
[ 0.00168499 -0.00423483]
[-0.00460798  0.01385931]
[ 0.01199779 -0.02134689]
[-0.01543016  0.00377717]
[ 0.02200263 -0.01349447]
[ 0.00515681 -0.00558349]
[ 0.01992172 -0.01046504]
[ 0.00947161 -0.00936665]
[ 0.01752764 -0.01746985]
[-0.00771879 -0.00148542]
[ 0.00972487 -0.01987156]
[0.00168174 0.01385613]
[-0.00895751 -0.00702023]
[-0.00818879 -0.0018897 ]
[ 0.01969246 -0.00390791]
[ 0.01723402 -0.01892266]
[ 0.05054211 -0.0211121 ]
[0.0176755  0.00761266]
[-0.01134015 -0.01942885]
[-0.02131604  0.01887404]
[ 0.01981471 -0.01727401]
[-0.00798116 -0.00743133]
[-0.00427628 -0.01405618]
[0.00068337 0.02682696]
[-0.00360994  0.00934888]
[ 0.03112037 -0.00361095]
[0.00739932 0.01576216]
[-0.01548963  0.01129002]
[ 0.00077138 -0.00105251]
[0.01850903 0.00940941]
[-0.01078983  0.01173546]
[-0.00159642 -0.01205962]
[-0.02041726 -0.01113117]
[ 0.00523635 -0.02245207]
[-0.00124295 -0.00182548]
[0.00261517 0.01539499]
[-0.00432244  0.00335476]
[0.012892   0.00685418]
[-0.00355953 -0.01667436]
[ 0.02102418 -0.00762994]
[0.00769261 0.02248181]
[ 0.0135107 -0.0047042]
[-0.01530924  0.00072712]
[-0.00534467  0.00876993]
[0.00245754 0.00505035]
[-0.01403437  0.01216327]
[-0.00059006 -0.02093251]
[-0.00563183 -0.01233546]
[0.01630907 0.00737303]
[-0.0083313 -0.013617 ]
[ 0.00213247 -0.00141798]
[-0.02095695  0.00218684]
[ 0.01146738 -0.01016535]
[0.00177713 0.01511549]
[0.00490103 0.00558988]
[-0.00069935  0.00661798]
[-0.01758677  0.00058616]
[-0.01559439  0.01689277]
[ 0.00161335 -0.01400748]
[0.00668604 0.01759099]
[-0.01144249 -0.00729698]
[ 0.01616218 -0.01712439]
[-0.00843723  0.00984033]
[ 0.0280884 -0.016941 ]
[-0.05659742  0.05248863]
[-0.00510814 -0.00746708]
[0.00699371 0.00406057]
[-0.01197882 -0.00598053]
[-0.01023527  0.01724296]
[-0.01047481  0.0099032 ]
[ 0.01978583 -0.0068126 ]
[ 0.00329579 -0.02607072]
[-0.05695526  0.06271131]
[0.01485878 0.01359397]
[-0.02003007 -0.01278027]
[0.00363722 0.00167751]
[-0.00021367  0.00481266]
[-0.01043562  0.00529322]
[0.00621764 0.01432848]
[-0.00789176  0.00190188]
[-0.04390176  0.06533601]
[-0.02049129  0.01331453]
[-1.8986141e-02  9.4822368e-05]
[-0.01739082  0.02454457]
[-0.01273882 -0.00778199]
[0.01208373 0.00872256]
[0.00255188 0.01017825]
[ 0.01286939 -0.00319962]
[-0.17263769  0.18700534]
[-0.05514897  0.04641672]
[0.01190639 0.00392201]
[ 0.00748099 -0.01804975]
[-0.01979165  0.01608306]
[-0.01452245  0.01167898]
[-0.00701924 -0.00131799]
[-0.03130776  0.02273767]
[-0.21116892  0.18297975]
[-0.05385247  0.03853384]
[0.01272865 0.00258199]
[ 0.01918944 -0.01525658]
[-0.02187354  0.01647484]
[-0.00783181 -0.00870729]
[-0.01842443  0.01138513]
[-0.00395602  0.01610366]
[-0.14633971  0.15205097]
[-0.03826758  0.03340437]
[0.00288093 0.00791974]
[ 0.02451377 -0.02543844]
[-0.01348397  0.01263825]
[-0.01217667  0.00192412]
[-0.01013892  0.0206243 ]
[-0.02427544  0.00194858]
[-0.15361787  0.16552341]
[-0.03572093  0.05239366]
[0.02080565 0.00346992]
[ 0.00674226 -0.01723752]
[0.01110381 0.00498731]
[0.0125091  0.01260134]
[7.4894466e-05 5.7198461e-03]
[-0.00217224  0.01402734]
[-0.07343079  0.08344353]
[-0.02820569  0.03174733]
[ 0.01223938 -0.00792945]
[ 0.00773395 -0.00928129]
[ 0.03123553 -0.0389624 ]
[0.00286086 0.00330302]
[-0.01758688  0.03011095]
[-0.01636749  0.00892877]
[-0.13778251  0.13019112]
[-0.03602396  0.03617683]
[0.01584808 0.00117688]
[0.00424803 0.00507474]
[-0.00483497  0.01987512]
[ 0.0101998  -0.00860149]
[-0.03856082  0.01559195]
[ 0.0147233  -0.02379334]
[-0.00965853  0.0248766 ]
[ 4.8791717e-06 -1.3398558e-03]
[ 0.01520371 -0.02501946]
[-0.01290529  0.03535816]
[0.00323087 0.02309339]
[-6.7537639e-04  3.2047203e-05]
[ 0.02012622 -0.0135732 ]
[-0.06168659  0.06276988]
[-0.00731242  0.0203171 ]
[-0.00122057  0.00259932]
[ 0.01030638 -0.00516077]
[ 0.03545832 -0.00438097]
[ 0.0015233  -0.00215762]
[-0.01178714 -0.00902494]
[-0.00609904  0.01290019]
[1.4689658e-02 3.5692712e-05]
[0.01073399 0.00423813]
[-0.00728599  0.00122812]
[ 0.02568257 -0.02771679]
[ 0.01912227 -0.02450615]
[-5.6895092e-03  5.8360845e-05]
[-0.00044432 -0.01088869]
[-0.00971811  0.00309919]
[ 0.00498019 -0.00960404]
[ 0.00057086 -0.01422775]
[-0.00498674 -0.00059392]
[ 0.01911798 -0.02110788]
[ 0.02479681 -0.0149349 ]
[ 0.02240275 -0.01524308]
[ 0.00590645 -0.00232155]
[ 0.0117305  -0.00447519]
[0.01255222 0.00409548]
[-0.00929841 -0.01040535]
[-0.01678899 -0.01118662]
[ 0.0054286  -0.01224982]
[ 0.01767393 -0.00038469]
[ 0.02110986 -0.02763099]
[-0.00028569 -0.01774195]
[0.01412819 0.00013383]
[ 0.03037881 -0.03303761]
[ 0.02028066 -0.00122024]
[ 0.00667523 -0.00829075]
[ 0.00081265 -0.01624716]
[-0.00233383 -0.00362085]
[ 0.01618297 -0.01539282]
[ 0.00859758 -0.00494917]
[ 0.02900894 -0.015433  ]
[-1.05968565e-02 -9.85767838e-05]
[-0.01497101 -0.01585619]
[-0.01507866 -0.01516731]
[0.01837149 0.00076885]
[ 0.00718827 -0.00248126]
[0.01617755 0.00716423]
[-0.00153696 -0.00770188]
[ 0.01671696 -0.03111728]
[ 0.01364762 -0.00794133]
[0.01568254 0.01450472]
[-0.01343114  0.00212178]
[-0.00338066 -0.02641959]
[0.02014147 0.00483593]
[0.00132221 0.00101834]
[-0.0004112   0.00335776]
[0.01907497 0.01134344]
[-0.00488306 -0.01353457]
[ 0.00849647 -0.01920609]
[-0.01340726 -0.01513593]
[0.01219998 0.00570314]
[ 0.01658124 -0.01536413]
[-0.00941607 -0.02132556]
[ 0.0134834  -0.00209306]
[-0.00426726  0.00526707]
[-0.00251474 -0.01301353]
[ 0.0205486  -0.00659608]
[0.00429156 0.01212805]
[0.00888107 0.00621481]
[-0.00172325  0.00346774]
[0.01342449 0.00392379]
[ 0.01333623 -0.01462075]
[ 0.01481901 -0.02347343]
[-0.00516226 -0.00731724]
[-0.00585127 -0.01000616]
[-0.01152228 -0.01166068]
[-0.01311946 -0.0046528 ]
[ 0.00481956 -0.01144705]
[0.00594364 0.0093931 ]
[ 0.01562526 -0.0195534 ]
[ 0.01816798 -0.01777318]
[ 0.01216759 -0.01419469]
[ 0.03062387 -0.02434143]
[-0.0082529   0.00659624]
[ 0.00340718 -0.00027282]
[-0.0070072   0.01036808]
[ 0.01740085 -0.01756971]
[ 0.01860784 -0.00755807]
[-0.00908552  0.00545549]
[-0.03802792  0.03318042]
[0.01894632 0.00094882]
[ 0.02011202 -0.00369811]
[0.00973681 0.01307079]
[ 0.01047922 -0.00278571]
[-0.02024324 -0.00725894]
[-0.00763796  0.0136363 ]
[-0.01227658 -0.01667416]
[ 0.02347025 -0.02489488]
[-0.01416362  0.00551681]
[ 0.00121006 -0.00917637]
[-0.01028406  0.00074988]
[0.0055391  0.01426034]
[ 0.00926248 -0.01356106]
[-0.01123963  0.01035508]
[ 0.01360548 -0.02039756]
[ 0.03705718 -0.05629316]
[2.8987175e-03 1.7428647e-07]
[-0.00060016 -0.02494758]
[-0.01921058  0.00815879]
[-0.00994385 -0.00043039]
[ 0.00861358 -0.01462042]
[ 0.01897376 -0.0135087 ]
[-0.00210541  0.00870358]
[-0.00870961  0.01572806]
[ 0.02167893 -0.01525025]
[ 0.0251755  -0.01358787]
[-0.01592182  0.00887464]
[-0.02051316 -0.00271603]
[-0.00406324  0.00612117]
[0.01717358 0.00322159]
[-0.00420496  0.00115063]
[-0.01085796 -0.01963286]
[0.00073803 0.01251423]
[-0.01402493 -0.01152237]
[ 0.01444646 -0.00940336]
[-0.01308767  0.02214822]
[-0.00094594 -0.00202664]
[0.01792696 0.00577437]
[ 0.00027202 -0.00914066]
[0.0060948  0.00861397]
[-0.00109089 -0.00378504]
[ 0.00830041 -0.01083349]
[-0.01257789  0.00563246]
[-0.00737842  0.0082931 ]
[-0.00459081  0.00160019]
[3.6501457e-05 6.2161246e-03]
[ 0.01927004 -0.0066139 ]
[-0.00318799  0.00890466]
[-0.00416946 -0.0111616 ]
[0.0124061  0.01831862]
[0.01138556 0.01825148]
[-0.00215122  0.00679004]
[0.01303561 0.01957581]
[-0.0001275   0.00570328]
[-0.01017669  0.01205274]
[ 0.01238881 -0.01251163]
[ 0.0117728  -0.01647355]
[-0.00169603  0.00318364]
[-0.00577279 -0.00768137]
[-0.01988349  0.01505057]
[-0.01188511 -0.0062311 ]
[0.01207735 0.01677395]
[-0.00632019 -0.00988203]
[ 0.01245713 -0.01096118]
[-0.04237748  0.04332995]
[ 0.00224667 -0.00452681]
[0.01529053 0.0184552 ]
[-0.00018281  0.01371831]
[0.01752073 0.01371385]
[-0.01060549 -0.00463461]
[0.00116606 0.01416933]
[ 0.02749238 -0.04152746]
[-0.09418281  0.09598083]
[-0.02089354  0.00744326]
[0.01255561 0.02134958]
[0.0034398  0.00615082]
[ 0.00568731 -0.00522627]
[-0.00143237  0.01703303]
[-7.909113e-05  1.827063e-02]
[ 0.03892774 -0.02539234]
[-0.14746818  0.13178864]
[-0.04471527  0.0502778 ]
[0.01779586 0.0036008 ]
[ 0.02562773 -0.02524662]
[-0.01106457  0.02017055]
[-0.00186394  0.01638646]
[-0.02489758  0.02770211]
[-0.0202388   0.01883153]
[-0.16156083  0.1636801 ]
[-0.04070073  0.04917089]
[ 0.02501131 -0.02610813]
[ 0.02248369 -0.00643186]
[ 0.01505965 -0.00603372]
[ 0.00113403 -0.00094222]
[-0.00084597  0.00282032]
[-0.01114853  0.00184143]
[-0.13031211  0.13778135]
[-0.04590497  0.05187683]
[-0.00502109 -0.02023305]
[ 0.02999733 -0.02470731]
[-0.00760586  0.01933772]
[0.0111735  0.01947485]
[-0.00867259  0.02142515]
[-0.02554074  0.0204024 ]
[-0.14895478  0.1494672 ]
[-0.03234382  0.03581681]
[ 0.01812521 -0.03495202]
[ 0.02818773 -0.03427136]
[ 0.03744325 -0.05404291]
[ 0.01275192 -0.00598354]
[-0.00078089 -0.00871619]
[-0.01714832  0.00430203]
[-0.10053315  0.09702591]
[-0.02098279  0.04362834]
[-0.00854479  0.01030433]
[-0.0045546   0.01355552]
[0.00590889 0.00885005]
[-0.00610341  0.01144692]
[-0.02396185  0.02874648]
[-0.00365892  0.01945575]
[-0.10727725  0.10462501]
[-0.04456617  0.01323348]
[-0.01840136 -0.00355803]
[ 0.01036467 -0.00101852]
[-0.01677613  0.00161265]
[-0.0201686   0.01463607]
[-0.02112536  0.03146938]
[ 0.01793283 -0.01917968]
[-0.034216    0.03769435]
[-0.03437765  0.01360919]
[-0.00068354 -0.004598  ]
[ 0.00736418 -0.00930771]
[-0.01188871  0.00725634]
[-0.00707859  0.00249726]
[-0.01738428  0.02807546]
[-0.00978389  0.03639739]
[-0.00679762 -0.01367938]
[-0.01105631  0.01067272]
[-0.00464209  0.01797828]
[-0.01710556  0.00967506]
[-0.01838857 -0.00084707]
[0.01714167 0.00166091]
[-0.00086329  0.00036044]
[-0.01632927  0.01482591]
[ 0.0152333  -0.00416018]
[-0.00648061 -0.01678721]
[ 0.01936658 -0.00788283]
[-0.01712102 -0.00938003]
[ 0.00685209 -0.02096041]
[ 0.02139468 -0.01375384]
[ 0.01732932 -0.00844941]
[ 0.01923793 -0.0126609 ]
[ 0.00183203 -0.01012121]
[-0.00759158  0.02805953]
[-0.01377269  0.00882345]
[-0.00826594 -0.00320139]
[-0.00604578 -0.00594896]
[ 0.0128946  -0.01651527]
[0.01040573 0.00356695]
[0.008786   0.00016994]
[-0.0186967   0.01732888]
[-0.01678565 -0.01078399]
[ 0.00459803 -0.01436254]
[-0.00620082 -0.00876149]
[0.01268318 0.01045161]
[ 0.02270811 -0.01099752]
[ 0.02161285 -0.00029638]
[ 0.01182321 -0.00501861]
[-0.00414888  0.01443384]
[-0.00425372  0.00237788]
[ 0.01638743 -0.00343187]
[0.00143101 0.00342899]
[0.0168499  0.00254897]
[0.00180422 0.00379463]
[ 0.00368508 -0.00276788]
[-0.00217508 -0.00971658]
[ 0.00376393 -0.01682631]
[0.00466424 0.00086436]
[ 0.01801881 -0.00594842]
[ 0.01104055 -0.01183891]
[ 0.01274513 -0.01905099]
[-0.00131642 -0.01680727]
[0.0019944  0.01254736]
[ 0.02020965 -0.03889331]
[-0.00460158 -0.00776356]
[-0.01177025  0.02010113]
[ 0.00147371 -0.01364804]
[ 0.00491817 -0.02063267]
[-0.00070015 -0.00800977]
[0.01588    0.01561266]
[4.110263e-06 2.016207e-02]
[0.00164741 0.00719904]
[-0.02185976  0.00050101]
[0.00057798 0.02812435]
[ 0.02747589 -0.02025369]
[-0.00127009 -0.01383144]
[ 0.01273325 -0.00207876]
[0.016317  0.0139557]
[0.01626627 0.00797612]
[-0.06275582  0.07423222]
[ 0.00870667 -0.02013708]
[ 0.00105266 -0.00327288]
[0.00365883 0.01204524]
[ 0.00817756 -0.00482305]
[-0.00061557  0.02464795]
[0.01298102 0.00364678]
[ 0.0066025  -0.01644024]
[0.00052528 0.00639181]
[-0.00334438  0.00829772]
[-0.00565929  0.00556214]
[0.00491904 0.01452611]
[-0.00656033 -0.00634505]
[ 0.01244215 -0.0024231 ]
[0.02118052 0.00102135]
[-0.01012138  0.00734995]
[ 0.02393229 -0.01107519]
[ 0.01928511 -0.00014241]
[-0.00897634  0.00506742]
[ 0.00117737 -0.01760821]
[0.00499656 0.00029399]
[-0.00791634 -0.00946602]
[ 0.00448908 -0.01444915]
[ 0.01678485 -0.01569441]
[-0.00877897 -0.01589675]
[-0.00725957 -0.00714365]
[-0.00474322 -0.01137832]
[ 0.00020395 -0.01039173]
[ 0.01512109 -0.00053826]
[ 0.01044499 -0.01581785]
[ 0.0128011  -0.00143127]
[0.00927629 0.00582764]
[ 0.00897612 -0.01490897]
[ 0.04565244 -0.02392453]
[ 0.01094254 -0.01932162]
[-0.00974436 -0.00228144]
[-0.01251632  0.01177149]
[ 0.03260011 -0.027412  ]
[ 0.00707421 -0.00676191]
[-0.01087727 -0.01816396]
[0.01784649 0.00307336]
[-1.9189008e-02  3.7846155e-05]
[ 0.02245744 -0.00477226]
[0.01680792 0.0090528 ]
[-0.00677678  0.00163085]
[-0.01004163 -0.0087763 ]
[0.02042364 0.01304542]
[ 0.0192875  -0.01197675]
[ 0.02112244 -0.01069161]
[-0.01118791  0.0108461 ]
[ 0.02273083 -0.00936775]
[-0.00054888 -0.00815112]
[-0.0045951   0.01779323]
[-0.0070773  -0.00370415]
[ 0.00213249 -0.01495865]
[0.00648626 0.00056481]
[-0.02675678  0.02546313]
[-0.0074604  -0.01612234]
[ 0.00019046 -0.0061668 ]
[0.01992246 0.00585365]
[-0.02126334  0.01138508]
[-0.00515252  0.01605239]
[ 0.01617013 -0.00547947]
[0.0160659  0.00444076]
[ 0.03545586 -0.02881093]
[-0.00756294 -0.02094189]
[0.00539282 0.00265414]
[-0.01529211  0.02022249]
[-0.01395341  0.02840582]
[ 0.01603896 -0.0022592 ]
[ 0.00428002 -0.01053791]
[-0.01290311  0.00509742]
[ 0.02333223 -0.02941362]
[ 0.01748116 -0.01304383]
[ 0.01222951 -0.0111748 ]
[-0.00080001  0.01121146]
[0.00476964 0.01861638]
[ 0.01884556 -0.01558641]
[ 0.00839906 -0.00168076]
[0.01595383 0.00586778]
[ 0.01424383 -0.00930402]
[-0.00725542  0.00111557]
[-0.00026234  0.01755289]
[-0.00062605  0.01179593]
[-0.00407624  0.00879961]
[-0.00493907 -0.00960153]
[0.01192898 0.00564065]
[ 0.01626713 -0.01364502]
[ 0.03323759 -0.03308792]
[0.00408424 0.01765084]
[-0.02097151  0.02232902]
[ 0.00359542 -0.00943552]
[ 0.00582003 -0.00336972]
[-0.00353908 -0.01610353]
[0.0068433  0.01135529]
[ 0.01310967 -0.01379804]
[ 0.01828733 -0.03635253]
[-0.07307536  0.05382558]
[-0.02199869  0.0148753 ]
[1.6968364e-02 5.6202854e-05]
[ 0.02308673 -0.00859398]
[-0.00628868  0.0025339 ]
[ 0.01618388 -0.00048997]
[0.00363528 0.02164038]
[-0.01178885 -0.00661988]
[-0.16747089  0.18175279]
[-0.05011731  0.05631373]
[ 0.02741228 -0.01553205]
[ 0.02447402 -0.01719139]
[ 0.00894819 -0.02308368]
[ 0.00974365 -0.00577954]
[ 0.00018928 -0.00302277]
[0.0218021  0.00532874]
[-0.15789552  0.17661083]
[-0.03914094  0.04928333]
[ 0.00891587 -0.00267585]
[ 0.05286428 -0.03873855]
[ 0.0002194  -0.00144855]
[-0.01035787  0.00398731]
[-0.00844826  0.00826576]
[-0.01924691  0.00636901]
[-0.11877365  0.1202484 ]
[-0.06304809  0.04011738]
[ 0.03764654 -0.04187354]
[ 0.01800156 -0.00893536]
[ 0.02439358 -0.03822434]
[0.00150277 0.01979272]
[0.00150937 0.02325603]
[-0.02375452 -0.00419887]
[-0.0395405   0.03236797]
[-0.00784653  0.00279851]
[-0.0074522  -0.01222538]
[-0.0222881   0.00132507]
[-0.01185956  0.00634309]
[-0.01606331  0.00495776]
[-0.00800828 -0.00473856]
[-0.00844624  0.02224598]
[-0.00606741 -0.01267194]
[-0.01237841  0.0271352 ]
[-0.01257179 -0.00890266]
[-0.02244247 -0.00367107]
[0.00607835 0.0140539 ]
[-0.00654819  0.01197721]
[-0.01394464  0.01379555]
[-0.02470752  0.00661767]
[ 0.01264673 -0.00852301]
[-0.01763118  0.02530624]
[-0.0040181  0.0179295]
[-0.00312369  0.00169979]
[-0.0145202  -0.01482695]
[-0.01726311 -0.0077405 ]
[-0.02002468 -0.0041414 ]
[0.02218531 0.00769297]
[ 0.01013072 -0.01548461]
[ 0.00831511 -0.00021329]
[ 0.0100875  -0.00129906]
[-0.0221965   0.01261566]
[0.0139045  0.00404282]
[-0.00561481  0.01250076]
[-0.01244256  0.01183305]
[-0.00665201 -0.0025727 ]
[ 0.0016899  -0.01506849]
[ 0.01337385 -0.00165359]
[ 0.01960045 -0.00623088]
[-0.00567589  0.01461016]
[-0.01217063  0.00193513]
[ 0.00304227 -0.01924745]
[ 0.01503002 -0.01460723]
[ 0.00698137 -0.02199353]
[-0.0032276  -0.00723433]
[ 0.02351972 -0.00977317]
[0.01280727 0.0111339 ]
[ 0.01380117 -0.0001082 ]
[ 0.00135423 -0.01240368]
[ 0.01976945 -0.01916868]
[-0.00566619  0.00431816]
[ 0.01898417 -0.03936825]
[-0.00024795 -0.01594301]
[-0.01751834 -0.00486361]
[0.00192399 0.00507559]
[-0.00583757 -0.01369738]
[ 0.0284296  -0.03548787]
[-0.0045702   0.00621512]
[ 0.01132327 -0.02105748]
[-0.00746965 -0.001761  ]
[0.00257913 0.00560866]
[0.00994599 0.02077925]
[ 0.02320322 -0.01814342]
[ 0.01137751 -0.01365999]
[-0.01172911  0.00373593]
[ 0.02006318 -0.00287901]
[-0.00428452  0.00537979]
[0.00527331 0.00555832]
[-0.01508736 -0.0039421 ]
[0.01305732 0.01022454]
[ 0.01728029 -0.01995408]
[ 1.3337602e-02 -3.0950698e-05]
[ 0.0243284  -0.03577202]
[ 0.00071781 -0.01839451]
[0.00837529 0.01537281]
[ 0.02792806 -0.03061269]
[-0.00374757  0.01213817]
[-0.01062237  0.01582671]
[0.00233161 0.00267316]
[ 0.01756136 -0.02416289]
[-0.00237902 -0.01446536]
[-0.01346171 -0.01399953]
[0.00924072 0.01951871]
[ 0.00905572 -0.00094198]
[-0.0158201   0.04339509]
[-0.02568797  0.02108317]
[-0.00532343 -0.01972246]
[ 0.00720026 -0.01227103]
[ 0.0137527  -0.00920293]
[ 0.01709882 -0.01398844]
[0.01235361 0.01367683]
[0.00100065 0.01079466]
[-0.01232604  0.01820187]
[-0.01816923  0.0161166 ]
[0.01659937 0.01903595]
[-0.00654818  0.01307811]
[-0.00705247 -0.00379029]
[ 0.00201617 -0.01754369]
[-0.00816647 -0.00655694]
[-0.0245632   0.00738195]
[0.0054793  0.00987223]
[-0.00159854  0.0088326 ]
[ 0.01709502 -0.01571853]
[0.00734987 0.00239509]
[-0.01436847  0.01104678]
[ 0.00805834 -0.01315698]
[0.01504347 0.00208288]
[-0.01215026  0.00031318]
[0.00401996 0.00046163]
[-0.01701553  0.01721887]
[ 0.00367586 -0.00995655]
[-0.00813998 -0.01560132]
[-0.00610835 -0.00740458]
[-0.00377069 -0.01230058]
[-0.00967491 -0.01030321]
[ 0.00864622 -0.01350187]
[-0.00304464 -0.00333631]
[-0.01620785 -0.00986168]
[ 0.0128583 -0.0145476]
[-0.00254246  0.0132667 ]
[ 0.02867601 -0.01702223]
[0.01759967 0.00854932]
[ 0.01426137 -0.01514993]
[0.00899917 0.00207809]
[0.01993608 0.0062501 ]
[-0.00619818 -0.00989094]
[7.0098224e-03 2.1946107e-07]
[0.01877437 0.00709785]
[-0.00249446 -0.00450751]
[-0.01246273  0.00466534]
[ 0.01468078 -0.02162263]
[ 0.00722236 -0.01829993]
[-0.0131618  -0.00461064]
[-0.00241715 -0.01401587]
[0.00707431 0.0001391 ]
[ 0.01233711 -0.01555197]
[-0.00410504 -0.00319951]
[0.0017621  0.00477234]
[ 0.01273177 -0.01069116]
[ 0.03865651 -0.03233127]
[-0.01540895  0.00673402]
[ 0.00784702 -0.01506825]
[ 0.01219719 -0.01631138]
[-0.01347439 -0.01017978]
[ 0.01953663 -0.02138904]
[-0.00143078  0.00611951]
[0.00620085 0.00296076]
[-0.06149165  0.06169851]
[ 0.01303157 -0.0074738 ]
[-0.00898053 -0.01325968]
[0.00638142 0.00011276]
[-0.00571441  0.01133374]
[0.00453009 0.0137244 ]
[ 0.0165231  -0.01581375]
[ 0.01613086 -0.00216105]
[ 0.00228714 -0.00177945]
[0.00279861 0.00519052]
[-0.01129812 -0.00988992]
[0.00244744 0.00497741]
[0.00235435 0.01294108]
[-0.01046243 -0.00666818]
[-0.01236601  0.00857023]
[ 0.00579227 -0.0022507 ]
[-0.15774865  0.16491844]
[-0.02702709 -0.00022512]
[0.01977685 0.01321556]
[-0.02951376  0.00980247]
[-0.03397497  0.01736013]
[-0.0099691   0.01445234]
[ 0.00130689 -0.01756647]
[ 0.00441937 -0.00758431]
[ 0.04255356 -0.05032902]
[-0.01031154  0.00048253]
[-0.00731906  0.02068811]
[-0.00477612  0.01041641]
[-0.01603722 -0.00705235]
[0.01723479 0.00367909]
[0.00644715 0.00595649]
[ 0.008748   -0.01309628]
[-0.00871355 -0.00515709]
[-0.00673845 -0.00905665]
[ 0.01220045 -0.00352377]
[ 0.00223165 -0.01227746]
[-0.01295204  0.02577542]
[-6.6588123e-05 -1.0273683e-02]
[0.01768983 0.00367984]
[-0.00292601 -0.00782827]
[ 0.07772603 -0.07497483]
[-0.00915141 -0.01287713]
[-0.00585566  0.00234564]
[-0.00413763 -0.01101703]
[ 0.02477824 -0.00344671]
[-0.00907568  0.00581888]
[0.01218872 0.00630555]
[-0.01152788 -0.0035466 ]
[ 0.07258396 -0.08412483]
[ 0.00510214 -0.00025572]
[ 0.00341634 -0.00481707]
[-0.00832524 -0.01264452]
[0.01931159 0.00725717]
[ 0.00016    -0.02607624]
[ 0.01065394 -0.00071655]
[0.01044393 0.01080024]
[-0.01202371 -0.01325182]
[-0.08377346  0.0836968 ]
[-0.04621009  0.03137218]
[-0.0003521  0.0056116]
[ 0.02897408 -0.04342132]
[0.00564529 0.02018972]
[0.00969714 0.01462182]
[-0.02621141  0.01465397]
[-0.00332849  0.0170065 ]
[-0.13001935  0.12568147]
[-0.04031989  0.0343781 ]
[ 0.02790915 -0.04192842]
[ 0.04299446 -0.0140817 ]
[ 0.06752895 -0.03865523]
[0.00549361 0.01132144]
[-0.03149477  0.03067027]
[-0.01683737 -0.00369878]
[-0.01603791  0.0079414 ]
[-0.00385069  0.03312379]
[0.0041342  0.00013808]
[-0.01862754  0.02177757]
[0.00860521 0.00056805]
[ 0.00552767 -0.01016801]
[-0.02656103  0.00173652]
[-0.00771041  0.00579376]
[-0.0048862   0.00863492]
[-0.03067333  0.02452289]
[-0.00397803  0.00246045]
[ 0.00461161 -0.00254312]
[ 0.00430827 -0.00929469]
[-0.01603555  0.01850167]
[-0.01707921  0.00610441]
[-0.00962918  0.01204046]
[ 0.00309192 -0.00104122]
[-0.01799726  0.02428963]
[-0.01945419  0.01194818]
[-0.00653553 -0.00496006]
[0.0068692  0.01662208]
[ 0.00015962 -0.00749291]
[-0.00849178  0.0067339 ]
[-0.02081375  0.00407116]
[ 0.00391437 -0.02804192]
[ 0.00121815 -0.00734943]
[0.00189762 0.01162358]
[0.00370744 0.0053525 ]
[ 0.01483653 -0.01436432]
[ 0.01161624 -0.00584847]
[-0.01683759  0.01162898]
[-0.01410064  0.01592237]
[ 0.01182253 -0.02563456]
[ 0.01088937 -0.01888709]
[ 0.02422038 -0.01757444]
[ 0.00155559 -0.00302207]
[-0.003019  -0.0143502]
[ 0.01214106 -0.01260571]
[-0.00978761  0.0135665 ]
[ 0.03632798 -0.02673806]
[-0.00028203 -0.00399421]
[ 0.01150387 -0.02474063]
[ 0.00087475 -0.00116666]
[ 0.00070221 -0.00432464]
[ 0.02687104 -0.00971097]
[0.0122697  0.00084898]
[-0.00048038  0.00684383]
[ 0.02761504 -0.03043797]
[-0.00561695 -0.01287907]
[ 0.00319554 -0.0150521 ]
[-0.00681698  0.01062773]
[0.01358091 0.00143586]
[-0.00372105  0.00465658]
[ 0.0077511  -0.02420268]
[0.01209778 0.01070977]
[-0.02563426  0.01678751]
[ 0.00114451 -0.00205022]
[-0.00793859 -0.00426198]
[ 0.04477374 -0.01139931]
[ 0.00620975 -0.00894407]
[ 0.01920257 -0.01984614]
[ 0.02258551 -0.00812135]
[0.01207638 0.00962079]
[-0.00319787 -0.01953943]
[-0.01328591 -0.0008047 ]
[0.00122557 0.02636681]
[ 0.00115188 -0.00872155]
[ 0.0129311  -0.01408447]
[ 0.01974634 -0.00788568]
[0.01202555 0.00089518]
[-0.00764079  0.01169634]
[-0.01951719  0.01920685]
[-0.06706519  0.08080329]
[-0.03670248  0.03043748]
[ 0.0103689  -0.03181852]
[ 0.02199565 -0.05348192]
[0.01288461 0.01555872]
[-0.00092298  0.01500214]
[-0.01346508 -0.01326274]
[0.00441455 0.00655415]
[-0.04630815  0.03878276]
[-0.03824069  0.02632012]
[ 0.01884526 -0.00949306]
[0.00961771 0.00065635]
[ 0.01295639 -0.00304493]
[ 0.0076668  -0.01494026]
[-0.00264043 -0.01694956]
[-0.01359128  0.00524768]
[-0.02778873  0.02813403]
[-0.01466071  0.03959901]
[ 0.00136541 -0.00784351]
[0.01531269 0.00813443]
[0.0050407  0.00520341]
[-0.0124938   0.01829816]
[ 0.01913764 -0.00572706]
[-0.0343025   0.01953856]
[-0.02792425  0.00461092]
[-0.02165317  0.02420301]
[0.01553286 0.00789438]
[0.02213888 0.0013765 ]
[ 0.00495319 -0.01311327]
[-0.01794156  0.01798336]
[0.00492026 0.01235346]
[-0.01849426 -0.0012999 ]
[-0.02590314  0.00684992]
[-0.04276021  0.02725012]
[-0.00178896  0.00849574]
[ 0.00130386 -0.00227346]
[-0.00938737 -0.00063485]
[ 0.01866728 -0.00545729]
[ 0.02908939 -0.00341389]
[-0.00838656  0.01449006]
[-0.01425138  0.00152254]
[-0.0155345   0.01030492]
[ 0.00850692 -0.01607112]
[-0.00719411  0.00303381]
[0.01798602 0.01164947]
[ 0.01356232 -0.02310953]
[-0.00373092 -0.00842701]
[0.01321518 0.00037106]
[0.00033931 0.01124871]
[ 0.00951672 -0.01633689]
[-0.01343987 -0.0203292 ]
[-0.00913121  0.00640053]
[ 0.01229412 -0.02793643]
[-0.00183141 -0.01507367]
[-0.00958908  0.00848232]
[-0.01205816 -0.00817448]
[ 0.0170208  -0.00582147]
[0.00538905 0.00073782]
[ 0.01791648 -0.00272821]
[ 0.01954072 -0.00721373]
[ 0.01001356 -0.02263513]
[-0.00969511 -0.02055768]
[0.01583616 0.00326441]
[ 0.01663546 -0.01717289]
[0.00545802 0.00408791]
[-0.00570576 -0.00716687]
[ 0.00853559 -0.00264756]
[-5.4522065e-05 -8.4550781e-03]
[ 0.00605153 -0.01944783]
[ 0.00676492 -0.00331413]
[0.01268774 0.00676934]
[ 0.01818328 -0.00622463]
[-0.00293275  0.01095529]
[-0.00641725  0.01673753]
[-0.00855998  0.00733102]
[-0.00387201 -0.01320391]
[ 0.00545566 -0.00859404]
[-0.0133433  -0.00180469]
[-0.0104287   0.00300785]
[ 0.01697401 -0.02068471]
[ 6.806963e-05 -3.356675e-03]
[ 0.01264508 -0.01479095]
[ 0.00040108 -0.00365851]
[ 0.01484683 -0.01587757]
[-0.00605779  0.00656819]
[ 0.01924851 -0.00441035]
[-0.01401948  0.00535888]
[-1.6306351e-04 -9.0710993e-05]
[-0.00922892 -0.00281342]
[-0.00949548 -0.00633884]
[-0.00068317 -0.01325321]
[-0.00948716  0.00971039]
[ 0.02593883 -0.00770178]
[ 0.00503009 -0.00914703]
[0.0124082  0.01287092]
[ 0.00394362 -0.00264705]
[-0.01092197 -0.01527064]
[0.01414079 0.01038073]
[0.00112532 0.01462221]
[-0.00929781 -0.01097408]
[-0.00752942 -0.01305812]
[0.0138933  0.01118685]
[-0.0154801  0.0066651]
[ 0.02767926 -0.00920608]
[ 0.01602471 -0.01092976]
[-0.00671788 -0.01054551]
[-0.01710535 -0.00848565]
[0.00996585 0.00455408]
[-0.00034158  0.01271385]
[-0.00761669 -0.01363553]
[0.01119015 0.00035468]
[ 0.01686598 -0.01725749]
[ 0.02217074 -0.00846964]
[ 0.01435863 -0.00194695]
[0.00130526 0.00156346]
[-0.01337652  0.01338096]
[-0.00958077  0.01643698]
[-0.0126387  -0.01390377]
[-0.01847168 -0.01209228]
[-0.03468566  0.01338808]
[-0.0215969   0.00843346]
[0.00900555 0.01506756]
[0.00184185 0.02859862]
[0.00145949 0.00937245]
[-0.00755193  0.01335054]
[-0.00430672 -0.00291365]
[ 0.01698035 -0.01136296]
[-0.00016679  0.01099356]
[-0.04037095  0.03287831]
[-0.01140888  0.01983032]
[-0.01390101 -0.00308823]
[ 0.00555434 -0.0066829 ]
[0.00597267 0.01641907]
[0.00870044 0.01089746]
[ 0.01450863 -0.0224578 ]
[ 0.04335986 -0.04601683]
[-0.00692102  0.01430517]
[-0.00017503  0.002914  ]
[-0.00761308  0.01001129]
[-0.02024779  0.00421656]
[0.00036168 0.01577237]
[0.01066984 0.01848888]
[-0.01490442 -0.0030889 ]
[ 0.0204562  -0.03860701]
[-0.02497843 -0.00231516]
[0.00714254 0.01694146]
[-0.0166049   0.01014842]
[-0.01382805  0.02177463]
[-0.00929178  0.01477441]
[ 0.01604984 -0.01172788]
[-0.01475938  0.0094036 ]
[ 0.00211241 -0.01121887]
[-0.15547189  0.16037902]
[-0.02536791  0.01261311]
[0.00413683 0.01481292]
[0.01154385 0.02064133]
[-0.00683949  0.01825675]
[0.01066898 0.01118154]
[-0.03123358  0.0097655 ]
[ 0.05688768 -0.07205337]
[ 0.02259841 -0.04324355]
[-0.008283   -0.01374009]
[ 0.01871594 -0.0045259 ]
[-0.00708019  0.01919307]
[-0.01187244  0.01042898]
[ 0.01253726 -0.01003537]
[-0.02273145  0.008509  ]
[-0.02493229 -0.00679295]
[ 0.01167052 -0.03425248]
[-0.00486925  0.00116862]
[-0.00026015  0.00159059]
[-0.01913453 -0.00538909]
[0.0126147  0.00564715]
[-0.01087436  0.0161891 ]
[0.00167984 0.00832595]
[0.00307398 0.00042009]
[ 0.00165994 -0.03214597]
[0.01050165 0.00475497]
[ 0.01283177 -0.00693507]
[-0.02150613  0.02020694]
[0.00422307 0.00100926]
[ 0.00252297 -0.01473883]
[0.00932471 0.00657836]
[-0.00422853  0.02447049]
[ 0.00659804 -0.03163115]
[-0.00995991 -0.01003567]
[-0.00621374 -0.00317743]
[-0.0004109   0.00700353]
[-0.00617542  0.00970998]
[ 0.01274731 -0.00307716]
[-0.011763    0.01309207]
[ 0.03752981 -0.04233854]
[ 0.02696685 -0.01608879]
[0.00323723 0.01029082]
[-0.00167797 -0.02146706]
[ 0.02814352 -0.0130123 ]
[ 0.02230857 -0.02518062]
[ 0.02077716 -0.02453907]
[ 0.02217126 -0.01851134]
[ 0.01960365 -0.01538524]
[ 0.00937762 -0.02899664]
[ 0.00777113 -0.01190837]
[ 0.01359819 -0.01730849]
[ 0.01480973 -0.01412356]
[-0.00725755 -0.00430154]
[ 0.02490005 -0.00653672]
[ 2.5399119e-02 -6.3324864e-05]
[ 0.0283175  -0.02440164]
[ 0.00778632 -0.01651798]
[ 0.00146566 -0.00252943]
[ 0.02875066 -0.01524436]
[ 0.01404878 -0.0126561 ]
[ 0.04214237 -0.04382122]
[-0.00585928 -0.00023227]
[-0.01957445  0.02207957]
[-0.00090739  0.02134706]
[-0.04918069  0.06151927]
[-0.01291656  0.0248106 ]
[-0.01742554  0.00123441]
[ 0.037913  -0.0182384]
[ 0.01598557 -0.00562395]
[-0.00961411  0.00125595]
[0.00622243 0.00826613]
[-0.025695    0.01622195]
[-0.08240005  0.06769124]
[-0.02453866  0.02657926]
[-0.002568   -0.03088178]
[ 0.03407192 -0.01999282]
[0.00061735 0.01559804]
[-0.00848987 -0.00300336]
[ 0.01379064 -0.00015879]
[-0.01695976 -0.00320426]
[-0.05879272  0.06752574]
[-0.02054336  0.02296698]
[ 0.01947911 -0.02106604]
[ 0.02800683 -0.01934942]
[0.01366553 0.00612882]
[ 0.01611635 -0.01433152]
[ 0.00643657 -0.0110961 ]
[0.00022626 0.01815533]
[-0.03228684  0.00601644]
[-0.02820322  0.02882197]
[ 0.01314348 -0.01864602]
[ 0.01245095 -0.00540893]
[0.01321662 0.00377871]
[0.00870179 0.01747146]
[ 0.02135994 -0.01230249]
[-0.00229343  0.00940488]
[-0.01531991  0.0344535 ]
[-0.03967189  0.05072683]
[-0.00847236  0.01340141]
[ 0.02467897 -0.01901907]
[0.01245532 0.01228665]
[ 0.00728338 -0.00465971]
[0.01754728 0.00155429]
[ 0.01849988 -0.02708417]
[-0.0073812   0.03065808]
[-0.04864451  0.02822839]
[-0.01053379 -0.01783487]
[ 0.00802206 -0.00759843]
[-0.0178683  -0.00877161]
[ 0.00055758 -0.00607921]
[ 0.01357946 -0.02046955]
[-0.00110065 -0.00322444]
[ 0.00223275 -0.00142257]
[0.00122672 0.03179422]
[ 0.00645808 -0.01858459]
[0.01490284 0.00271238]
[ 0.01835349 -0.00514764]
[ 0.01882705 -0.00434373]
[ 0.01183561 -0.02591225]
[-0.00121825  0.02288796]
[ 0.0077653  -0.00570973]
[-0.007689   -0.00354108]
[ 0.01754061 -0.01956137]
[-0.01161666  0.00438372]
[-0.00759202 -0.00657602]
[-0.00800168 -0.00702706]
[-0.00039463 -0.00021683]
[-0.0013542  -0.02180476]
[ 0.01714054 -0.00533879]
[0.01624887 0.0113183 ]
[-0.01145493  0.00172981]
[-0.00691409 -0.01111809]
[ 0.02541359 -0.01320527]
[-0.00644959 -0.00499077]
[0.01641484 0.00130127]
[-0.00738275 -0.01558326]
[ 0.00677311 -0.01260815]
[0.00563269 0.00552511]
[-0.01101554 -0.01902376]
[0.01235    0.00406684]
[-0.01172033 -0.00188574]
[0.01271059 0.00766775]
[ 0.01329616 -0.0107049 ]
[-0.00414803 -0.02392594]
[0.00243892 0.00167588]
[0.01632567 0.00613796]
[2.1792583e-03 4.0647483e-05]
[0.01316276 0.01402572]
[ 0.00257309 -0.00373272]
[-0.00758602 -0.01533798]
[-0.00667816  0.00983819]
[0.00013646 0.00816128]
[ 0.0190631  -0.00209709]
[ 0.01830784 -0.00545249]
[ 0.00794808 -0.01695941]
[ 0.00566669 -0.01650321]
[-0.00824603  0.00391323]
[-0.00688915 -0.01995995]
[-0.0067014  -0.00207855]
[ 0.04599149 -0.03052521]
[0.01273537 0.01301976]
[-0.00087124 -0.00764923]
[ 0.01184028 -0.00408657]
[-0.01360325  0.00583104]
[-0.01612229 -0.01266332]
[-0.0028985  -0.01019104]
[0.02012177 0.00214174]
[-0.01709695  0.01196139]
[ 0.01043104 -0.01906785]
[-0.0056     -0.00695524]
[-0.01204562  0.01412544]
[ 0.02147853 -0.01061255]
[ 0.03348713 -0.03885422]
[0.00559901 0.00760225]
[ 0.00427926 -0.01771478]
[-0.01268519 -0.01532675]
[-0.00514518 -0.01016511]
[ 0.01718396 -0.00910064]
[-0.01023755 -0.01161431]
[-0.01038433  0.00515195]
[-0.00593634 -0.0052217 ]
[0.0148212  0.00642155]
[-0.00613523 -0.01893211]
[ 0.02081849 -0.01514168]
[-0.01455067 -0.00651236]
[ 4.5992946e-03 -5.7627090e-05]
[0.00310982 0.00058752]
[ 0.00646503 -0.00477558]
[ 0.02201899 -0.01894976]
[ 0.00808612 -0.01221252]
[0.01294744 0.00718424]
[0.02239465 0.00911023]
[ 0.00470236 -0.0129197 ]
[-0.01227311 -0.01244237]
[0.00658167 0.00184765]
[ 0.00931461 -0.00562041]
[ 0.00347615 -0.00681868]
[0.01762637 0.01072439]
[-0.00289299  0.01537096]
[0.01071695 0.01503926]
[-0.03614594  0.03687838]
[-0.01064639  0.01095475]
[-0.00992096  0.00344821]
[-0.0186179  0.0086001]
[ 0.01089399 -0.00861101]
[-0.01909964  0.00895502]
[0.01526287 0.00344905]
[-0.02769633  0.02398927]
[-0.07508448  0.06766589]
[-0.02195077  0.00955378]
[0.0126495 0.0071929]
[0.00372484 0.01077877]
[-0.00045424  0.007464  ]
[-0.00050655  0.00958065]
[ 0.00127768 -0.01664054]
[0.00717184 0.01273703]
[-0.04324069  0.07215316]
[-0.02120773  0.01655309]
[-0.01130678 -0.0012317 ]
[-0.0201133   0.00394115]
[-0.01548408 -0.00515723]
[0.01466588 0.01093112]
[ 0.00612151 -0.01238551]
[ 0.04932136 -0.0433077 ]
[-0.02881343  0.01092882]
[-0.00818994  0.02163773]
[0.01248928 0.01181501]
[ 0.00221835 -0.00941589]
[0.01819271 0.00326188]
[0.00528016 0.0026257 ]
[0.0007867  0.00271365]
[ 0.00297571 -0.00297242]
[-0.11597046  0.09845945]
[-0.05565893  0.05311672]
[-0.01914812 -0.01062172]
[ 0.00167124 -0.00703332]
[ 0.00518237 -0.00141749]
[-0.00156476 -0.0085208 ]
[-0.01244806 -0.00949046]
[0.00369528 0.02335373]
[-0.11462848  0.12635547]
[-0.0286639   0.01275788]
[-0.00977832 -0.00463211]
[-0.01445881 -0.00560281]
[-0.01198478 -0.00292258]
[0.00370727 0.01088002]
[-0.00223802 -0.01477437]
[ 0.1074278  -0.10633196]
[-0.07949033  0.0613823 ]
[-0.01115578  0.00683487]
[ 0.00742733 -0.01041193]
[ 0.00901753 -0.01230839]
[-0.01480756 -0.00471229]
[0.00109199 0.01626736]
[-0.00326403  0.02033251]
[-0.06988849  0.06750181]
[-0.03601626  0.06595954]
[0.00388317 0.01230039]
[0.00176486 0.00428043]
[ 0.02612669 -0.0310802 ]
[-0.04691097  0.05044597]
[0.01603809 0.01512965]
[-0.00068885  0.00907204]
[-0.04578874  0.03844319]
[ 0.00368534 -0.00363893]
[0.00184264 0.01858285]
[ 0.02380273 -0.0083804 ]
[0.01496012 0.00120412]
[0.02948279 0.00398029]
[-0.00889603 -0.01161646]
[0.00256283 0.0042123 ]
[ 0.03599251 -0.03858094]
[ 0.01728718 -0.00465568]
[-0.01617859 -0.01183916]
[ 0.04985454 -0.03222126]
[-0.00654282 -0.0116019 ]
[ 0.05517332 -0.05908377]
[ 0.01068916 -0.01157683]
[-0.01074479 -0.01113385]
[ 0.02619953 -0.03938014]
[-0.01247298  0.00061253]
[-0.0135527 -0.0022562]
[ 0.01826243 -0.00233743]
[ 0.00138181 -0.0173656 ]
[0.00892365 0.00826287]
[-0.01586369  0.01838702]
[0.00566077 0.01448216]
[-0.00944608  0.03202089]
[ 0.05819619 -0.02256914]
[ 0.00106554 -0.01628585]
[-0.00238031 -0.02477307]
[0.00049657 0.0032584 ]
[-0.01007399  0.01222565]
[0.0122087  0.00305236]
[ 0.0093448  -0.01368171]
[-0.00513856 -0.00569962]
[-0.1245375   0.14278956]
[-0.03870593  0.04369105]
[ 0.00630932 -0.00545631]
[ 0.03644043 -0.01960858]
[ 0.00919988 -0.00405121]
[-0.00442141 -0.00180299]
[0.02342188 0.00733556]
[-0.00387905  0.00243404]
[-0.04757912  0.03093008]
[-0.09670231  0.08381255]
[-0.01385996 -0.0147852 ]
[ 0.0177326  -0.01766792]
[-0.01709555 -0.01350157]
[0.00147081 0.00631156]
[-0.01213078  0.00439854]
[ 0.01983356 -0.0154914 ]
[-0.04377272  0.02373567]
[-0.03111486  0.01628003]
[ 0.01528538 -0.01214783]
[0.00759878 0.00183342]
[-0.00121442 -0.01235736]
[0.00037466 0.00787552]
[0.01027113 0.00603444]
[-0.00957037  0.00738787]
[-0.01803981  0.01453176]
[-0.04089505  0.03693423]
[-0.00715491 -0.02062343]
[ 0.01549121 -0.00162509]
[ 0.00447619 -0.00862126]
[-0.01833142 -0.01353756]
[ 0.01209865 -0.017706  ]
[ 0.02666966 -0.0245005 ]
[-0.01724465  0.04124039]
[-0.03853313  0.04981101]
[0.00390582 0.01363872]
[0.00361507 0.00428807]
[0.00054908 0.00196871]
[-0.01397394 -0.00173863]
[ 0.00334408 -0.00718988]
[ 0.0002155  -0.02351608]
[-0.02961117  0.01840221]
[-0.02630693  0.00427651]
[-0.01400072 -0.00447145]
[ 0.00263153 -0.01142325]
[ 0.0152615  -0.01444361]
[ 0.0025734  -0.00375851]
[0.02956106 0.00134773]
[-0.00857599  0.00348133]
[-0.01193608  0.01571661]
[0.00103135 0.0024037 ]
[ 0.00058867 -0.01755215]
[0.01251649 0.01397337]
[0.00331854 0.00248883]
[0.01339414 0.00959788]
[ 0.01806601 -0.01519871]
[ 0.01282657 -0.02003752]
[ 0.00778223 -0.01411089]
[-0.0101199   0.01199544]
[ 0.00859393 -0.01802006]
[ 0.00584738 -0.00824141]
[ 0.02421775 -0.00931467]
[ 0.01727433 -0.02052702]
[ 0.01634836 -0.02358142]
[0.006496   0.00050317]
[-0.00935174 -0.01106557]
[ 0.00641441 -0.00912979]
[-0.01152578  0.01006134]
[ 0.01871068 -0.01473043]
[0.00856716 0.00531361]
[0.02026686 0.0122757 ]
[-0.00396708 -0.02334918]
[ 0.01133674 -0.01226395]
[-0.00556702 -0.00334729]
[ 0.00382571 -0.01897527]
[ 0.01779689 -0.01485638]
[0.01175845 0.00877366]
[ 0.02244172 -0.01747955]
[-1.2088087e-02 -9.4982286e-05]
[ 0.01146777 -0.01891025]
[ 0.00973332 -0.00070418]
[ 0.0020095 -0.0080624]
[ 0.0116648  -0.01347104]
[ 0.01927283 -0.01326127]
[-0.00516734 -0.00135053]
[-0.00501277  0.00155926]
[-8.5109306e-05  3.6704899e-03]
[ 0.01155654 -0.01118219]
[ 0.02117411 -0.01954583]
[-0.01656069  0.00037901]
[0.01413231 0.01597284]
[-0.00909304 -0.00616944]
[-0.00652417  0.01055537]
[ 0.00257867 -0.00318283]
[ 0.00760043 -0.01681137]
[-0.01225418 -0.00113118]
[-0.01305563  0.00427792]
[ 0.00536689 -0.01813845]
[ 0.00466343 -0.00458721]
[-0.01541052 -0.00442099]
[0.00205726 0.01172309]
[0.00404075 0.00362335]
[ 0.00818879 -0.00374279]
[ 0.01565926 -0.00347419]
[-0.04362464  0.05327913]
[0.01430366 0.00819752]
[-0.01114246 -0.01349659]
[ 0.01898082 -0.00662822]
[0.01008225 0.01095112]
[ 0.01209433 -0.00648834]
[0.01268685 0.01148942]
[ 0.00337676 -0.01288462]
[ 0.03447648 -0.01483784]
[-0.01664905 -0.00248918]
[ 0.01582766 -0.00776078]
[ 0.01655939 -0.00515415]
[0.00943053 0.00546981]
[0.00662514 0.00732352]
[ 0.00921107 -0.00592625]
[ 0.00868883 -0.00036152]
[-0.00071499 -0.00896221]
[ 0.01293845 -0.00242969]
[2.6150763e-03 3.4316145e-05]
[-0.00190179 -0.01281276]
[0.00240365 0.01614211]
[ 0.00595476 -0.01231397]
[-0.01557175  0.00926183]
[-0.0130337  -0.00040619]
[-0.01632945  0.00551678]
[-0.0077126   0.02035778]
[ 0.00499102 -0.01025609]
[-0.01622437 -0.00531552]
[-0.00299116  0.00244674]
[ 0.00331267 -0.01457983]
[-0.00807842 -0.00862066]
[-0.01896892  0.01811033]
[-0.00507143  0.01443423]
[-0.05678375  0.05875476]
[-0.01263072  0.01141184]
[-0.01809219  0.00944941]
[-0.01001445 -0.00263092]
[0.01504872 0.01784355]
[ 0.00798345 -0.00846256]
[0.01596465 0.01588445]
[ 0.0196676  -0.03802613]
[-0.11682937  0.08433116]
[-0.02207882  0.03472329]
[ 0.01093998 -0.00221438]
[-0.00673499 -0.00807763]
[ 0.013466   -0.01328574]
[-0.00625361 -0.00817074]
[ 0.00492587 -0.01814508]
[-0.01478944  0.01164264]
[-0.06304155  0.0556005 ]
[-0.03344567  0.02556116]
[-0.00838932 -0.00742823]
[0.0103949 0.0173852]
[-0.00681764 -0.00902568]
[-0.00633783  0.00858563]
[-0.01211127  0.00440537]
[ 0.02728079 -0.03679986]
[-0.04296765  0.0455666 ]
[-0.01245159  0.0363842 ]
[0.00655389 0.00233514]
[ 0.01570273 -0.01885131]
[0.01301591 0.00054252]
[-0.01704695  0.00876277]
[-0.01210319 -0.01034574]
[-0.01661251  0.04196047]
[-0.10154017  0.10810141]
[-0.03563314  0.02550648]
[-0.003088   -0.01287995]
[-0.00593562  0.02212195]
[ 0.00581096 -0.0139005 ]
[-0.01429921  0.0071307 ]
[-0.00759781  0.00096055]
[ 0.04718258 -0.03945392]
[-0.00991364  0.02802943]
[0.01763072 0.00755552]
[ 0.00940061 -0.00030117]
[-0.00026232 -0.0204962 ]
[0.01487769 0.005018  ]
[-0.00038704 -0.00732679]
[-0.01374564  0.00205945]
[-0.01069254  0.02631775]
[-0.04057285  0.04038575]
[-0.02128188  0.01170672]
[-5.288297e-05 -2.430940e-02]
[ 0.01400006 -0.00068482]
[-0.00845932 -0.00084862]
[ 0.00811446 -0.00238153]
[-0.00376021  0.01397616]
[ 0.02915771 -0.03941156]
[0.00919275 0.00331183]
[0.01397103 0.00968693]
[-0.00612686  0.01496061]
[ 0.03059425 -0.01159093]
[ 0.00756633 -0.01501541]
[-0.00379333 -0.01248943]
[-0.01411762  0.02672561]
[ 0.08823114 -0.0890194 ]
[-0.01593034  0.02190716]
[-0.00952351  0.01726745]
[ 0.02606125 -0.0296198 ]
[-0.00081966 -0.00681159]
[ 0.00881727 -0.0199368 ]
[0.01041742 0.00699766]
[0.00533539 0.01122976]
[ 0.00638284 -0.0125392 ]
[-0.00298123  0.00085946]
[-0.0381179   0.02837308]
[-0.00595035  0.00396783]
[-0.01483862 -0.00325221]
[-0.00212029 -0.01242612]
[-0.01624631  0.01666945]
[0.00300508 0.01834388]
[-0.015983   -0.00905164]
[ 0.04339022 -0.02480705]
[ 0.02524342 -0.01728726]
[-0.00938538 -0.00272984]
[-0.00439639  0.00233385]
[ 1.1198158e-02 -7.0490867e-05]
[-0.00536384 -0.00356203]
[-0.01035461  0.01634615]
[-0.02385164  0.03096678]
[-0.00892819 -0.01755779]
[0.01374153 0.00075029]
[-0.00984509  0.01392158]
[-0.01586048 -0.00059707]
[-0.00953902 -0.01188197]
[-0.01824541  0.01059321]
[ 0.0135504  -0.01462653]
[-0.01485872 -0.01716412]
[-0.00986977 -0.00648461]
[ 0.01199837 -0.00689698]
[-0.00084606 -0.00522959]
[-0.00309489  0.00132626]
[-0.0173486  -0.00032232]
[0.01616172 0.01894152]
[-0.0064414   0.00598409]
[-0.03125103  0.03399328]
[0.00824639 0.01421935]
[-0.0022122   0.00736337]
[ 0.01940434 -0.01219584]
[-0.01385217 -0.00398959]
[ 0.00974745 -0.00814952]
[-0.01191105  0.010085  ]
[-0.00437346  0.00476742]
[ 0.02356526 -0.00165291]
[-0.01640077  0.0071748 ]
[-0.00449812  0.0006308 ]
[-0.00019878  0.00069152]
[0.00809938 0.00885307]
[-0.00566514  0.00482467]
[ 0.01677008 -0.01728976]
[0.01878314 0.00180193]
[ 0.01839113 -0.02063408]
[0.00285874 0.00387328]
[-0.01321057 -0.01021625]
[-0.00317757  0.00819776]
[0.00942514 0.00064048]
[ 0.01555246 -0.01654686]
[-0.00843285 -0.02165835]
[-0.01261125  0.01196876]
[0.02404336 0.00421761]
[-0.0282406  0.0248926]
[ 0.00404415 -0.00941917]
[-0.00630134 -0.00257284]
[-0.00299156 -0.01106474]
[ 0.05382631 -0.05118808]
[ 0.00242667 -0.00871865]
[ 0.02143438 -0.01655169]
[-0.04312428  0.03696044]
[-0.01220178 -0.01246654]
[ 0.01869339 -0.00356514]
[ 0.01143748 -0.01511278]
[ 0.01726008 -0.00792197]
[0.00629394 0.0003057 ]
[-0.0091738   0.00822602]
[ 0.01433434 -0.0015909 ]
[-0.01201579  0.00656913]
[0.00884529 0.0067558 ]
[-0.01045921  0.00151089]
[ 0.01377845 -0.00396609]
[ 0.02796236 -0.04808397]
[-0.00403419 -0.02156956]
[ 0.00950056 -0.02086337]
[ 0.02134865 -0.01359272]
[-0.01151449 -0.01443728]
[-0.00872833  0.019418  ]
[ 0.00460131 -0.01081972]
[0.00109022 0.01696385]
[0.00147657 0.00048645]
[ 0.01213091 -0.01852991]
[ 0.00633848 -0.01103207]
[-0.00831561 -0.01814146]
[ 0.01512954 -0.00890316]
[-0.00961773 -0.00621742]
[ 0.00512301 -0.01458794]
[-0.00957373  0.00388294]
[ 0.01235869 -0.01425177]
[-0.00099403 -0.00363134]
[ 0.00993558 -0.00482758]
[ 0.00768981 -0.01429507]
[ 0.02564452 -0.01997929]
[ 0.00440844 -0.00037253]
[0.0004282  0.00984563]
[ 0.01052313 -0.01623983]
[0.01822456 0.00976905]
[ 0.02650316 -0.02608909]
[7.1464034e-05 1.1074869e-02]
[ 0.01336554 -0.00407145]
[ 0.03747546 -0.00850508]
[ 0.01820483 -0.01168922]
[ 0.01471391 -0.00939494]
[0.01928519 0.00328447]
[ 3.4706991e-05 -1.8933343e-02]
[ 0.00819254 -0.01208113]
[ 0.01548069 -0.01068888]
[ 0.00865841 -0.01606077]
[-0.01207969  0.00211596]
[0.01050886 0.01294212]
[0.00612178 0.00894774]
[-0.00838615  0.01247095]
[0.01895925 0.0094264 ]
[ 0.01206345 -0.01355447]
[-0.01444874  0.00065556]
[0.01450548 0.00328863]
[ 0.01523402 -0.01753983]
[ 0.00128377 -0.0159201 ]
[0.01596842 0.01426939]
[-0.00629689 -0.01559202]
[ 0.00576178 -0.01680607]
[ 0.02085757 -0.00525506]
[-0.00597384  0.01091599]
[ 0.01535146 -0.01716951]
[-0.03226951  0.01630691]
[ 0.0164082  -0.00628484]
[-0.00638602  0.01051683]
[ 0.00990774 -0.01001026]
[-0.0060999 -0.0115285]
[-0.012238   0.0219501]
[0.00321207 0.0049306 ]
[ 0.00614455 -0.02082388]
[ 0.06224888 -0.06058477]
[ 0.01020007 -0.01312053]
[ 0.01549021 -0.00500162]
[ 0.00672991 -0.01139178]
[-0.0114773   0.01560704]
[ 0.01146038 -0.01878184]
[0.01292115 0.01376708]
[-0.00622742 -0.01226943]
[-0.00429644 -0.01264734]
[-0.02906374 -0.00400043]
[0.00489507 0.00170435]
[-0.01125741  0.00855135]
[0.00989164 0.01024805]
[-0.01111335  0.00818815]
[ 0.00137648 -0.0072706 ]
[0.00318157 0.01221801]
[-0.00623441  0.00871947]
[-0.08322529  0.10636771]
[-0.04361523  0.01494021]
[0.01497673 0.0111469 ]
[-0.02848123  0.01099828]
[ 0.00544472 -0.01464416]
[-0.01248302  0.00769307]
[-0.01609861  0.01263401]
[ 0.04391854 -0.02276908]
[-0.07040826  0.08205352]
[0.00055071 0.00765448]
[0.00113016 0.00986336]
[0.0028036  0.02104825]
[0.004166   0.00358308]
[-0.01300452  0.00767695]
[ 0.01093995 -0.0004312 ]
[-0.00426709  0.00891285]
[-0.05444836  0.068116  ]
[-0.0211431   0.00735999]
[ 0.00535678 -0.00461316]
[-0.01177328 -0.00987775]
[0.0075431  0.01558169]
[ 0.00276639 -0.01032891]
[-0.00320514 -0.01846021]
[-0.00076551  0.00978407]
[-0.11023523  0.09846521]
[-0.02628437  0.02308238]
[-0.02152501  0.00195129]
[-0.0095665  -0.00474641]
[-0.00846389 -0.00164285]
[-0.00692454 -0.01639027]
[-0.01078256 -0.02280071]
[ 0.02847492 -0.02359778]
[-0.09918262  0.09801102]
[-0.03286998  0.02029881]
[ 0.02016872 -0.04344206]
[ 0.00438856 -0.00948011]
[ 0.02267151 -0.01169405]
[ 0.00196927 -0.00411448]
[-0.0090784   0.00611691]
[ 0.02659821 -0.03122002]
[ 0.01701598 -0.01619434]
[ 0.00019189 -0.01367234]
[0.00933933 0.01083446]
[0.01708071 0.00619483]
[ 0.02208238 -0.02520161]
[-0.00961414 -0.00060947]
[ 0.01882536 -0.01141389]
[-0.00647002  0.01012809]
[-0.03578826  0.02579327]
[-0.00419475  0.01256535]
[ 0.02804381 -0.01467698]
[ 0.02652038 -0.02152535]
[-0.0038784   0.01165899]
[0.00482387 0.01642414]
[-0.01207969  0.01996578]
[ 0.05664301 -0.0359422 ]
[-0.01959909  0.0001112 ]
[-0.02460137  0.02549471]
[ 0.01414193 -0.0267508 ]
[ 0.01065704 -0.01243605]
[ 0.01397342 -0.02058292]
[ 0.00705282 -0.00040358]
[0.00416056 0.01169658]
[-0.01557181  0.01889778]
[-0.0965203   0.11600718]
[-0.04365569  0.01705225]
[-0.00383049 -0.00376311]
[ 0.00057314 -0.00283913]
[ 0.01132723 -0.00930774]
[0.00367728 0.01867951]
[-0.02280439  0.01259855]
[0.02547489 0.00107617]
[-0.05867393  0.0537988 ]
[-0.03555279  0.03566526]
[-0.01907282 -0.00807658]
[-0.00619888  0.02206412]
[-0.01030003  0.01660599]
[-0.00320051 -0.00902711]
[-0.01073339 -0.01237959]
[0.00171764 0.00345273]
[ 0.0123834  -0.03065326]
[ 0.02456461 -0.01800607]
[ 0.00358911 -0.00888597]
[-0.01250069  0.00957004]
[-0.01106093  0.00993545]
[-0.00786852  0.00286083]
[0.00178085 0.00051126]
[-0.01667032  0.00802801]
[-0.01535113 -0.01860528]
[ 0.00357591 -0.02452257]
[-9.3223840e-05 -7.1115037e-03]
[-0.00247161  0.00832904]
[-0.01608172 -0.00817101]
[-0.00114441 -0.01319736]
[ 0.00593434 -0.01006278]
[-0.03488616  0.02664379]
[-0.01350546 -0.00590776]
[ 0.00457469 -0.0179663 ]
[-0.01477522  0.00711054]
[-0.01006939  0.01698248]
[-0.01293139 -0.01853212]
[ 0.01059958 -0.00414516]
[-0.00569329 -0.00255533]
[-0.00458953  0.00980166]
[ 0.01081079 -0.00717312]
[-0.02168368  0.02708661]
[-0.00770985 -0.00449887]
[-0.00040291  0.00245907]
[-0.00867587 -0.00805094]
[-0.01167293 -0.01769512]
[ 0.00390184 -0.00335982]
[ 0.00271871 -0.01867396]
[ 0.01446002 -0.00925005]
[-0.01417179  0.00119679]
[-0.00988435  0.01157184]
[-0.0127883  -0.01038448]
[ 0.0115621  -0.01626204]
[-0.01113166  0.00048725]
[ 0.00091336 -0.00805922]
[ 0.02280439 -0.00517512]
[-0.01222832 -0.02065829]
[-0.01389141 -0.01820842]
[0.00600171 0.01710907]
[-0.0231144   0.00571952]
[-0.00283273 -0.00568029]
[ 0.01351402 -0.00921417]
[-0.00285484  0.02429857]
[ 0.01432122 -0.00151316]
[-0.0350879   0.04082884]
[-0.00419561  0.01279004]
[-0.01024979 -0.00878399]
[-0.01323648  0.01628432]
[ 0.01781038 -0.03086823]
[ 0.00098371 -0.00292374]
[-0.00508173  0.00564084]
[-0.01986095 -0.00746887]
[0.00531416 0.00194168]
[ 0.00894272 -0.00683562]
[0.01909643 0.00055417]
[0.0097425  0.01008551]
[ 0.01143098 -0.01300548]
[-0.00716207  0.00090741]
[-1.636273e-05 -3.260145e-03]
[-0.02179527  0.03417256]
[-0.01382332 -0.00889548]
[ 0.00013556 -0.01238087]
[ 0.00452384 -0.0190822 ]
[ 0.02466711 -0.03806465]
[ 0.01797654 -0.00478755]
[0.00328696 0.00933579]
[-0.00388701 -0.01294874]
[ 0.01627895 -0.01069563]
[ 0.00151678 -0.00963967]
[ 0.01103508 -0.00116865]
[ 0.00618296 -0.00767278]
[ 0.0373542 -0.0445406]
[0.00548493 0.00216981]
[-0.00018298  0.0018592 ]
[-0.02491724  0.00791459]
[ 0.01066124 -0.00996993]
[ 0.01976588 -0.0032024 ]
[ 0.01744747 -0.00688011]
[0.00595477 0.01046596]
[-0.00258069  0.00208559]
[0.01000716 0.01846235]
[-0.01008509 -0.003643  ]
[-0.00693063  0.01589633]
[-0.03096415  0.03427904]
[-0.00534171  0.00730107]
[-0.00732039  0.00807969]
[0.00599698 0.00694902]
[ 0.00686268 -0.0239796 ]
[0.00153778 0.02210776]
[-0.00595716 -0.01119533]
[-0.0057149   0.02277884]
[-0.02218671  0.00947892]
[-0.00239459 -0.0252305 ]
[ 0.00265108 -0.01331273]
[-0.007404    0.00834448]
[ 0.0260713  -0.02726977]
[0.01165752 0.00029259]
[ 0.01885183 -0.02011551]
[0.00422907 0.01250076]
[-0.01669353  0.00170355]
[ 0.01560593 -0.02200954]
[-0.00713467 -0.00499777]
[-0.01043599  0.01377901]
[0.00992784 0.00535155]
[-0.00579065 -0.00964227]
[-0.00658494  0.0023356 ]
[-0.00882315 -0.01064672]
[-0.02517092  0.0127707 ]
[ 3.128115e-04 -6.258027e-05]
[0.00729178 0.01074829]
[ 0.02030279 -0.0188892 ]
[ 0.02299364 -0.00496106]
[0.01377749 0.01379932]
[-0.00119901  0.01222918]
[0.00348943 0.00399698]
[-0.00374123 -0.00653212]
[ 0.00749209 -0.00446303]
[-0.00632807  0.00563986]
[0.01110167 0.01300351]
[-0.01251995  0.0161974 ]
[-0.01051682  0.00851907]
[ 0.01864353 -0.00584607]
[ 0.02247181 -0.02487036]
[0.0112965  0.00029049]
[-0.01507445  0.01138912]
[ 0.00423687 -0.0002186 ]
[0.00614889 0.00717922]
[-0.00164209  0.01388568]
[ 0.00438973 -0.00091628]
[-0.00880979  0.0161232 ]
[-0.01152952 -0.01202036]
[ 0.05408172 -0.04249909]
[-0.00503025 -0.01457137]
[-0.00849207 -0.0005316 ]
[ 0.01240102 -0.0252727 ]
[-0.00802336 -0.00668681]
[ 0.01226773 -0.01730429]
[-0.01275663  0.01606577]
[0.00760279 0.00664292]
[0.00206754 0.00928292]
[-0.0792262   0.08888917]
[-0.04228193  0.0280619 ]
[-0.00550408  0.01010395]
[-0.02074821 -0.0107335 ]
[0.00955733 0.00596264]
[ 0.0049809  -0.00673319]
[7.85690063e-05 1.23983715e-02]
[ 0.00402289 -0.02197256]
[-0.1037527   0.11596233]
[-0.04849515  0.03806433]
[ 0.01311266 -0.01613675]
[0.00147975 0.0060316 ]
[ 0.01731198 -0.0075585 ]
[-3.7113327e-04 -9.6359443e-05]
[-0.01449312 -0.01303862]
[ 0.02017714 -0.01946061]
[-0.06454317  0.05242265]
[-0.00319032 -0.00246839]
[-0.0109823  -0.00382222]
[-0.00386602  0.0106775 ]
[ 0.00863914 -0.00066588]
[-0.01211156 -0.00021771]
[-0.00823439  0.00519802]
[-0.00275091 -0.00944348]
[-0.05858599  0.0690214 ]
[-1.9706944e-02  6.7637404e-05]
[ 0.02199691 -0.01853543]
[0.00867669 0.00978712]
[-0.00350761  0.00265196]
[-0.00090594 -0.01877169]
[0.01466233 0.00878669]
[-0.00190269  0.02651897]
[0.00449905 0.01365238]
[-0.02245234  0.00420377]
[-0.01659574  0.01042465]
[ 0.00077165 -0.01383163]
[-0.00308491 -0.00128126]
[0.00531503 0.00784403]
[-0.01051616 -0.00168972]
[-0.01111686  0.0063926 ]
[-0.04209905  0.03914641]
[-0.00146677  0.00934793]
[-0.01712981  0.01524231]
[ 0.02577255 -0.01070694]
[-0.02958078  0.0380443 ]
[-0.00025339  0.00980193]
[-0.00687657  0.00974675]
[ 0.07203615 -0.05306428]
[ 0.0125849  -0.01430742]
[ 0.00998066 -0.00551964]
[-0.00929693 -0.0157422 ]
[ 0.00865204 -0.00460171]
[ 0.001433   -0.01923674]
[-0.0152506   0.01958144]
[-0.00440617 -0.00280355]
[ 0.06311107 -0.04718428]
[-0.10324359  0.12001306]
[-0.02339286  0.0353894 ]
[ 0.02984743 -0.01738193]
[ 0.00894917 -0.00442526]
[0.0097253  0.00127824]
[0.00443351 0.02215333]
[-0.01531684  0.02138444]
[ 0.01570998 -0.01562908]
[-0.07098674  0.08595663]
[-0.02075426  0.02394891]
[0.00333717 0.01687047]
[-0.00080168 -0.00452866]
[-0.00168671  0.01568838]
[-0.01986069 -0.00284888]
[-0.02167286  0.02881843]
[-0.02270787  0.01140902]
[-0.09436136  0.10593976]
[-0.03633124  0.03607272]
[-0.01562367  0.00460309]
[-0.00225508  0.02185459]
[-0.0222499   0.01517676]
[-0.01227991  0.01318211]
[ 0.00462634 -0.01709596]
[-0.00361686 -0.00044412]
[0.01388755 0.004809  ]
[-0.01856746  0.02255762]
[ 0.00703488 -0.00511536]
[0.00293262 0.00876542]
[0.00227115 0.02571138]
[-0.00159904  0.0075089 ]
[0.00478954 0.02288776]
[-0.00692555 -0.00503961]
[-0.00327283  0.00647036]
[0.02225192 0.00293708]
[ 0.00028081 -0.01359337]
[-0.01330733  0.00924597]
[0.00784198 0.01089437]
[0.01185622 0.01683976]
[-0.02154499 -0.00397183]
[-0.00784729 -0.01430651]
[ 0.00603435 -0.00712309]
[-0.0042023  -0.00883313]
[-0.02267027 -0.00618128]
[-0.01461736  0.01886842]
[ 0.01164342 -0.02019133]
[0.00288058 0.01329522]
[ 0.01336313 -0.00876028]
[0.01131992 0.00550553]
[-0.00269321 -0.00967773]
[-0.00414185  0.01968098]
[-0.01461559  0.00774793]
[-0.01282867  0.01143212]
[ 0.00561235 -0.02478837]
[0.00725823 0.00588852]
[0.01440499 0.00504084]
[ 0.01581498 -0.02587334]
[-0.00570796 -0.01451169]
[-0.00257751  0.01151121]
[ 0.01791591 -0.0069177 ]
[-0.00981467  0.00072967]
[-0.01946707  0.00040915]
[ 0.00578726 -0.02056667]
[-0.00582843 -0.01494294]
[ 0.00410404 -0.02173484]
[ 0.01276403 -0.01159383]
[ 0.00882411 -0.01495882]
[ 0.00661707 -0.01840254]
[0.0217382  0.00786407]
[ 0.04682788 -0.01757178]
[-0.00124639  0.00833629]
[-0.01280271  0.01633676]
[-0.01321728  0.02665151]
[-0.06093297  0.0327411 ]
[-2.9331444e-05  3.2760371e-03]
[-0.01756866 -0.01356027]
[0.00120168 0.01802738]
[-0.01370081 -0.00159396]
[-0.01026837  0.00940311]
[-0.00345211  0.01752375]
[ 0.01139431 -0.00545861]
[-0.00897836  0.00787321]
[-0.01080015 -0.00406498]
[0.01181923 0.00180604]
[-0.01288433 -0.01413202]
[-0.00891865  0.00279192]
[ 0.01725329 -0.01355195]
[ 0.0076868  -0.02001202]
[-0.03926233  0.03550107]
[ 0.00252826 -0.01698325]
[ 0.01919572 -0.01630828]
[ 0.0133073  -0.01577636]
[ 0.0256406 -0.051114 ]
[ 0.01072374 -0.01554419]
[ 0.01306816 -0.00413606]
[0.00056917 0.01342473]
[-0.01709002 -0.0063442 ]
[0.00275652 0.00507315]
[0.01030988 0.004961  ]
[ 0.02184211 -0.0010598 ]
[ 0.0230572  -0.01911942]
[ 0.02618627 -0.00783485]
[-0.00824911  0.00283902]
[-0.00912973  0.01099424]
[0.01510094 0.01112243]
[-0.00828571  0.0085552 ]
[0.0159051  0.01574049]
[ 0.02421284 -0.02113519]
[ 0.0096603  -0.00984949]
[-0.01479218 -0.00724307]
[-0.00431277 -0.00785352]
[0.00010788 0.01392981]
[-0.03050425  0.0251336 ]
[-0.00927871 -0.00839727]
[-0.00048725  0.00916556]
[-0.01204976  0.01589127]
[-0.00014384 -0.02057858]
[-0.01379825 -0.01215103]
[0.00291516 0.01372611]
[-0.00357343 -0.00827504]
[-0.08062577  0.05611376]
[ 0.00280116 -0.00706415]
[-0.00035658 -0.0107912 ]
[0.01326736 0.02000132]
[ 0.01493214 -0.01360205]
[-0.00379305  0.0114591 ]
[-0.00734378 -0.00894451]
[-0.01746084  0.00965727]
[-0.02546839  0.05527611]
[0.01775933 0.00442856]
[ 0.00950901 -0.00313663]
[ 0.02530966 -0.02082265]
[ 0.02524417 -0.00527478]
[ 0.00674645 -0.00846031]
[ 0.01056725 -0.01040978]
[-0.00018774  0.02013089]
[-0.03108906  0.0090204 ]
[ 0.00555936 -0.0030524 ]
[-0.00185058  0.00643119]
[0.01141006 0.00494544]
[ 0.00967316 -0.00400688]
[-0.01661831 -0.00117969]
[0.01833178 0.00090619]
[0.0012591  0.00506901]
[-0.00085789  0.01458391]
[-0.01384961 -0.00931343]
[-0.0117341  -0.01532921]
[-0.00480637  0.01337871]
[-0.00744213  0.0071715 ]
[-0.0057773  -0.00838776]
[0.00499738 0.01424093]
[-0.01063346 -0.00010624]
[ 0.00729108 -0.00214206]
[ 0.00493852 -0.01047833]
[ 0.0176991  -0.00769502]
[0.01439245 0.00894441]
[-0.00876248  0.01277695]
[0.01765743 0.0067049 ]
[ 0.00412279 -0.01053745]
[ 0.02225369 -0.00361066]
[ 0.01534445 -0.00037259]
[ 0.01766259 -0.00620614]
[ 0.0113289 -0.003716 ]
[0.0148059  0.00298377]
[ 0.01035272 -0.00061206]
[-0.00049098  0.00616153]
[0.02020786 0.00048783]
[ 0.00237916 -0.01492912]
[ 0.01425544 -0.00165538]
[-0.02295533  0.00703843]
[ 0.01810961 -0.02495814]
[ 0.01296506 -0.00503087]
[-0.01814181  0.0051438 ]
[-0.01537198 -0.00551777]
[0.00883787 0.00220685]
[-0.0109534  -0.02098291]
[-0.03697404  0.04246537]
[0.01819846 0.0133268 ]
[ 0.01135874 -0.0130883 ]
[-0.0161688   0.02007287]
[-0.0263817  0.0086221]
[-0.01987169  0.02126218]
[ 0.00775179 -0.00403063]
[ 0.02265046 -0.02372172]
[ 0.04830369 -0.0300762 ]
[-0.01269163 -0.01832087]
[-0.02241979  0.02251713]
[-0.00387331 -0.00374382]
[0.00474251 0.00350637]
[ 0.01419261 -0.01026196]
[-0.0144418  -0.00478978]
[-0.00010902 -0.00605579]
[-0.01014395  0.00323785]
[ 0.01034592 -0.01795652]
[-0.02915911  0.00638363]
[-0.0096666   0.03005288]
[-0.01447147  0.01182127]
[ 0.00597089 -0.01388577]
[0.00265007 0.00199651]
[-0.01284245 -0.01892049]
[-0.04092292  0.02246562]
[ 0.01851391 -0.00688103]
[-0.02494092  0.01548059]
[-0.01775646  0.02306079]
[-0.0100607   0.02228056]
[-0.02801946  0.0030259 ]
[-0.01061304 -0.01103769]
[ 0.00476621 -0.02023704]
[ 0.04721664 -0.0326767 ]
[0.00781635 0.01410562]
[-0.01920643  0.00734664]
[-0.00575418 -0.02600764]
[-0.01415079 -0.01606252]
[ 0.02804521 -0.04129219]
[-0.0041374  -0.00859556]
[ 0.0173627  -0.00889698]
[ 0.01628906 -0.00705055]
[-0.01061377 -0.005264  ]
[-0.00074758  0.00602572]
[0.00068122 0.01691604]
[0.01010582 0.00155359]
[-0.0006626  -0.01237164]
[0.01468347 0.01054645]
[-0.00296304  0.02186233]
[-0.00453591  0.00370864]
[-0.08490552  0.09295806]
[-0.02219565  0.02473514]
[-0.01913042  0.0168812 ]
[ 0.00057187 -0.00326435]
[-0.02114735  0.01671974]
[-0.01987741 -0.00314832]
[-0.02243937 -0.00373249]
[-0.00967092  0.01508311]
[-0.05590153  0.04587471]
[-0.03758337  0.02557375]
[-0.01378876 -0.00501496]
[0.00813275 0.01743793]
[-0.01064978  0.01015159]
[-0.02478697 -0.00947312]
[0.00341413 0.01464724]
[-0.013474    0.02991382]
[-0.02058824 -0.00978325]
[-0.01603834  0.0130304 ]
[-0.0005487   0.00431968]
[-0.00481231 -0.00349562]
[0.00690657 0.00212597]
[-0.01974509  0.0161715 ]
[-0.01459566  0.01769895]
[ 0.01794962 -0.00328153]
[0.01533156 0.0175399 ]
[-0.00389116  0.02161768]
[-0.00744726  0.01062135]
[-0.00805366 -0.00722243]
[-0.01524904 -0.00620479]
[-0.02042957  0.02072087]
[-0.01937022  0.01103493]
[-0.02929897  0.02230091]
[0.00179599 0.00383026]
[ 0.03366062 -0.01183905]
[ 0.00981299 -0.00744522]
[-0.01931833  0.00459351]
[ 0.01893032 -0.01946468]
[ 0.00079918 -0.00143873]
[ 0.01219306 -0.00111236]
[ 0.00033379 -0.00613292]
[0.01286737 0.01039596]
[-0.03091856  0.03242995]
[-0.00088832  0.00071177]
[0.01333688 0.01946424]
[-0.00467786  0.00468004]
[-0.00960107 -0.00347744]
[-0.00515323 -0.00412055]
[ 0.01822206 -0.03145699]
[-0.0076042  -0.01033651]
[-0.00779771 -0.01051855]
[ 0.01419227 -0.01458007]
[-0.00746331  0.02134478]
[0.01842386 0.01696752]
[-0.0116386  0.0007742]
[-0.01286127 -0.00514743]
[ 0.02527199 -0.02341935]
[ 0.0111404  -0.00025336]
[0.00195407 0.00432561]
[-0.00435425  0.01284093]
[-0.01880575  0.01466   ]
[ 0.02539376 -0.01820167]
[ 0.01147166 -0.01050224]
[-0.0025205 -0.0061728]
[0.02198456 0.0022468 ]
[0.00413139 0.00657781]
[0.00739359 0.01197892]
[-0.00915994 -0.00768009]
[ 0.00423216 -0.00080738]
[-0.01122913 -0.00233188]
[-0.01348639 -0.00775717]
[-0.01784044  0.00344885]
[-0.01167947  0.00353938]
[-0.03877534  0.0553926 ]
[-0.02511954  0.01919629]
[-0.01490351 -0.01452852]
[0.01594322 0.01499889]
[0.00858383 0.00666271]
[-0.00647467  0.01657644]
[-0.00675137  0.01985536]
[-0.03770531  0.03670128]
[-0.01349483  0.00701212]
[-0.00446729  0.00465546]
[-0.00873109 -0.00963899]
[0.01807842 0.00703527]
[0.00840557 0.01845043]
[0.00765356 0.00764341]
[-0.00719253  0.00103788]
[-0.00780761  0.01624935]
[-0.00799366 -0.0020324 ]
[ 0.00761859 -0.00727835]
[0.02189901 0.00105781]
[ 0.02878706 -0.00024596]
[-0.00796906 -0.02051644]
[ 0.0130076  -0.01979333]
[ 0.00214529 -0.01758716]
[-0.00482598  0.00042018]
[0.00261159 0.01592466]
[-0.01640804  0.00244931]
[-0.00500135 -0.02113046]
[ 0.04098083 -0.01964013]
[ 0.01874116 -0.02968022]
[0.00436314 0.00023827]
[-0.01148242  0.0181603 ]
[-0.03439264  0.02414198]
[0.00782933 0.01259643]
[-0.00467405  0.01123427]
[ 0.0030018  -0.01170429]
[ 0.0408724  -0.02508839]
[-0.02100969  0.01715324]
[0.00970868 0.0026438 ]
[0.00597544 0.01650235]
[-0.01009855  0.01154105]
[-0.0027706   0.00944396]
[0.0160569  0.00570854]
[ 0.00222903 -0.0111171 ]
[ 0.00271693 -0.00404992]
[ 0.01588995 -0.01061203]
[-0.01209511 -0.01521984]
[-0.00367789 -0.0075594 ]
[-0.06385804  0.04293811]
[0.00780857 0.01061825]
[0.0099577  0.00977188]
[-0.01961808 -0.00774239]
[ 0.01533773 -0.01767149]
[-0.03206826  0.02005187]
[0.01055026 0.01011106]
[-0.00258584  0.02305326]
[-0.01086762  0.01629704]
[ 0.01902114 -0.01966791]
[-0.00285222  0.00700217]
[-0.00254988  0.02649868]
[-0.00638977  0.02163053]
[-0.02121191  0.00557472]
[0.01196556 0.01165361]
[-0.01031592  0.00098169]
[-0.04287191  0.02417708]
[0.00568749 0.02547998]
[-0.0075667  -0.00499255]
[ 0.00848658 -0.0167696 ]
[ 0.01386591 -0.01765035]
[0.01816707 0.00808519]
[0.0196877  0.01197463]
[-0.00655756  0.01745008]
[-0.00193776 -0.0139048 ]
[0.0180859  0.00355579]
[0.0208213  0.00247179]
[ 0.01714492 -0.0183628 ]
[ 0.01144038 -0.00048504]
[1.6109733e-02 6.0766048e-05]
[-4.4914013e-05 -8.8526262e-03]
[ 0.00443883 -0.00012273]
[-0.00822914 -0.00091899]
[ 0.01821211 -0.0177703 ]
[-0.01110355 -0.01032739]
[-0.00652998 -0.01841214]
[ 0.01172979 -0.01395756]
[-0.00402076 -0.00816721]
[ 0.00940016 -0.00639764]
[ 0.02555509 -0.02165801]
[2.7383324e-02 5.1217266e-05]
[-0.00310625 -0.01734415]
[ 0.01154721 -0.00784219]
[-0.0157354 -0.004535 ]
[-0.00980725  0.01047578]
[ 0.01582428 -0.00713889]
[-0.00050547 -0.01373035]
[-0.00281479 -0.02306292]
[ 0.00935757 -0.02177628]
[-0.01114034  0.00065194]
[ 0.01353545 -0.01894233]
[0.00677057 0.01483523]
[-0.01918822  0.01488131]
[ 0.01194368 -0.0062624 ]
[-0.01056109 -0.01014468]
[ 0.00906375 -0.02346629]
[-0.01794007  0.0078739 ]
[ 0.00360373 -0.00453442]
[0.00167712 0.01465091]
[0.01133816 0.00284226]
[ 0.00718754 -0.00513297]
[-0.02683927  0.01672422]
[ 0.00203587 -0.00902521]
[ 0.02840378 -0.00756073]
[0.00058176 0.01648237]
[ 0.03253013 -0.03049853]
[-0.03370973  0.03251181]
[ 0.0052646  -0.00752743]
[-0.01296025  0.02470427]
[-0.00687505 -0.0021118 ]
[-0.00081637  0.00012797]
[-0.00207127  0.00588583]
[0.00769042 0.00982802]
[ 0.02098835 -0.00365851]
[-0.00987688  0.01171596]
[ 0.00270937 -0.01076059]
[0.0094489  0.00363935]
[-0.00804319  0.00684701]
[ 0.01498499 -0.01532998]
[ 0.00957486 -0.02025503]
[-0.00833515 -0.01410878]
[ 0.03501581 -0.02801628]
[-0.01048076  0.03592669]
[-0.00101259  0.01895729]
[-0.00048719 -0.0072204 ]
[-0.0212393  -0.01041559]
[-0.01217671  0.00677502]
[0.00309903 0.00944384]
[ 0.01778214 -0.01030076]
[-0.00087507 -0.00913051]
[-0.02085311  0.02479888]
[0.00825345 0.00955608]
[-0.01169178  0.01075816]
[-0.01671883 -0.0082671 ]
[-0.0088594   0.00353081]
[ 0.01697357 -0.01774263]
[ 0.0214462 -0.0154968]
[-0.04219263  0.03801052]
[-0.03424313  0.03335703]
[0.00515772 0.00652156]
[-0.01283472  0.01179151]
[ 0.01290253 -0.02949414]
[ 0.00379776 -0.00584262]
[-0.00890999 -0.00699719]
[-0.00968071  0.00100289]
[-0.04393362  0.04701309]
[-0.01596156  0.02432488]
[ 0.01846965 -0.03330873]
[-0.0059914  -0.01300771]
[ 0.03102919 -0.01332185]
[-0.00601446  0.00046217]
[-0.02775256  0.00729434]
[0.01075629 0.01285575]
[ 0.00956371 -0.01728711]
[-0.01987822 -0.00052206]
[-0.01879154  0.00575793]
[-0.00876958  0.01395239]
[-0.01554802  0.02247693]
[ 0.00176287 -0.01115578]
[0.00287832 0.0303222 ]
[-0.01602245  0.01258883]
[-0.00999143  0.02725437]
[-0.0363626   0.03495527]
[ 0.00244245 -0.00874939]
[-0.02632487  0.00625216]
[0.01316947 0.01516963]
[ 0.01091578 -0.00364512]
[-0.02744992  0.01815914]
[-0.02071039  0.02754441]
[-0.04602459  0.02763786]
[-0.01115861  0.03577647]
[0.00409905 0.00870246]
[-0.02090901  0.02146837]
[ 0.00958797 -0.0020902 ]
[-0.01385344  0.01420926]
[-0.00039272  0.03096305]
[ 0.00050118 -0.02828254]
[0.00286091 0.00693972]
[-0.01932811  0.00467215]
[-0.01017262 -0.00226256]
[-0.01810272 -0.00395551]
[ 0.00650852 -0.00469874]
[0.01215455 0.0035763 ]
[0.01731225 0.01336205]
[ 0.04909042 -0.05205688]
[ 0.00864381 -0.01884194]
[ 0.01686336 -0.01589248]
[-0.01942177  0.02185264]
[-0.00347533 -0.01020179]
[-0.0006916  -0.00283717]
[0.00384104 0.00164102]
[-0.00639692  0.00847991]
[ 0.02678273 -0.01859151]
[ 0.02041252 -0.01927775]
[0.00110898 0.01093974]
[ 0.00906015 -0.01957655]
[0.02083998 0.00077349]
[ 0.02869681 -0.00642098]
[-0.001646    0.01672695]
[-0.02188252  0.01532935]
[ 0.00676672 -0.01583476]
[ 0.00406299 -0.01173324]
[-0.01240108  0.00651102]
[ 0.01065671 -0.01589746]
[ 0.00673296 -0.03462518]
[ 0.0262704  -0.00360659]
[ 0.00376238 -0.01544821]
[-0.01137588 -0.00747892]
[-0.01033798 -0.00642253]
[-0.1167734   0.13484937]
[-0.01086511 -0.0106124 ]
[0.00394106 0.02014713]
[-0.01677966  0.0023912 ]
[ 0.01259213 -0.01634839]
[-0.00593396 -0.00644599]
[-0.02511089 -0.00153315]
[-0.02821187  0.01407687]
[-0.0547964   0.06191154]
[ 0.00209899 -0.00128108]
[-0.01964521 -0.0037682 ]
[ 0.01588034 -0.00074282]
[-0.01609181  0.01870473]
[-0.00668919 -0.00428961]
[-2.4263078e-02 -1.5260302e-06]
[-0.02940683  0.00119288]
[-0.01256249 -0.0057999 ]
[-0.00623612  0.01763212]
[0.01051124 0.01090096]
[-0.00069771  0.0155259 ]
[-0.01389548  0.00500442]
[-0.00886454 -0.01211695]
[0.00684562 0.00981897]
[-0.00723863 -0.00044267]
[0.01217079 0.01838429]
[-0.00530958  0.00158136]
[0.00120982 0.00545059]
[ 0.01815419 -0.03089788]
[ 0.00189477 -0.00974201]
[ 0.00600784 -0.00664393]
[ 0.00600441 -0.00169126]
[ 0.01408267 -0.01716069]
[0.00875665 0.00801028]
[-0.01071792 -0.0109658 ]
[-0.00103792 -0.00536763]
[ 0.04712341 -0.02300802]
[-0.00527558 -0.02485172]
[-0.00044894  0.00745387]
[-0.00854577  0.01313228]
[-0.01634348  0.00993916]
[ 0.01304998 -0.00484655]
[0.00778068 0.01721821]
[ 0.00268924 -0.01997642]
[ 0.01774635 -0.03078477]
[-0.00233737 -0.00436717]
[ 0.01520843 -0.0042404 ]
[-0.0229846  -0.01110769]
[-0.01515999  0.00358563]
[0.00428585 0.00339001]
[ 0.00286596 -0.01286641]
[ 8.898245e-05 -7.921224e-03]
[ 0.0145297  -0.00426806]
[0.01374646 0.00942209]
[ 0.00274566 -0.00347791]
[-0.0094207  -0.00496358]
[ 0.02379113 -0.00812934]
[-0.00827726  0.01011441]
[-0.01258021  0.01880006]
[0.01839756 0.00867964]
[ 0.01595606 -0.00365172]
[ 0.01698241 -0.01195731]
[-0.00260796 -0.00638037]
[ 0.00398392 -0.00486304]
[ 0.0291513  -0.05757548]
[-0.01988875  0.01641428]
[-0.01132467  0.01845435]
[ 0.04250882 -0.04886113]
[ 0.00715184 -0.00101479]
[ 0.01147943 -0.00992403]
[0.00378455 0.00253519]
[ 0.00037887 -0.00690639]
[-0.01048602  0.00155072]
[ 0.00284894 -0.01514056]
[-0.0144432   0.00146922]
[0.00021356 0.00723187]
[ 0.05251505 -0.04215527]
[-0.0066154   0.01358388]
[-0.0045126   0.00299946]
[ 0.01563348 -0.0082694 ]
[ 0.01304446 -0.00310951]
[ 0.01041444 -0.00346483]
[ 0.02018858 -0.01750406]
[ 0.02740671 -0.00108507]
[0.00242676 0.00138734]
[0.02240121 0.00592193]
[ 0.00211479 -0.01009636]
[-0.01044476 -0.00968992]
[ 0.01667775 -0.00768926]
[ 0.00410153 -0.02260891]
[0.01410847 0.0017959 ]
[-0.01849147  0.00706048]
[-0.00363734 -0.00029139]
[-0.01494207 -0.00051084]
[ 0.00872634 -0.01928116]
[0.02033318 0.00544344]
[-0.00544786  0.00725003]
[ 0.02144202 -0.00461798]
[0.01079226 0.00512966]
[ 0.01175004 -0.01503043]
[0.00404648 0.0058139 ]
[ 0.0157732  -0.01826601]
[ 0.01291462 -0.00343159]
[0.00693197 0.00427893]
[0.0071816  0.00041959]
[-0.02204968  0.00838471]
[ 0.01547049 -0.00465896]
[-0.00881176 -0.01601888]
[-0.01964484 -0.00275244]
[-0.00330924 -0.00561371]
[ 0.00052688 -0.01977048]
[-0.01206965  0.00416607]
[ 0.00675789 -0.01499293]
[0.00079239 0.00588266]
[ 0.02347982 -0.00806598]
[-0.02077911 -0.00013839]
[-0.0102679  -0.00484158]
[0.0039689  0.00338125]
[0.01844731 0.00744843]
[ 0.00305752 -0.00909189]
[-0.02802177  0.00419472]
[ 0.0068892  -0.00921523]
[-0.03433783  0.029665  ]
[-0.0065046 -0.0037584]
[ 0.0233186  -0.01199379]
[-0.00216302 -0.00076612]
[0.00333883 0.00259898]
[-0.00278607 -0.01559446]
[0.01015048 0.00464169]
[-0.00601025  0.01723424]
[-0.01562344  0.01281556]
[-0.01248139  0.02179278]
[-0.00982676  0.00826618]
[-0.00574169  0.02092307]
[-0.0077177   0.00694486]
[-0.00138008 -0.02606092]
[-0.0340162   0.05304809]
[ 0.01400808 -0.04224513]
[-0.00218751  0.01495076]
[0.00069605 0.01111413]
[-0.02479867  0.01560031]
[-0.00195083  0.01735898]
[-0.00226714 -0.01644165]
[0.00545808 0.006577  ]
[ 0.02591274 -0.04268841]
[ 9.379202e-05 -9.932502e-04]
[-0.0317384  0.0048368]
[-0.01417046  0.01219829]
[-0.01174244 -0.00026435]
[ 0.0292045  -0.01306837]
[-0.0050475  -0.01937466]
[-0.00433004 -0.00800908]
[ 0.02333488 -0.00182973]
[-0.01453294  0.01617144]
[0.00092353 0.01065359]
[ 0.01589455 -0.00611142]
[-0.01031544  0.01391763]
[-0.00395822  0.00496171]
[ 0.00358468 -0.01712209]
[0.01847239 0.01138905]
[ 0.05375096 -0.04969449]
[-0.02837953  0.03929922]
[0.00890973 0.01465725]
[0.02427132 0.00138058]
[-0.0006313   0.00165011]
[ 0.04163438 -0.02900071]
[-0.0090573   0.01656249]
[-0.01725123  0.00778201]
[-0.00913389  0.02147359]
[-0.04381651  0.04664436]
[-0.02023268  0.01815307]
[0.00110192 0.00936119]
[-0.02662694  0.01663939]
[-0.01181064  0.01587997]
[-0.00629207 -0.00290816]
[-0.01814865  0.01191985]
[-0.00152643  0.00264764]
[-0.07348279  0.08659731]
[-0.01532402  0.02440788]
[0.00917102 0.01946888]
[-0.01869566  0.0002882 ]
[-0.01625674  0.00818248]
[ 0.00959869 -0.00206498]
[-0.02795977  0.02396571]
[-0.02930208  0.02925428]
[-0.03377772  0.01697739]
[-0.01216554  0.01450776]
[0.00112299 0.01293869]
[0.00545871 0.00222049]
[0.00543475 0.01298343]
[0.00132462 0.01977027]
[ 0.00189649 -0.00186173]
[ 0.04430127 -0.03688004]
[ 0.0097237  -0.00029539]
[-0.00743349 -0.00349361]
[0.01008201 0.00019476]
[ 0.01170703 -0.01215714]
[-0.01225979 -0.00865524]
[-0.01646524 -0.01457485]
[-0.00156914  0.00989333]
[-0.0665492   0.07475775]
[0.00085161 0.01264968]
[ 0.01207602 -0.01270336]
[ 0.00601313 -0.0196043 ]
[ 0.0220503  -0.02933501]
[-0.00335143 -0.00488941]
[0.0142828  0.01592084]
[-0.00834228 -0.01406888]
[ 0.0266821  -0.03380142]
[0.02181578 0.00559257]
[ 0.01846624 -0.0066705 ]
[-0.00144311  0.00127246]
[-0.00351202 -0.01492461]
[0.01289422 0.00122066]
[0.00786515 0.00184923]
[-0.00157633 -0.00917644]
[ 0.01733142 -0.00466471]
[-0.00369745 -0.00788506]
[0.00093725 0.02109336]
[-0.01504923  0.0136963 ]
[ 0.001072   -0.01737761]
[0.01694987 0.00276761]
[0.01673792 0.01752541]
[-0.00404069  0.00118099]
[ 0.00462566 -0.00129886]
[-0.00093731  0.00034601]
[0.01226092 0.01213783]
[0.00548469 0.01404124]
[-0.00822738  0.01903314]
[ 0.04038508 -0.02220963]
[-0.0102775   0.01080052]
[-0.00802892  0.02442614]
[ 0.02275416 -0.01080742]
[-0.02906417  0.02819025]
[-0.02081289  0.03798518]
[-0.01607016  0.00163071]
[0.00516787 0.00360757]
[-0.00848516  0.01769227]
[-0.01703743  0.00072974]
[-0.0100124   0.01633461]
[ 0.00179446 -0.00892964]
[-0.17155094  0.1809039 ]
[-0.01969551  0.02275028]
[ 0.00921834 -0.01166053]
[-0.01204174  0.00569675]
[-0.00511471 -0.01560802]
[0.00152491 0.00669168]
[-0.00336017 -0.00338599]
[ 0.01262393 -0.03800337]
[-0.05837131  0.05774457]
[-0.02314971 -0.00817882]
[0.00110225 0.00910543]
[-0.01860701  0.00696513]
[-0.01156002  0.01982454]
[-0.00140829 -0.00717021]
[-0.0165521   0.02208439]
[-0.07953077  0.09570033]
[0.00015891 0.01714445]
[-0.00540267 -0.00084866]
[-0.01583175  0.02055781]
[ 0.03028057 -0.01270046]
[ 0.00479077 -0.00161959]
[ 0.00066765 -0.00102707]
[ 0.01849129 -0.0089913 ]
[-0.04952822  0.04293054]
[-0.071923    0.06373595]
[-0.05350987  0.05380625]
[-0.006259    0.00051378]
[ 0.02702097 -0.02166797]
[0.01444995 0.01185738]
[-0.01724593 -0.00120089]
[-0.01095701 -0.0115358 ]
[0.00573479 0.0031635 ]
[-0.02553591  0.01862317]
[-0.07613676  0.0478848 ]
[-0.00079799  0.00662764]
[ 0.00505984 -0.02650003]
[0.00826773 0.01098431]
[-0.01147962  0.01176738]
[ 0.01667068 -0.02255858]
[ 0.00229048 -0.02147654]
[-0.08435123  0.07320189]
[-0.03468122  0.02003171]
[ 0.01575372 -0.00516999]
[0.0215743  0.00259442]
[ 0.00974846 -0.00301714]
[-0.01184618 -0.00975488]
[-0.01101425 -0.01230517]
[-0.00296638 -0.00670631]
[ 0.01670505 -0.00088086]
[0.0160772  0.01603954]
[0.00572484 0.01523356]
[ 0.00084986 -0.00747411]
[ 0.01287481 -0.01264377]
[0.0156901  0.01455494]
[-0.00413012  0.00443727]
[ 0.04644371 -0.03086861]
[-0.01334334  0.0178095 ]
[ 0.00158387 -0.01606268]
[ 0.03785162 -0.01539881]
[ 0.00923817 -0.00721927]
[ 0.02807562 -0.02392863]
[-0.00294744  0.01251885]
[-0.01153279 -0.00523326]
[-0.09279379  0.08323371]
[-0.02892461  0.00167531]
[-0.00256748  0.01823639]
[ 0.00055844 -0.01310102]
[0.01462074 0.01319484]
[-0.02114571  0.00097789]
[0.01040745 0.00938985]
[0.01572509 0.01356703]
[-0.02941852  0.05027411]
[-0.01370319 -0.01248438]
[0.01608361 0.00582644]
[ 0.00491861 -0.00419396]
[0.02328061 0.01063567]
[-0.00327766  0.01621016]
[ 0.01264992 -0.00715905]
[-0.00657538 -0.0042947 ]
[-0.06155866  0.07110944]
[-0.00714481 -0.02060781]
[-0.00766602  0.00130408]
[0.001114   0.00173925]
[ 0.00467729 -0.01807429]
[-0.01193709  0.01999011]
[ 0.01765762 -0.00826911]
[ 0.00928636 -0.00419812]
[-0.02850252  0.00311555]
[-0.00146001  0.01627346]
[-0.01443444  0.01122643]
[ 0.01057085 -0.01577217]
[-0.0169038 -0.0108743]
[ 0.00957727 -0.00101226]
[ 0.00602202 -0.00438694]
[0.01121038 0.00820547]
[-0.00185595  0.01843026]
[-0.01907778 -0.01004571]
[-0.01309378  0.00525613]
[-0.01567681 -0.00408526]
[-0.02117722 -0.00847225]
[-0.01518436  0.01323675]
[-0.00565495 -0.00927778]
[-0.0112418  -0.00625835]
[-0.01698219  0.00602263]
[ 0.012342   -0.01427986]
[-0.02201336  0.01684179]
[-0.01700428  0.00805621]
[ 0.0016937  -0.01436404]
[-1.5927320e-02 -5.3747593e-05]
[-0.00534353  0.00123171]
[-0.01448307  0.01885385]
[ 0.01061574 -0.01351768]
[ 0.0091508  -0.01795909]
[ 0.02280356 -0.02458079]
[-0.00306305  0.0090592 ]
[-0.01692815  0.00995446]
[ 0.02712529 -0.03162861]
[0.01551791 0.00828827]
[ 0.00263128 -0.02991775]
[-0.00062725  0.00525622]
[ 0.03520549 -0.02207201]
[-0.00717495 -0.00440128]
[-0.00897197  0.02277624]
[-0.00951318  0.00250245]
[-0.02721928  0.0158601 ]
[-0.00360547  0.004099  ]
[ 0.01500721 -0.01740535]
[-0.03850576  0.016248  ]
[ 0.00923496 -0.0048722 ]
[-0.00026719  0.00644112]
[ 0.01300514 -0.00883621]
[0.00690551 0.00683578]
[0.01062751 0.01014125]
[ 0.02326522 -0.02135168]
[0.01510559 0.00525172]
[ 0.01878541 -0.04774732]
[-0.06503358  0.07502905]
[-0.01562842  0.01653946]
[ 0.05453264 -0.04842646]
[ 0.01505805 -0.00086622]
[ 0.07587316 -0.0573998 ]
[0.02042693 0.00044437]
[-0.01213072  0.00644106]
[ 0.00879912 -0.00899309]
[-0.04943494  0.05392115]
[-0.0150541   0.00420391]
[ 0.05485653 -0.0304022 ]
[ 0.02071744 -0.03051432]
[ 0.00714591 -0.01299981]
[ 0.00278565 -0.00707382]
[-0.00900372 -0.0065201 ]
[-0.01180558 -0.00138175]
[-0.04183507  0.05150849]
[-0.00251543  0.0102556 ]
[ 0.0025702  -0.01239365]
[-0.0060887  -0.00162737]
[ 0.0315116  -0.00988356]
[-0.02070735 -0.00990121]
[-0.00301789  0.00962935]
[-0.00326637  0.01921486]
[-0.06848116  0.07785864]
[-0.02501387  0.03595391]
[-0.00945973  0.01555945]
[-0.02708243  0.00729504]
[-0.01053314  0.0182042 ]
[0.00775385 0.01708363]
[-0.02190994  0.00804639]
[-0.01571744 -0.01708155]
[0.01131758 0.00663529]
[-0.01084115  0.03005538]
[-0.00908373  0.00953486]
[0.0087606  0.00287439]
[0.01086645 0.00452727]
[-0.01567413 -0.00111746]
[ 0.00257575 -0.01193559]
[ 0.01298334 -0.01801521]
[-0.01949222  0.01662111]
[-0.01339985  0.01184359]
[ 0.01974853 -0.01844123]
[ 0.01402223 -0.01455814]
[-0.00324039  0.02658561]
[ 6.6639259e-05 -1.1270493e-02]
[-0.00638554 -0.0038614 ]
[ 0.00395024 -0.00385727]
[-0.00514275 -0.01196298]
[0.01821775 0.00573109]
[ 0.00427388 -0.01199655]
[ 0.00450345 -0.02941541]
[ 0.01008079 -0.01970085]
[0.01966646 0.00532706]
[0.01213964 0.02348261]
[ 0.00013838 -0.01378576]
[-0.00680319  0.0053103 ]
[0.01275872 0.00799765]
[0.01907255 0.00890576]
[0.02657046 0.00442601]
[ 0.00330808 -0.02041466]
[ 0.01556598 -0.00182392]
[0.00662172 0.01875925]
[ 0.01526257 -0.0086801 ]
[-0.00039074 -0.01010618]
[-0.01242771  0.00023869]
[ 0.02837945 -0.01652288]
[ 0.00960571 -0.00041336]
[-0.0058597  -0.00343921]
[0.00433746 0.01055823]
[-0.02460784 -0.01097955]
[ 0.02194421 -0.01833188]
[-0.00348824 -0.0063182 ]
[0.00050426 0.00717662]
[0.00855014 0.00294161]
[-0.01686818 -0.00529085]
[-0.00149438 -0.0298679 ]
[-0.0011964   0.01747477]
[-0.01355991  0.02431641]
[ 0.02779167 -0.02810242]
[-0.029735    0.03274924]
[0.00092989 0.02442655]
[ 0.00033866 -0.01499804]
[ 0.0034624  -0.01478431]
[-0.00382183  0.00464993]
[0.00470353 0.00439357]
[-0.0094986   0.00270295]
[0.00113275 0.01622009]
[-0.11345506  0.08510523]
[-0.04029697  0.04517984]
[-0.0177197  -0.00415793]
[0.00221618 0.01192806]
[0.00015815 0.02238825]
[-0.0057607  -0.00451351]
[-0.01602559  0.01139341]
[ 0.00320197 -0.0116964 ]
[-0.04098494  0.0456119 ]
[0.00050911 0.00165933]
[0.00149429 0.00488342]
[-0.0139373   0.03206639]
[-0.00858338  0.00057714]
[-0.02020983  0.01171744]
[0.00796132 0.01926856]
[-0.01776635  0.0179028 ]
[0.00959855 0.00531123]
[-0.00584901 -0.00270236]
[-0.00236165 -0.02235544]
[ 0.03583238 -0.02291721]
[-0.01481075  0.0206269 ]
[0.01168859 0.00195601]
[-0.00457264  0.00542225]
[-0.03663056  0.02582972]
[-0.0861862   0.10416932]
[-0.01651865  0.01978853]
[-0.02167506  0.01796043]
[ 0.02763913 -0.00390419]
[-0.01340957  0.00474668]
[-0.00159492 -0.01112689]
[ 0.00222559 -0.00881235]
[0.02183661 0.00257832]
[-0.11658571  0.08955401]
[-0.07529414  0.0599045 ]
[-0.00886449 -0.00945585]
[ 0.02233986 -0.0079416 ]
[0.01111911 0.00434657]
[-0.00992116  0.01755974]
[-0.01321099  0.00435679]
[-0.00661224 -0.0138314 ]
[-0.08831058  0.09491762]
[-0.04154441  0.04030607]
[0.00807356 0.01186907]
[ 0.01417866 -0.02056287]
[-0.01456929  0.00799567]
[0.01050306 0.01617067]
[-0.01491841  0.00517906]
[ 0.01985962 -0.01013409]
[-0.07211408  0.09813419]
[-0.02192755  0.01905   ]
[-0.00348766  0.01023609]
[ 0.02514256 -0.00648655]
[-0.01518764  0.00478379]
[-0.00427486 -0.00205122]
[-0.02035636  0.00977619]
[0.011302   0.01571053]
[-0.06715664  0.05192958]
[-0.02400948  0.00491411]
[0.0192598  0.00480824]
[ 0.02045446 -0.01501184]
[-0.00460171 -0.01000736]
[-0.00102702 -0.01797773]
[-0.01919973 -0.01180712]
[-0.00810347 -0.01293839]
[-0.01263253  0.01938138]
[-0.01635459  0.01691549]
[-0.00797108  0.00737464]
[-0.00285839 -0.00422311]
[-0.00413024 -0.00438993]
[-0.00286991 -0.01605914]
[ 0.0152498  -0.01639952]
[0.00068662 0.00839167]
[-0.01743656  0.01688295]
[0.00484633 0.00578374]
[ 0.01606682 -0.01030147]
[-0.0154423 -0.0051218]
[ 0.01414065 -0.02929357]
[-0.0072448  -0.00201037]
[0.00497532 0.00605038]
[ 0.02185044 -0.00806752]
[ 0.01286386 -0.00741438]
[0.00511429 0.02114236]
[-0.00766879  0.00875462]
[0.01224241 0.00808806]
[ 0.0121152  -0.00403567]
[0.0012263  0.00153238]
[-0.00715234 -0.01359915]
[ 0.02298926 -0.00013431]
[-0.00801166  0.01900395]
[-0.00554158  0.01224107]
[0.00401499 0.01190734]
[ 0.00261097 -0.00918324]
[ 0.01754301 -0.02361614]
[0.00046756 0.00535446]
[-0.00328901 -0.00429923]
[0.00855641 0.00165774]
[-0.01288978 -0.01183249]
[-0.01775276 -0.01029581]
[-0.01208515  0.0074365 ]
[-1.3708429e-03 -9.5835450e-05]
[-0.02789612  0.02052162]
[-0.01218762 -0.01167027]
[0.0129151  0.00638915]
[3.0928187e-03 3.1096981e-05]
[0.00409035 0.00108391]
[-0.01314449 -0.01023689]
[-0.0024079   0.00419108]
[0.00282708 0.00958459]
[0.00025698 0.00288305]
[-0.00577941  0.00887913]
[0.01273903 0.00042876]
[-0.0178817 -0.0062069]
[ 0.0239321  -0.00791456]
[-0.02564989  0.01528742]
[ 0.00128867 -0.00637209]
[ 0.01666712 -0.01087856]
[-0.02812602  0.0350268 ]
[-0.00827475 -0.00459179]
[ 0.00132776 -0.02095998]
[ 0.02616165 -0.03140434]
[ 0.00472844 -0.00746366]
[-0.02872028  0.02705759]
[-0.01720886  0.00404258]
[ 0.0100557  -0.01655343]
[ 0.05519633 -0.05535221]
[-0.00734425  0.0153508 ]
[-0.02369235  0.00686809]
[-0.06839807  0.07866569]
[0.02152709 0.00697596]
[ 0.01816016 -0.01176058]
[-0.01049854  0.00264306]
[-0.00656579 -0.00308321]
[-0.03324147  0.01201362]
[-0.00389164 -0.0090265 ]
[ 0.0059192  -0.00923607]
[0.02817584 0.00282353]
[0.00483038 0.00578251]
[0.00738104 0.00761988]
[-0.00394143 -0.01548318]
[-0.00203868 -0.00019478]
[0.00075953 0.01355229]
[ 0.01527    -0.00273552]
[-0.00074893 -0.00289854]
[ 0.00456522 -0.03208053]
[-0.0455497   0.02513952]
[-0.01510874  0.02359477]
[-0.00919361 -0.00092211]
[-0.00474916  0.01703264]
[-0.0069019   0.01099434]
[ 0.00870239 -0.01224914]
[-0.02163567  0.0017161 ]
[ 0.04986341 -0.02549165]
[-0.03357797  0.03754031]
[-0.02235802  0.01170706]
[ 0.02822078 -0.00494154]
[-0.02013772  0.01113045]
[ 0.04081859 -0.03507554]
[ 0.00426697 -0.00589328]
[-0.01244712 -0.0061251 ]
[-0.02473096  0.0009726 ]
[-0.01946219  0.01555251]
[-0.02341956  0.02307975]
[ 0.0045238 -0.0010208]
[-0.01297124  0.00350906]
[-0.00403894 -0.00523789]
[0.01257101 0.01295279]
[-0.00806369  0.02328985]
[ 0.00798355 -0.01602199]
[-0.00735871 -0.0091213 ]
[ 0.01214351 -0.00494647]
[0.01450284 0.01830496]
[ 0.01529745 -0.00242805]
[-0.02477637  0.02597885]
[-0.01048341 -0.00027285]
[0.01074417 0.01431033]
[ 0.01898791 -0.03016245]
[ 0.01975719 -0.00621985]
[-0.01174941 -0.00755216]
[-0.00748322  0.00106511]
[ 0.00141572 -0.02266252]
[ 0.00683831 -0.01352158]
[-0.01305107  0.01389765]
[-0.00375583  0.00030982]
[ 0.00784017 -0.01110907]
[ 0.01879672 -0.00140024]
[-0.01523209 -0.01269461]
[-0.00710342  0.00693747]
[-0.00354313  0.0123044 ]
[ 0.013567   -0.00827482]
[-0.00406692  0.00469834]
[-0.01351255 -0.00477509]
[0.00686687 0.00399137]
[ 0.01923764 -0.01733598]
[0.01245511 0.00463945]
[0.01064366 0.00373583]
[ 0.02237724 -0.02015546]
[-0.00961313 -0.01815762]
[ 0.0122113  -0.02793743]
[-0.01351861 -0.01316349]
[ 0.02347854 -0.01810602]
[-0.00951072  0.00551359]
[ 0.00540147 -0.01320477]
[ 0.03118564 -0.00597913]
[ 0.00112151 -0.01141127]
[ 0.02403455 -0.02784384]
[ 0.00137209 -0.01866394]
[ 0.00944299 -0.00819071]
[ 0.02359216 -0.01912558]
[ 0.00523965 -0.0017742 ]
[-0.01182566  0.01627081]
[ 0.00320384 -0.00086874]
[0.00462828 0.00878332]
[-0.00088269 -0.01276181]
[-0.01809982  0.01852087]
[-0.0130651  0.0179132]
